{"learner":{"attributes":{"scikit_learn":"{\"_estimator_type\": \"regressor\"}"},"feature_names":["latency_ms","block_lag"],"feature_types":["float","float"],"gradient_booster":{"model":{"cats":{"enc":[],"feature_segments":[],"sorted_idx":[]},"gbtree_model_param":{"num_parallel_tree":"1","num_trees":"100"},"iteration_indptr":[0,1,2,3,4,5,6,7,8,9,10,11,12,13,14,15,16,17,18,19,20,21,22,23,24,25,26,27,28,29,30,31,32,33,34,35,36,37,38,39,40,41,42,43,44,45,46,47,48,49,50,51,52,53,54,55,56,57,58,59,60,61,62,63,64,65,66,67,68,69,70,71,72,73,74,75,76,77,78,79,80,81,82,83,84,85,86,87,88,89,90,91,92,93,94,95,96,97,98,99,100],"tree_info":[0,0,0,0,0,0,0,0,0,0,0,0,0,0,0,0,0,0,0,0,0,0,0,0,0,0,0,0,0,0,0,0,0,0,0,0,0,0,0,0,0,0,0,0,0,0,0,0,0,0,0,0,0,0,0,0,0,0,0,0,0,0,0,0,0,0,0,0,0,0,0,0,0,0,0,0,0,0,0,0,0,0,0,0,0,0,0,0,0,0,0,0,0,0,0,0,0,0,0,0],"trees":[{"base_weights":[1.4005008E-7,6.992272E-1,-2.1025708E0,4.255078E-1,5.5243697E0,-2.7167218E0,6.337311E0,1.2195219E0,-1.1891986E0,9.480936E0,-5.6725943E-1,-2.3302896E0,-3.784749E0,6.204506E-1,8.838711E0,2.1353656E-1,6.6188025E0,-8.325774E-1,6.1369926E-1,5.5699344E0,3.5153837E0,-2.7841504E0,1.660061E0,-3.0778465E0,-1.0629467E0,-1.1581324E0,-1.9303666E-1,3.6080973E0,4.924303E-1,-9.2310613E-1,1.1282444E0,2.0723263E1,4.6408257E0,6.378458E0,-7.5031734E-1,4.059827E0,-3.217453E-1,-1.5795007E-1,-1.0346851E0,-2.0400548E0,-1.0539292E0,2.0637147E0,-1.678164E0,1.2188341E-1,-5.1809615E-1,4.2863646E0,-2.1858576E-1,5.5081403E-1,7.495816E0,2.7289012E-1,3.1650274E0,1.6041368E-1,-1.1549449E0,-6.66183E-1,5.0531036E-1,-7.227593E-1,3.933045E-2,-7.288001E-1,1.0845566E0],"categories":[],"categories_nodes":[],"categories_segments":[],"categories_sizes":[],"default_left":[0,0,0,0,0,0,0,0,0,0,0,0,0,0,0,0,0,0,0,0,0,0,0,0,0,0,0,0,0,0,0,0,0,0,0,0,0,0,0,0,0,0,0,0,0,0,0,0,0,0,0,0,0,0,0,0,0,0,0],"id":0,"left_children":[1,3,5,7,9,11,13,15,17,19,21,23,25,-1,27,29,31,-1,33,35,-1,37,-1,39,41,-1,-1,-1,-1,43,45,47,49,-1,51,-1,53,-1,-1,55,-1,-1,57,-1,-1,-1,-1,-1,-1,-1,-1,-1,-1,-1,-1,-1,-1,-1,-1],"loss_changes":[8.4241E2,5.655654E2,7.584376E2,5.245469E2,5.597225E2,4.6484863E1,8.850836E1,1.4868442E3,3.8773608E2,5.7217163E1,1.5065417E2,9.241693E1,5.600189E0,0E0,1.17940094E2,2.4225093E2,1.1034536E3,0E0,1.8184475E3,3.3275482E2,0E0,1.0191208E1,0E0,2.1290161E1,2.0210022E2,0E0,0E0,0E0,0E0,1.1184297E2,3.1626091E3,3.566858E2,8.502987E2,0E0,2.4501839E2,0E0,2.278701E1,0E0,0E0,1.7146645E1,0E0,0E0,1.5590211E2,0E0,0E0,0E0,0E0,0E0,0E0,0E0,0E0,0E0,0E0,0E0,0E0,0E0,0E0,0E0,0E0],"parents":[2147483647,0,0,1,1,2,2,3,3,4,4,5,5,6,6,7,7,8,8,9,9,10,10,11,11,12,12,14,14,15,15,16,16,18,18,19,19,21,21,23,23,24,24,29,29,30,30,31,31,32,32,34,34,36,36,39,39,42,42],"right_children":[2,4,6,8,10,12,14,16,18,20,22,24,26,-1,28,30,32,-1,34,36,-1,38,-1,40,42,-1,-1,-1,-1,44,46,48,50,-1,52,-1,54,-1,-1,56,-1,-1,58,-1,-1,-1,-1,-1,-1,-1,-1,-1,-1,-1,-1,-1,-1,-1,-1],"split_conditions":[1.2441351E3,1.1748092E3,1.708386E3,3.7930487E2,1.1916151E3,1.484428E3,1.753716E3,3.6222388E2,4.4291113E2,1.1839559E3,1.241386E3,1.3835063E3,1E0,6.204506E-1,3.0116492E3,2.2467398E2,3.6307788E2,-8.325774E-1,4.4646597E2,1.1784971E3,3.5153837E0,1.1975178E3,1.660061E0,1.2856271E3,1.3899441E3,-1.1581324E0,-1.9303666E-1,3.6080973E0,4.924303E-1,1.8737627E2,2.4282884E2,3.6223007E2,3.7157727E2,6.378458E0,1.1347361E3,4.059827E0,1.183017E3,-1.5795007E-1,-1.0346851E0,1.2674298E3,-1.0539292E0,2.0637147E0,1E0,1.2188341E-1,-5.1809615E-1,4.2863646E0,-2.1858576E-1,5.5081403E-1,7.495816E0,2.7289012E-1,3.1650274E0,1.6041368E-1,-1.1549449E0,-6.66183E-1,5.0531036E-1,-7.227593E-1,3.933045E-2,-7.288001E-1,1.0845566E0],"split_indices":[0,0,0,0,0,0,0,0,0,0,0,0,1,0,0,0,0,0,0,0,0,0,0,0,0,0,0,0,0,0,0,0,0,0,0,0,0,0,0,0,0,0,1,0,0,0,0,0,0,0,0,0,0,0,0,0,0,0,0],"split_type":[0,0,0,0,0,0,0,0,0,0,0,0,0,0,0,0,0,0,0,0,0,0,0,0,0,0,0,0,0,0,0,0,0,0,0,0,0,0,0,0,0,0,0,0,0,0,0,0,0,0,0,0,0,0,0,0,0,0,0],"sum_hessian":[5.71E2,4.29E2,1.42E2,4.07E2,2.2E1,1.33E2,9E0,2.73E2,1.34E2,1.3E1,9E0,1E2,3.3E1,4E0,5E0,2.31E2,4.2E1,7.1E1,6.3E1,6E0,7E0,7E0,2E0,6.2E1,3.8E1,3.2E1,1E0,3E0,2E0,1.03E2,1.28E2,4E0,3.8E1,3E0,6E1,2E0,4E0,2E0,5E0,2E1,4.2E1,2E0,3.6E1,3.9E1,6.4E1,1.5E1,1.13E2,1E0,3E0,2.4E1,1.4E1,4.3E1,1.7E1,2E0,2E0,1.7E1,3E0,3.2E1,4E0],"tree_param":{"num_deleted":"0","num_feature":"2","num_nodes":"59","size_leaf_vector":"1"}},{"base_weights":[5.531686E-2,5.5362016E-1,-1.4434644E0,3.4615818E-1,4.2097445E0,-1.9066982E0,4.908215E0,9.089796E-1,-7.98725E-1,7.1662507E0,-3.5033894E-1,-1.6244493E0,-2.6890645E0,4.715424E-1,6.8705187E0,1.6530137E-1,4.900244E0,-1.9542435E0,5.137134E-1,4.455948E0,2.5925953E0,-2.0979846E0,1.3280487E0,-1.8538321E0,1.2738562E0,-8.212211E-1,-1.640811E-1,2.7962756E0,3.9394417E-1,4.2865342E-1,-8.9684284E-1,1.2397387E1,2.5510776E0,-1.5159475E0,-6.465377E-1,4.9433055E0,-5.415258E-1,3.2478616E0,-2.5739592E-1,-9.2268646E-1,-9.127834E-1,-2.1820698E0,-1.1496823E0,1.2478691E0,-3.868443E-1,8.346079E-2,4.8937683E0,4.6819198E-1,4.0284195E0,-4.08065E-1,2.2788196E0,-6.8513554E-1,5.6449894E-2,3.6217207E-1,-5.125466E-1,-5.3294635E-1,4.0424836E-1,-1.2635998E-1,-3.349833E-1,-5.20929E-1,-8.644796E-1,1.6509717E0,-5.329955E-1],"categories":[],"categories_nodes":[],"categories_segments":[],"categories_sizes":[],"default_left":[0,0,0,0,0,0,0,0,0,0,0,0,0,0,0,0,0,0,0,0,0,0,0,0,0,0,0,0,0,0,0,0,0,0,0,0,0,0,0,0,0,0,0,0,0,0,0,0,0,0,0,0,0,0,0,0,0,0,0,0,0,0,0],"id":1,"left_children":[1,3,5,7,9,11,13,15,17,19,21,23,25,-1,27,29,31,33,35,37,-1,39,-1,41,43,-1,-1,-1,-1,45,-1,47,49,51,-1,-1,53,-1,55,57,-1,59,61,-1,-1,-1,-1,-1,-1,-1,-1,-1,-1,-1,-1,-1,-1,-1,-1,-1,-1,-1,-1],"loss_changes":[4.2799597E2,3.2470062E2,4.301092E2,2.6362686E2,3.1259467E2,2.5221924E1,5.4671295E1,8.124812E2,2.057378E2,1.7487305E1,9.277539E1,6.9508514E1,2.0234528E0,0E0,6.946695E1,1.94031E2,7.256909E2,3.072235E0,1.0870548E3,2.1296312E2,0E0,6.0743637E0,0E0,1.9217407E1,6.454001E1,0E0,0E0,0E0,0E0,5.0925723E2,0E0,9.0735596E1,6.8123486E2,3.445028E1,0E0,0E0,1.2654799E2,0E0,1.4583685E1,1.5936375E-2,0E0,1.4635803E1,1.4325502E2,0E0,0E0,0E0,0E0,0E0,0E0,0E0,0E0,0E0,0E0,0E0,0E0,0E0,0E0,0E0,0E0,0E0,0E0,0E0,0E0],"parents":[2147483647,0,0,1,1,2,2,3,3,4,4,5,5,6,6,7,7,8,8,9,9,10,10,11,11,12,12,14,14,15,15,16,16,17,17,18,18,19,19,21,21,23,23,24,24,29,29,31,31,32,32,33,33,36,36,38,38,39,39,41,41,42,42],"right_children":[2,4,6,8,10,12,14,16,18,20,22,24,26,-1,28,30,32,34,36,38,-1,40,-1,42,44,-1,-1,-1,-1,46,-1,48,50,52,-1,-1,54,-1,56,58,-1,60,62,-1,-1,-1,-1,-1,-1,-1,-1,-1,-1,-1,-1,-1,-1,-1,-1,-1,-1,-1,-1],"split_conditions":[1.2441351E3,1.1748092E3,1.708386E3,3.7930487E2,1.1916151E3,1.484428E3,1.753716E3,3.6222388E2,4.4291113E2,1.1839559E3,1.241386E3,1.4571711E3,1E0,4.715424E-1,3.0116492E3,3.5739493E2,3.6457013E2,4.1382193E2,4.4646597E2,1.1784971E3,2.5925953E0,1.21537E3,1.3280487E0,1.3835063E3,1.462163E3,-8.212211E-1,-1.640811E-1,2.7962756E0,3.9394417E-1,1E0,-8.9684284E-1,3.6223007E2,3.7157727E2,4.059248E2,-6.465377E-1,4.9433055E0,5.900481E2,3.2478616E0,1.183017E3,1.1975178E3,-9.127834E-1,1.3237582E3,1.3899441E3,1.2478691E0,-3.868443E-1,8.346079E-2,4.8937683E0,4.6819198E-1,4.0284195E0,-4.08065E-1,2.2788196E0,-6.8513554E-1,5.6449894E-2,3.6217207E-1,-5.125466E-1,-5.3294635E-1,4.0424836E-1,-1.2635998E-1,-3.349833E-1,-5.20929E-1,-8.644796E-1,1.6509717E0,-5.329955E-1],"split_indices":[0,0,0,0,0,0,0,0,0,0,0,0,1,0,0,0,0,0,0,0,0,0,0,0,0,0,0,0,0,1,0,0,0,0,0,0,0,0,0,0,0,0,0,0,0,0,0,0,0,0,0,0,0,0,0,0,0,0,0,0,0,0,0],"split_type":[0,0,0,0,0,0,0,0,0,0,0,0,0,0,0,0,0,0,0,0,0,0,0,0,0,0,0,0,0,0,0,0,0,0,0,0,0,0,0,0,0,0,0,0,0,0,0,0,0,0,0,0,0,0,0,0,0,0,0,0,0,0,0],"sum_hessian":[5.71E2,4.29E2,1.42E2,4.07E2,2.2E1,1.33E2,9E0,2.73E2,1.34E2,1.3E1,9E0,1E2,3.3E1,4E0,5E0,2.31E2,4.2E1,7.1E1,6.3E1,6E0,7E0,7E0,2E0,9.3E1,7E0,3.2E1,1E0,3E0,2E0,2.14E2,1.7E1,9E0,3.3E1,2.5E1,4.6E1,3E0,6E1,2E0,4E0,4E0,3E0,6.2E1,3.1E1,3E0,4E0,2.13E2,1E0,1E0,8E0,1.9E1,1.4E1,1.7E1,8E0,2.4E1,3.6E1,2E0,2E0,2E0,2E0,4E1,2.2E1,2E0,2.9E1],"tree_param":{"num_deleted":"0","num_feature":"2","num_nodes":"63","size_leaf_vector":"1"}},{"base_weights":[7.87589E-2,4.4838303E-1,-9.455208E-1,2.7653977E-1,5.424359E0,-1.1956841E0,5.341066E0,-8.782624E-1,7.004585E-1,2.5982895E0,4.163177E0,-1.2708981E0,3.583722E-1,2.1671133E0,3.1515542E-1,-9.8112446E-1,-5.5197424E-1,5.5041833E0,8.953215E-2,-2.059166E-1,1.9120392E0,-1.0613946E0,-1.9113243E0,1.8127887E0,-1.4767826E0,2.4510497E-1,-6.824889E-1,-4.26357E-1,3.233987E-1,-1.2111459E0,9.993274E-1,-6.2304014E-1,-3.341781E-1,1.9321041E-1,5.0053725E0,-3.692398E-1,-1.5867908E0,-1.4720681E-1,2.3034796E-1,-1.3141339E-1,-4.1764733E-1,9.670985E-1,-2.9400158E-1],"categories":[],"categories_nodes":[],"categories_segments":[],"categories_sizes":[],"default_left":[0,0,0,0,0,0,0,0,0,0,0,0,0,0,0,0,0,0,0,0,0,0,0,0,0,0,0,0,0,0,0,0,0,0,0,0,0,0,0,0,0,0,0],"id":2,"left_children":[1,3,5,7,9,11,13,15,17,-1,19,21,-1,-1,-1,-1,23,-1,25,27,-1,29,31,33,35,37,-1,-1,-1,39,41,-1,-1,-1,-1,-1,-1,-1,-1,-1,-1,-1,-1],"loss_changes":[2.1698228E2,3.584919E2,2.4543257E2,2.0034843E2,2.1090149E1,2.7945984E1,4.0876816E1,8.405323E1,3.2218486E3,0E0,1.17195786E2,1.7157852E1,0E0,0E0,0E0,0E0,2.1699844E2,0E0,1.0723445E2,9.333558E0,0E0,3.515586E1,2.172905E0,4.7593542E2,6.007486E1,1.0537681E2,0E0,0E0,0E0,1.3804031E1,3.838078E1,0E0,0E0,0E0,0E0,0E0,0E0,0E0,0E0,0E0,0E0,0E0,0E0],"parents":[2147483647,0,0,1,1,2,2,3,3,4,4,5,5,6,6,7,7,8,8,10,10,11,11,16,16,18,18,19,19,21,21,22,22,23,23,24,24,25,25,29,29,30,30],"right_children":[2,4,6,8,10,12,14,16,18,-1,20,22,-1,-1,-1,-1,24,-1,26,28,-1,30,32,34,36,38,-1,-1,-1,40,42,-1,-1,-1,-1,-1,-1,-1,-1,-1,-1,-1,-1],"split_conditions":[1.1916151E3,1.1748092E3,1.753716E3,2.3660278E2,1.1784971E3,1.708386E3,3.0116492E3,1.22196915E2,2.4282884E2,2.5982895E0,1.1839559E3,1.484428E3,3.583722E-1,2.1671133E0,3.1515542E-1,-9.8112446E-1,1.8737627E2,5.5041833E0,1.1347361E3,1.183017E3,1.9120392E0,1.4571711E3,1.620665E3,1.8677664E2,2.2717976E2,3.6222388E2,-6.824889E-1,-4.26357E-1,3.233987E-1,1.2618918E3,1.462163E3,-6.2304014E-1,-3.341781E-1,1.9321041E-1,5.0053725E0,-3.692398E-1,-1.5867908E0,-1.4720681E-1,2.3034796E-1,-1.3141339E-1,-4.1764733E-1,9.670985E-1,-2.9400158E-1],"split_indices":[0,0,0,0,0,0,0,0,0,0,0,0,0,0,0,0,0,0,0,0,0,0,0,0,0,0,0,0,0,0,0,0,0,0,0,0,0,0,0,0,0,0,0],"split_type":[0,0,0,0,0,0,0,0,0,0,0,0,0,0,0,0,0,0,0,0,0,0,0,0,0,0,0,0,0,0,0,0,0,0,0,0,0,0,0,0,0,0,0],"sum_hessian":[5.71E2,4.2E2,1.51E2,4.07E2,1.3E1,1.46E2,5E0,1.09E2,2.98E2,2E0,1.1E1,1.42E2,4E0,3E0,2E0,1.2E1,9.7E1,9E0,2.89E2,4E0,7E0,1.09E2,3.3E1,2.7E1,7E1,2.72E2,1.7E1,2E0,2E0,1.02E2,7E0,2.6E1,7E0,2.6E1,1E0,6.7E1,3E0,1.13E2,1.59E2,2E1,8.2E1,3E0,4E0],"tree_param":{"num_deleted":"0","num_feature":"2","num_nodes":"43","size_leaf_vector":"1"}},{"base_weights":[7.887459E-2,6.6750914E-1,-4.3140447E-1,3.6401412E-1,1.1844823E1,-1.5272099E0,-3.2161552E-1,-5.942252E-1,1.0596585E0,1.6607103E0,4.557822E0,3.153375E0,-4.2923084E-1,-4.5764428E-1,-1.2297627E0,4.018054E0,1.836149E-1,-1.6128302E0,-5.3580046E-2,-6.8698895E-1,-1.5718812E-1,-3.4477335E-1,2.2543957E0,-1.3068314E0,-5.243372E-1,3.779233E0,-2.7824897E-1,5.115784E-1,-2.6009685E-1,-1.7239071E-1,1.8360302E0,4.0261927E0,-2.070875E-2,-5.562789E-1,-2.002945E-2,-1.1934651E-1,1.2457372E0],"categories":[],"categories_nodes":[],"categories_segments":[],"categories_sizes":[],"default_left":[0,0,0,0,0,0,0,0,0,0,0,0,0,0,0,0,0,0,0,0,0,0,0,0,0,0,0,0,0,0,0,0,0,0,0,0,0],"id":3,"left_children":[1,3,5,7,9,-1,11,13,15,-1,-1,-1,17,19,-1,-1,21,23,25,-1,27,29,31,33,-1,-1,35,-1,-1,-1,-1,-1,-1,-1,-1,-1,-1],"loss_changes":[1.7209839E2,8.980293E2,1.5540521E2,1.7394409E2,6.3754456E1,0E0,3.554122E2,5.078256E1,1.6290951E3,0E0,0E0,0E0,1.3285497E2,5.8546906E1,0E0,0E0,1.5615028E2,6.8937683E-1,6.515477E2,0E0,1.24421555E2,1.7292438E2,7.533005E2,1.7526344E1,0E0,0E0,1.20854996E2,0E0,0E0,0E0,0E0,0E0,0E0,0E0,0E0,0E0,0E0],"parents":[2147483647,0,0,1,1,2,2,3,3,4,4,6,6,7,7,8,8,12,12,13,13,16,16,17,17,18,18,20,20,21,21,22,22,23,23,26,26],"right_children":[2,4,6,8,10,-1,12,14,16,-1,-1,-1,18,20,-1,-1,22,24,26,-1,28,30,32,34,-1,-1,36,-1,-1,-1,-1,-1,-1,-1,-1,-1,-1],"split_conditions":[3.746102E2,3.7157727E2,3.7829376E2,2.3660278E2,3.728161E2,-1.5272099E0,3.7930487E2,2.2717976E2,2.4282884E2,1.6607103E0,4.557822E0,3.153375E0,4.4291113E2,1.41603E2,-1.2297627E0,4.018054E0,3.6222388E2,4.1382193E2,4.4646597E2,-6.8698895E-1,1.8737627E2,1E0,3.6307788E2,4.059248E2,-5.243372E-1,3.779233E0,1.753716E3,5.115784E-1,-2.6009685E-1,-1.7239071E-1,1.8360302E0,4.0261927E0,-2.070875E-2,-5.562789E-1,-2.002945E-2,-1.1934651E-1,1.2457372E0],"split_indices":[0,0,0,0,0,0,0,0,0,0,0,0,0,0,0,0,0,0,0,0,0,1,0,0,0,0,0,0,0,0,0,0,0,0,0,0,0],"split_type":[0,0,0,0,0,0,0,0,0,0,0,0,0,0,0,0,0,0,0,0,0,0,0,0,0,0,0,0,0,0,0,0,0,0,0,0,0],"sum_hessian":[5.71E2,2.65E2,3.06E2,2.59E2,6E0,6E0,3E2,1.09E2,1.5E2,3E0,3E0,2E0,2.98E2,1.06E2,3E0,9E0,1.41E2,7.1E1,2.27E2,1.4E1,9.2E1,1.13E2,2.8E1,2.5E1,4.6E1,3E0,2.24E2,2.5E1,6.7E1,1.1E2,3E0,4E0,2.4E1,1.7E1,8E0,2.19E2,5E0],"tree_param":{"num_deleted":"0","num_feature":"2","num_nodes":"37","size_leaf_vector":"1"}},{"base_weights":[8.9603096E-2,3.2188693E-1,-6.094994E-1,1.9493972E-1,2.5598254E0,-8.273227E-1,2.370283E0,5.207918E-1,-4.1255403E-1,4.2226853E0,-2.4160957E-2,-9.3118936E-1,1.2947658E-1,2.9591324E0,2.9769898E-3,2.8566334E-1,9.179737E0,-1.1344986E0,-2.3739849E-1,2.1025012E0,3.174382E0,-1.4209399E0,1.112591E0,1.434725E-2,-1.0165021E0,-6.1620224E-1,4.470549E0,3.0100617E-1,1.3992218E0,-4.3109667E-1,8.059146E-1,1.2870502E0,3.5323122E0,2.5226996E0,-4.2778215E-1,-6.925583E-2,1.4414574E0,-5.375413E-1,-6.50986E-1,-5.4796463E-1,1.852852E0,-1.3870246E0,-9.0932775E-1,1.7121761E0,-7.1440175E-2,-4.203889E-1,-2.9581947E-2,2.933179E0,5.0536208E-2,-3.4328043E-1,1.1548459E-1,-3.1721622E-1,2.825883E-1,-5.0935987E-2,-2.1783467E-1,2.9009035E-1,7.249241E-1,-1.6904137E-1,-5.1363367E-1,1.3201214E0,-3.24591E-1],"categories":[],"categories_nodes":[],"categories_segments":[],"categories_sizes":[],"default_left":[0,0,0,0,0,0,0,0,0,0,0,0,0,0,0,0,0,0,0,0,0,0,0,0,0,0,0,0,0,0,0,0,0,0,0,0,0,0,0,0,0,0,0,0,0,0,0,0,0,0,0,0,0,0,0,0,0,0,0,0,0],"id":4,"left_children":[1,3,5,7,9,11,13,15,17,19,21,23,25,27,-1,29,31,-1,33,-1,35,37,-1,39,41,-1,43,-1,-1,45,47,-1,-1,-1,49,51,-1,53,-1,-1,55,57,59,-1,-1,-1,-1,-1,-1,-1,-1,-1,-1,-1,-1,-1,-1,-1,-1,-1,-1],"loss_changes":[9.308339E1,1.2166403E2,9.477742E1,8.097972E1,9.892859E1,1.3437431E1,1.3869606E1,5.3894434E2,8.348909E1,1.8635742E1,5.740868E1,9.7752075E0,1.418838E2,2.1996162E1,0E0,9.73002E1,3.829254E1,0E0,2.2911739E2,0E0,6.3796852E1,4.12698E0,0E0,4.0613777E1,3.1466064E0,0E0,3.0475342E1,0E0,0E0,3.5345833E1,8.61904E2,0E0,0E0,0E0,7.905236E1,5.9920936E0,0E0,2.2346067E-1,0E0,0E0,6.5890694E-1,5.192993E0,8.6345955E1,0E0,0E0,0E0,0E0,0E0,0E0,0E0,0E0,0E0,0E0,0E0,0E0,0E0,0E0,0E0,0E0,0E0,0E0],"parents":[2147483647,0,0,1,1,2,2,3,3,4,4,5,5,6,6,7,7,8,8,9,9,10,10,11,11,12,12,13,13,15,15,16,16,18,18,20,20,21,21,23,23,24,24,26,26,29,29,30,30,34,34,35,35,37,37,40,40,41,41,42,42],"right_children":[2,4,6,8,10,12,14,16,18,20,22,24,26,28,-1,30,32,-1,34,-1,36,38,-1,40,42,-1,44,-1,-1,46,48,-1,-1,-1,50,52,-1,54,-1,-1,56,58,60,-1,-1,-1,-1,-1,-1,-1,-1,-1,-1,-1,-1,-1,-1,-1,-1,-1,-1],"split_conditions":[1.2441351E3,1.1748092E3,1.708386E3,3.746102E2,1.1916151E3,1E0,3.0116492E3,3.7157727E2,3.7829376E2,1.1784971E3,1.241386E3,1.2618918E3,1.4183588E3,1.753716E3,2.9769898E-3,2.3660278E2,3.728161E2,-1.1344986E0,3.7930487E2,2.1025012E0,1.1839559E3,1.21537E3,1.112591E0,1.2480278E3,1.3180511E3,-6.1620224E-1,1.4190609E3,3.0100617E-1,1.3992218E0,1.8135214E2,2.4282884E2,1.2870502E0,3.5323122E0,2.5226996E0,4.4291113E2,1.183017E3,1.4414574E0,1.1975178E3,-6.50986E-1,-5.4796463E-1,1.251325E3,1.2856271E3,1.3237582E3,1.7121761E0,-7.1440175E-2,-4.203889E-1,-2.9581947E-2,2.933179E0,5.0536208E-2,-3.4328043E-1,1.1548459E-1,-3.1721622E-1,2.825883E-1,-5.0935987E-2,-2.1783467E-1,2.9009035E-1,7.249241E-1,-1.6904137E-1,-5.1363367E-1,1.3201214E0,-3.24591E-1],"split_indices":[0,0,0,0,0,1,0,0,0,0,0,0,0,0,0,0,0,0,0,0,0,0,0,0,0,0,0,0,0,0,0,0,0,0,0,0,0,0,0,0,0,0,0,0,0,0,0,0,0,0,0,0,0,0,0,0,0,0,0,0,0],"split_type":[0,0,0,0,0,0,0,0,0,0,0,0,0,0,0,0,0,0,0,0,0,0,0,0,0,0,0,0,0,0,0,0,0,0,0,0,0,0,0,0,0,0,0,0,0,0,0,0,0,0,0,0,0,0,0,0,0,0,0,0,0],"sum_hessian":[5.71E2,4.29E2,1.42E2,4.07E2,2.2E1,1.33E2,9E0,2.65E2,1.42E2,1.3E1,9E0,1.2E2,1.3E1,7E0,2E0,2.59E2,6E0,6E0,1.36E2,2E0,1.1E1,7E0,2E0,1E1,1.1E2,9E0,4E0,4E0,3E0,1.09E2,1.5E2,3E0,3E0,2E0,1.34E2,4E0,7E0,4E0,3E0,5E0,5E0,2.2E1,8.8E1,3E0,1E0,2.7E1,8.2E1,9E0,1.41E2,7.1E1,6.3E1,2E0,2E0,2E0,2E0,3E0,2E0,7E0,1.5E1,2E0,8.6E1],"tree_param":{"num_deleted":"0","num_feature":"2","num_nodes":"61","size_leaf_vector":"1"}},{"base_weights":[9.0210594E-2,2.5372958E-1,-4.0212068E-1,1.5732442E-1,1.9528413E0,-5.6566E-1,1.8295183E0,2.3905298E-1,-4.880226E-1,3.206546E0,2.3706437E-3,-6.453872E-1,1.6381465E-1,2.283921E0,2.3815157E-3,-9.95921E-1,3.3339426E-1,1.6820008E0,2.339303E0,-1.1096277E0,8.900729E-1,5.2502286E-2,-7.087331E-1,-4.4982758E-1,3.4575315E0,2.2876465E-1,1.0843968E0,-6.6383386E-1,-7.1722656E-1,3.5697699E0,2.1292187E-1,-5.5404663E-2,1.0630748E0,-4.300332E-1,-5.045142E-1,-4.1097337E-1,1.4661654E0,-4.4470727E-1,-6.659587E-1,1.3269365E0,-6.0724214E-2,-3.7692305E-1,8.742419E-2,4.631307E-1,4.182267E0,-3.336769E-1,1.2175328E-1,-2.5377303E-1,2.2607069E-1,-4.0748835E-2,-1.7426777E-1,2.2481997E-1,5.799393E-1,3.065482E-1,-2.1734105E-1],"categories":[],"categories_nodes":[],"categories_segments":[],"categories_sizes":[],"default_left":[0,0,0,0,0,0,0,0,0,0,0,0,0,0,0,0,0,0,0,0,0,0,0,0,0,0,0,0,0,0,0,0,0,0,0,0,0,0,0,0,0,0,0,0,0,0,0,0,0,0,0,0,0,0,0],"id":5,"left_children":[1,3,5,7,9,11,13,15,-1,17,19,21,23,25,-1,27,29,-1,31,33,-1,35,37,-1,39,-1,-1,41,-1,43,45,47,-1,49,-1,-1,51,-1,53,-1,-1,-1,-1,-1,-1,-1,-1,-1,-1,-1,-1,-1,-1,-1,-1],"loss_changes":[4.6151184E1,7.0128105E1,5.322427E1,5.987902E1,5.6234627E1,7.899025E0,8.259182E0,4.5887054E1,0E0,1.6025177E1,3.6257786E1,5.386429E0,8.187969E1,1.3439991E1,0E0,1.1382723E1,1.4116129E2,0E0,3.4803093E1,2.3871002E0,0E0,2.4127466E1,2.6859474E0,0E0,1.856533E1,0E0,0E0,1.3951507E1,0E0,2.5163316E2,9.0442505E1,3.8349416E0,0E0,1.4301461E-1,0E0,0E0,5.5954075E-1,0E0,1.1307037E1,0E0,0E0,0E0,0E0,0E0,0E0,0E0,0E0,0E0,0E0,0E0,0E0,0E0,0E0,0E0,0E0],"parents":[2147483647,0,0,1,1,2,2,3,3,4,4,5,5,6,6,7,7,9,9,10,10,11,11,12,12,13,13,15,15,16,16,18,18,19,19,21,21,22,22,24,24,27,27,29,29,30,30,31,31,33,33,36,36,38,38],"right_children":[2,4,6,8,10,12,14,16,-1,18,20,22,24,26,-1,28,30,-1,32,34,-1,36,38,-1,40,-1,-1,42,-1,44,46,48,-1,50,-1,-1,52,-1,54,-1,-1,-1,-1,-1,-1,-1,-1,-1,-1,-1,-1,-1,-1,-1,-1],"split_conditions":[1.2441351E3,1.1748092E3,1.708386E3,1.1347361E3,1.1916151E3,1E0,3.0116492E3,1.8135214E2,-4.880226E-1,1.1784971E3,1.241386E3,1.2618918E3,1.4183588E3,1.753716E3,2.3815157E-3,1.8017197E2,1.8737627E2,1.6820008E0,1.1839559E3,1.21537E3,8.900729E-1,1.2480278E3,1.2674298E3,-4.4982758E-1,1.4190609E3,2.2876465E-1,1.0843968E0,1.41603E2,-7.1722656E-1,1.8677664E2,2.1352124E2,1.183017E3,1.0630748E0,1.1975178E3,-5.045142E-1,-4.1097337E-1,1.251325E3,-4.4470727E-1,1.2856271E3,1.3269365E0,-6.0724214E-2,-3.7692305E-1,8.742419E-2,4.631307E-1,4.182267E0,-3.336769E-1,1.2175328E-1,-2.5377303E-1,2.2607069E-1,-4.0748835E-2,-1.7426777E-1,2.2481997E-1,5.799393E-1,3.065482E-1,-2.1734105E-1],"split_indices":[0,0,0,0,0,1,0,0,0,0,0,0,0,0,0,0,0,0,0,0,0,0,0,0,0,0,0,0,0,0,0,0,0,0,0,0,0,0,0,0,0,0,0,0,0,0,0,0,0,0,0,0,0,0,0],"split_type":[0,0,0,0,0,0,0,0,0,0,0,0,0,0,0,0,0,0,0,0,0,0,0,0,0,0,0,0,0,0,0,0,0,0,0,0,0,0,0,0,0,0,0,0,0,0,0,0,0,0,0,0,0,0,0],"sum_hessian":[5.71E2,4.29E2,1.42E2,4.07E2,2.2E1,1.33E2,9E0,3.9E2,1.7E1,1.3E1,9E0,1.2E2,1.3E1,7E0,2E0,2.7E1,3.63E2,2E0,1.1E1,7E0,2E0,1E1,1.1E2,9E0,4E0,4E0,3E0,2.3E1,4E0,1.2E1,3.51E2,4E0,7E0,4E0,3E0,5E0,5E0,4E0,1.06E2,3E0,1E0,1.4E1,9E0,1.1E1,1E0,4.4E1,3.07E2,2E0,2E0,2E0,2E0,3E0,2E0,3E0,1.03E2],"tree_param":{"num_deleted":"0","num_feature":"2","num_nodes":"55","size_leaf_vector":"1"}},{"base_weights":[7.7127784E-2,3.568778E-1,-1.6551271E-1,1.763844E-1,7.009936E0,-2.9135947E0,-1.0105395E-1,1.06632315E-1,4.61386E0,9.7006935E-1,2.710147E0,-1.5531642E0,-1.2629342E0,1.9938092E0,-1.6841248E-1,-8.398628E-2,1.6686196E0,3.880536E0,-7.414798E-1,-1.2468127E0,4.702305E-1,-9.258177E-1,7.1506776E-2,1.3019161E-1,-1.57295E0,3.9063766E0,-2.1454674E-1,-8.295933E-1,-1.7008169E0,2.875527E0,-9.79414E-2,1.068457E-2,1.9175658E0,-8.9236605E-1,-3.4710288E-1,1.038718E0,-5.5104697E-1,-1.1958873E-1,-3.0655548E-1,-6.031571E-1,-1.8530998E-1,-7.485554E-1,1.1082338E-2],"categories":[],"categories_nodes":[],"categories_segments":[],"categories_sizes":[],"default_left":[0,0,0,0,0,0,0,0,0,0,0,0,0,0,0,0,0,0,0,0,0,0,0,0,0,0,0,0,0,0,0,0,0,0,0,0,0,0,0,0,0,0,0],"id":6,"left_children":[1,3,5,7,9,11,13,15,17,-1,-1,19,-1,-1,21,23,25,-1,-1,-1,-1,27,29,31,33,-1,35,37,39,-1,41,-1,-1,-1,-1,-1,-1,-1,-1,-1,-1,-1,-1],"loss_changes":[3.8885677E1,3.1818515E2,5.4086926E1,7.998405E1,2.4289185E1,5.8051147E0,1.3791586E2,7.666031E1,2.6781024E2,0E0,0E0,4.7127018E1,0E0,0E0,5.439932E1,7.35525E1,6.014029E2,0E0,0E0,0E0,0E0,3.958332E0,3.684883E2,1.1939843E2,1.3464935E1,0E0,1.5548514E2,5.061184E0,1.1062374E0,0E0,7.284508E1,0E0,0E0,0E0,0E0,0E0,0E0,0E0,0E0,0E0,0E0,0E0,0E0],"parents":[2147483647,0,0,1,1,2,2,3,3,4,4,5,5,6,6,7,7,8,8,11,11,14,14,15,15,16,16,21,21,22,22,23,23,24,24,26,26,27,27,28,28,30,30],"right_children":[2,4,6,8,10,12,14,16,18,-1,-1,20,-1,-1,22,24,26,-1,-1,-1,-1,28,30,32,34,-1,36,38,40,-1,42,-1,-1,-1,-1,-1,-1,-1,-1,-1,-1,-1,-1],"split_conditions":[3.746102E2,3.7157727E2,3.7829376E2,1E0,3.728161E2,3.7650394E2,3.7930487E2,3.6223007E2,3.487971E2,9.7006935E-1,2.710147E0,3.7543298E2,-1.2629342E0,1.9938092E0,4.4291113E2,3.523388E2,3.6307788E2,3.880536E0,-7.414798E-1,-1.2468127E0,4.702305E-1,1E0,4.4646597E2,3.5038306E2,3.5310388E2,3.9063766E0,3.6499692E2,4.1382193E2,4.1382193E2,2.875527E0,4.7929596E2,1.068457E-2,1.9175658E0,-8.9236605E-1,-3.4710288E-1,1.038718E0,-5.5104697E-1,-1.1958873E-1,-3.0655548E-1,-6.031571E-1,-1.8530998E-1,-7.485554E-1,1.1082338E-2],"split_indices":[0,0,0,1,0,0,0,0,0,0,0,0,0,0,0,0,0,0,0,0,0,1,0,0,0,0,0,0,0,0,0,0,0,0,0,0,0,0,0,0,0,0,0],"split_type":[0,0,0,0,0,0,0,0,0,0,0,0,0,0,0,0,0,0,0,0,0,0,0,0,0,0,0,0,0,0,0,0,0,0,0,0,0,0,0,0,0,0,0],"sum_hessian":[5.71E2,2.65E2,3.06E2,2.59E2,6E0,6E0,3E2,2.56E2,3E0,3E0,3E0,4E0,2E0,2E0,2.98E2,2.29E2,2.7E1,1E0,2E0,2E0,2E0,7.1E1,2.27E2,2.01E2,2.8E1,3E0,2.4E1,6.5E1,6E0,3E0,2.24E2,1.99E2,2E0,5E0,2.3E1,7E0,1.7E1,2.1E1,4.4E1,4E0,2E0,1.1E1,2.13E2],"tree_param":{"num_deleted":"0","num_feature":"2","num_nodes":"43","size_leaf_vector":"1"}},{"base_weights":[7.633168E-2,1.9376157E-1,-2.7731296E-1,1.2066819E-1,1.4819502E0,-4.005835E-1,1.4022433E0,2.2575992E-1,-8.518197E-1,2.42839E0,8.739376E-3,-2.7998185E-1,-7.470594E-1,1.7531931E0,-3.1127932E-4,1.2573943E-1,1.6140857E0,-2.254467E0,-3.0912173E-1,1.343384E0,1.7136351E0,-8.7637794E-1,7.098418E-1,-4.1594544E-1,1.3525879E0,-8.4410375E-1,-1.5350199E-1,1.7120133E-1,8.379143E-1,2.94559E-1,-3.3376816E-1,-1.6944283E-1,-8.452462E-1,9.1536295E-1,-3.5288954E-1,-5.318985E-2,7.811089E-1,-3.528928E-1,-3.9349198E-1,-5.928265E-1,-5.471261E-2,2.9859848E0,-6.7394145E-2,-8.6156505E-1,-5.3277973E-2,-1.9706083E-2,-6.5826416E-2,4.652745E-2,1.6298102E0,-1.809055E-1,2.4524511E-1,-5.958312E-2,1.0414367E0,-2.05235E-1,1.7864008E-1,-3.4815647E-2,-1.4163075E-1,-1.24779925E-1,-3.9298874E-1,1.5343461E0,-1.7094263E-1,3.5718727E-1,1.25581E0,-2.3049118E-1,-3.687169E-1],"categories":[],"categories_nodes":[],"categories_segments":[],"categories_sizes":[],"default_left":[0,0,0,0,0,0,0,0,0,0,0,0,0,0,0,0,0,0,0,0,0,0,0,0,0,0,0,0,0,0,0,0,0,0,0,0,0,0,0,0,0,0,0,0,0,0,0,0,0,0,0,0,0,0,0,0,0,0,0,0,0,0,0,0,0],"id":7,"left_children":[1,3,5,7,9,11,13,15,17,19,21,23,25,27,-1,29,-1,31,33,-1,35,37,-1,39,41,43,45,-1,-1,47,49,-1,-1,51,-1,53,-1,55,-1,57,59,61,-1,63,-1,-1,-1,-1,-1,-1,-1,-1,-1,-1,-1,-1,-1,-1,-1,-1,-1,-1,-1,-1,-1],"loss_changes":[2.3808008E1,4.0309143E1,3.0168404E1,4.1890083E1,3.2047802E1,5.3901024E0,4.926632E0,1.8956445E2,2.975165E1,1.28354645E1,2.2939386E1,2.2981575E1,1.8288746E0,8.243294E0,0E0,2.8257631E1,0E0,8.873077E0,3.2932076E1,0E0,1.900948E1,1.3599572E0,0E0,5.9737167E0,2.12808E1,1.8449783E-1,2.0319164E-2,0E0,0E0,1.8977402E2,3.0870483E1,0E0,0E0,3.7705914E1,0E0,2.4536438E0,0E0,8.6380064E-2,0E0,7.447109E0,8.811859E1,3.6340866E0,0E0,1.534462E-2,0E0,0E0,0E0,0E0,0E0,0E0,0E0,0E0,0E0,0E0,0E0,0E0,0E0,0E0,0E0,0E0,0E0,0E0,0E0,0E0,0E0],"parents":[2147483647,0,0,1,1,2,2,3,3,4,4,5,5,6,6,7,7,8,8,9,9,10,10,11,11,12,12,13,13,15,15,17,17,18,18,20,20,21,21,23,23,24,24,25,25,26,26,29,29,30,30,33,33,35,35,37,37,39,39,40,40,41,41,43,43],"right_children":[2,4,6,8,10,12,14,16,18,20,22,24,26,28,-1,30,-1,32,34,-1,36,38,-1,40,42,44,46,-1,-1,48,50,-1,-1,52,-1,54,-1,56,-1,58,60,62,-1,64,-1,-1,-1,-1,-1,-1,-1,-1,-1,-1,-1,-1,-1,-1,-1,-1,-1,-1,-1,-1,-1],"split_conditions":[1.2441351E3,1.1748092E3,1.708386E3,5.38476E2,1.1916151E3,1.484428E3,3.0116492E3,4.928949E2,8.915289E2,1.1784971E3,1.241386E3,1.4571711E3,1.6313219E3,1.753716E3,-3.1127932E-4,3.746102E2,1.6140857E0,5.900481E2,1.1347361E3,1.343384E0,1.1839559E3,1.21537E3,7.098418E-1,1.3835063E3,1.462163E3,1E0,1.647573E3,1.7120133E-1,8.379143E-1,3.7157727E2,4.4291113E2,-1.6944283E-1,-8.452462E-1,1.1027081E3,-3.5288954E-1,1.183017E3,7.811089E-1,1.1975178E3,-3.9349198E-1,1.355457E3,1.3899441E3,1.461845E3,-6.7394145E-2,1.5695829E3,-5.3277973E-2,-1.9706083E-2,-6.5826416E-2,4.652745E-2,1.6298102E0,-1.809055E-1,2.4524511E-1,-5.958312E-2,1.0414367E0,-2.05235E-1,1.7864008E-1,-3.4815647E-2,-1.4163075E-1,-1.24779925E-1,-3.9298874E-1,1.5343461E0,-1.7094263E-1,3.5718727E-1,1.25581E0,-2.3049118E-1,-3.687169E-1],"split_indices":[0,0,0,0,0,0,0,0,0,0,0,0,0,0,0,0,0,0,0,0,0,0,0,0,0,1,0,0,0,0,0,0,0,0,0,0,0,0,0,0,0,0,0,0,0,0,0,0,0,0,0,0,0,0,0,0,0,0,0,0,0,0,0,0,0],"split_type":[0,0,0,0,0,0,0,0,0,0,0,0,0,0,0,0,0,0,0,0,0,0,0,0,0,0,0,0,0,0,0,0,0,0,0,0,0,0,0,0,0,0,0,0,0,0,0,0,0,0,0,0,0,0,0,0,0,0,0,0,0,0,0,0,0],"sum_hessian":[5.71E2,4.29E2,1.42E2,4.07E2,2.2E1,1.33E2,9E0,3.68E2,3.9E1,1.3E1,9E0,1E2,3.3E1,7E0,2E0,3.62E2,6E0,1E1,2.9E1,2E0,1.1E1,7E0,2E0,9.3E1,7E0,2.8E1,5E0,4E0,3E0,2.65E2,9.7E1,3E0,7E0,1.2E1,1.7E1,4E0,7E0,4E0,3E0,6.2E1,3.1E1,3E0,4E0,2.7E1,1E0,3E0,2E0,2.59E2,6E0,7.9E1,1.8E1,9E0,3E0,2E0,2E0,2E0,2E0,5.1E1,1.1E1,2E0,2.9E1,2E0,1E0,2.4E1,3E0],"tree_param":{"num_deleted":"0","num_feature":"2","num_nodes":"65","size_leaf_vector":"1"}},{"base_weights":[6.718868E-2,-7.88269E-1,1.1101552E-1,-5.3157544E-1,-5.588232E-1,2.803365E0,4.5140173E-2,-1.0474494E0,7.158581E-2,1.0667871E0,3.546345E0,-8.419355E-1,1.266806E-1,-5.1316977E-1,-6.7745775E-1,6.2238866E-1,-8.448426E-2,9.9871325E-1,-1.0246885E0,-3.678715E-1,-1.4712931E0,1.7498924E0,-2.3112623E-3,2.7257946E-1,-1.1875465E0,-7.533742E-2,3.8653177E-1,-5.772336E-1,2.4477406E-1,-1.0140325E0,2.0626974E0,-1.6684306E0,-2.9750255E-1,-2.506376E-1,2.0929003E0,-1.8180287E0,6.816706E-2,-2.0258693E-1,-4.5929426E-1,7.7303745E-2,-4.521088E-1,7.985228E-1,1.7292146E-1,-3.6529517E-1,-7.844662E-1,1.114761E0,-3.3060735E-1,-2.9712868E-1,-8.5764724E-1,6.9906765E-1,4.583859E-3],"categories":[],"categories_nodes":[],"categories_segments":[],"categories_sizes":[],"default_left":[0,0,0,0,0,0,0,0,0,0,0,0,0,0,0,0,0,0,0,0,0,0,0,0,0,0,0,0,0,0,0,0,0,0,0,0,0,0,0,0,0,0,0,0,0,0,0,0,0,0,0],"id":8,"left_children":[1,3,5,7,-1,9,11,13,15,17,-1,19,21,-1,23,25,-1,-1,27,29,31,33,35,-1,37,-1,-1,-1,-1,39,41,43,-1,45,-1,47,49,-1,-1,-1,-1,-1,-1,-1,-1,-1,-1,-1,-1,-1,-1],"loss_changes":[2.1532932E1,6.7325134E0,9.653436E1,7.542704E0,0E0,1.9097043E2,3.8659893E1,2.0306826E0,2.5097961E0,6.0188698E1,0E0,1.2884766E1,1.02391396E2,0E0,9.169294E0,3.2325788E0,0E0,0E0,1.3158274E1,4.449619E1,1.4191818E-1,3.78152E2,5.8221725E1,0E0,3.735571E-1,0E0,0E0,0E0,0E0,1.4181223E1,3.8078957E0,1.9357071E0,0E0,9.527485E1,0E0,1.1811695E1,5.236439E1,0E0,0E0,0E0,0E0,0E0,0E0,0E0,0E0,0E0,0E0,0E0,0E0,0E0,0E0],"parents":[2147483647,0,0,1,1,2,2,3,3,5,5,6,6,7,7,8,8,9,9,11,11,12,12,14,14,15,15,18,18,19,19,20,20,21,21,22,22,24,24,29,29,30,30,31,31,33,33,35,35,36,36],"right_children":[2,4,6,8,-1,10,12,14,16,18,-1,20,22,-1,24,26,-1,-1,28,30,32,34,36,-1,38,-1,-1,-1,-1,40,42,44,-1,46,-1,48,50,-1,-1,-1,-1,-1,-1,-1,-1,-1,-1,-1,-1,-1,-1],"split_conditions":[1.8135214E2,1.8017197E2,1.8737627E2,1.22196915E2,-5.588232E-1,1.8677664E2,2.1352124E2,1.1127877E2,1.4390707E2,1.8395424E2,3.546345E0,2.0046591E2,2.4282884E2,-5.1316977E-1,1.11326935E2,1.41603E2,-8.448426E-2,9.9871325E-1,1.8597818E2,1.973462E2,2.0749902E2,2.3660278E2,2.624011E2,2.7257946E-1,1.1844397E2,-7.533742E-2,3.8653177E-1,-5.772336E-1,2.4477406E-1,1.9119215E2,1.9782614E2,2.0658017E2,-2.9750255E-1,2.1559096E2,2.0929003E0,2.5848007E2,2.7864505E2,-2.0258693E-1,-4.5929426E-1,7.7303745E-2,-4.521088E-1,7.985228E-1,1.7292146E-1,-3.6529517E-1,-7.844662E-1,1.114761E0,-3.3060735E-1,-2.9712868E-1,-8.5764724E-1,6.9906765E-1,4.583859E-3],"split_indices":[0,0,0,0,0,0,0,0,0,0,0,0,0,0,0,0,0,0,0,0,0,0,0,0,0,0,0,0,0,0,0,0,0,0,0,0,0,0,0,0,0,0,0,0,0,0,0,0,0,0,0],"split_type":[0,0,0,0,0,0,0,0,0,0,0,0,0,0,0,0,0,0,0,0,0,0,0,0,0,0,0,0,0,0,0,0,0,0,0,0,0,0,0,0,0,0,0,0,0,0,0,0,0,0,0],"sum_hessian":[5.71E2,2.7E1,5.44E2,2.3E1,4E0,1.2E1,5.32E2,1.2E1,1.1E1,1.1E1,1E0,4.4E1,4.88E2,3E0,9E0,4E0,7E0,5E0,6E0,2.6E1,1.8E1,3.5E1,4.53E2,2E0,7E0,2E0,2E0,4E0,2E0,2.1E1,5E0,1.1E1,7E0,2.6E1,9E0,1.6E1,4.37E2,4E0,3E0,6E0,1.5E1,3E0,2E0,9E0,2E0,4E0,2.2E1,1E1,6E0,9E0,4.28E2],"tree_param":{"num_deleted":"0","num_feature":"2","num_nodes":"51","size_leaf_vector":"1"}},{"base_weights":[5.4992203E-2,-5.9588057E-1,8.8330634E-2,-4.0025958E-1,-4.2470554E-1,2.2864013E0,3.455343E-2,-8.026354E-1,6.900247E-2,8.022719E-1,3.0143933E0,-6.422402E-1,9.979932E-2,-3.9770666E-1,-5.1315045E-1,4.979109E-1,-2.076906E-1,7.490349E-1,-7.6477623E-1,-2.3541257E-1,-3.4041646E-1,1.6933997E0,6.529541E-2,2.1806361E-1,-9.1401756E-1,-6.0269933E-2,3.0922538E-1,-9.1357425E-2,-1.2465843E-1,-4.386976E-1,1.9581929E-1,-7.268596E-1,1.6057955E0,1.0266888E0,-2.61182E-3,-1.5396601E-1,-3.5595304E-1,8.754254E-3,-6.266198E-2,1.3052621E-1,-3.027725E-1,6.188551E-1,1.3833724E-1,-2.3573741E-1,1.5278172E0,-1.852602E-1,3.5048623E-2],"categories":[],"categories_nodes":[],"categories_segments":[],"categories_sizes":[],"default_left":[0,0,0,0,0,0,0,0,0,0,0,0,0,0,0,0,0,0,0,0,0,0,0,0,0,0,0,0,0,0,0,0,0,0,0,0,0,0,0,0,0,0,0,0,0,0,0],"id":9,"left_children":[1,3,5,7,-1,9,11,13,15,17,-1,19,21,-1,23,25,27,-1,29,31,-1,-1,33,-1,35,-1,-1,-1,37,-1,-1,39,41,43,45,-1,-1,-1,-1,-1,-1,-1,-1,-1,-1,-1,-1],"loss_changes":[1.2464507E1,3.9237452E0,6.434332E1,4.587057E0,0E0,1.4168817E2,2.3600311E1,1.2881308E0,1.5275233E0,3.377404E1,0E0,9.149559E0,9.2804054E1,0E0,5.635248E0,2.06885E0,2.6361227E-2,0E0,7.8759713E0,2.559831E1,0E0,0E0,3.1666178E1,0E0,2.6477337E-1,0E0,0E0,0E0,8.382841E-2,0E0,0E0,7.657592E0,2.1878347E0,2.3982925E2,3.3416924E1,0E0,0E0,0E0,0E0,0E0,0E0,0E0,0E0,0E0,0E0,0E0,0E0],"parents":[2147483647,0,0,1,1,2,2,3,3,5,5,6,6,7,7,8,8,9,9,11,11,12,12,14,14,15,15,16,16,18,18,19,19,22,22,24,24,28,28,31,31,32,32,33,33,34,34],"right_children":[2,4,6,8,-1,10,12,14,16,18,-1,20,22,-1,24,26,28,-1,30,32,-1,-1,34,-1,36,-1,-1,-1,38,-1,-1,40,42,44,46,-1,-1,-1,-1,-1,-1,-1,-1,-1,-1,-1,-1],"split_conditions":[1.8135214E2,1.8017197E2,1.8737627E2,1.22196915E2,-4.2470554E-1,1.8677664E2,2.1479916E2,1.1127877E2,1.4390707E2,1.8395424E2,3.0143933E0,2.0046591E2,2.1559096E2,-3.9770666E-1,1.11326935E2,1.41603E2,1.6601228E2,7.490349E-1,1.8597818E2,1.973462E2,-3.4041646E-1,1.6933997E0,2.4282884E2,2.1806361E-1,1.1844397E2,-6.0269933E-2,3.0922538E-1,-9.1357425E-2,1.6918517E2,-4.386976E-1,1.9581929E-1,1.8939304E2,1.9782614E2,2.3660278E2,3.470831E2,-1.5396601E-1,-3.5595304E-1,8.754254E-3,-6.266198E-2,1.3052621E-1,-3.027725E-1,6.188551E-1,1.3833724E-1,-2.3573741E-1,1.5278172E0,-1.852602E-1,3.5048623E-2],"split_indices":[0,0,0,0,0,0,0,0,0,0,0,0,0,0,0,0,0,0,0,0,0,0,0,0,0,0,0,0,0,0,0,0,0,0,0,0,0,0,0,0,0,0,0,0,0,0,0],"split_type":[0,0,0,0,0,0,0,0,0,0,0,0,0,0,0,0,0,0,0,0,0,0,0,0,0,0,0,0,0,0,0,0,0,0,0,0,0,0,0,0,0,0,0,0,0,0,0],"sum_hessian":[5.71E2,2.7E1,5.44E2,2.3E1,4E0,1.2E1,5.32E2,1.2E1,1.1E1,1.1E1,1E0,4.6E1,4.86E2,3E0,9E0,4E0,7E0,5E0,6E0,2.6E1,2E1,2E0,4.84E2,2E0,7E0,2E0,2E0,2E0,5E0,4E0,2E0,2.1E1,5E0,3.1E1,4.53E2,4E0,3E0,2E0,3E0,4E0,1.7E1,3E0,2E0,2.2E1,9E0,7.3E1,3.8E2],"tree_param":{"num_deleted":"0","num_feature":"2","num_nodes":"47","size_leaf_vector":"1"}},{"base_weights":[4.8266895E-2,2.138393E-1,-1.036231E-1,-2.1276653E-2,1.5130817E0,-5.2563137E-1,3.0097155E-2,1.4609024E-1,-5.742136E-1,3.0080557E0,6.010775E-1,-4.4803977E-1,-1.1821191E0,2.164436E0,-9.7764425E-2,4.44199E-2,3.2855318E0,-2.0049138E0,1.3937279E0,-8.797534E-1,-2.9229632E-1,-8.660889E-2,-1.4817489E0,-2.070147E0,1.3293313E-2,1.8721569E-1,-3.2520956E-1,4.2451863E0,2.2712775E-1,-6.2171E-1,-1.562967E0,1.9440094E0,-5.8397496E-1,-6.2088114E-1,-1.1999341E-1,-8.6225855E-1,-1.3088486E0,3.102427E0,-1.5334278E-1,-2.3421738E-2,2.4525917E-1,-5.399608E-1,3.6291033E-2,-7.978757E-2,1.6233017E0,-2.4496718E-1,-6.774624E-2,-5.5990463E-1,-9.7923234E-2,9.733424E-2,1.506273E0,-1.3733192E-1,-2.3523153E-1,5.225549E-1,-7.848169E-1,1.5644677E0,6.160674E-1,-5.1192033E-1,-1.9347707E-2],"categories":[],"categories_nodes":[],"categories_segments":[],"categories_sizes":[],"default_left":[0,0,0,0,0,0,0,0,0,0,0,0,0,0,0,0,0,0,0,0,0,0,0,0,0,0,0,0,0,0,0,0,0,0,0,0,0,0,0,0,0,0,0,0,0,0,0,0,0,0,0,0,0,0,0,0,0,0,0],"id":10,"left_children":[1,3,5,7,9,11,13,15,-1,-1,17,19,21,-1,23,25,-1,-1,27,29,31,-1,33,35,37,39,41,-1,43,45,47,49,51,-1,-1,-1,53,55,57,-1,-1,-1,-1,-1,-1,-1,-1,-1,-1,-1,-1,-1,-1,-1,-1,-1,-1,-1,-1],"loss_changes":[1.4407269E1,8.373169E1,1.6888704E1,7.409095E1,3.2008603E2,3.1378956E0,2.1015659E2,2.3571626E2,0E0,0E0,2.344911E2,4.180464E0,1.4460974E0,0E0,4.9313393E1,1.13561325E1,0E0,0E0,5.32545E2,2.0253668E0,3.3749382E1,0E0,2.3518248E0,3.583561E0,1.1063463E2,2.5982159E1,3.9695515E1,0E0,8.834647E1,8.9553547E-1,8.9139843E-1,2.8270365E1,7.7761364E-1,0E0,0E0,0E0,3.645994E1,1.3663612E1,2.8039888E1,0E0,0E0,0E0,0E0,0E0,0E0,0E0,0E0,0E0,0E0,0E0,0E0,0E0,0E0,0E0,0E0,0E0,0E0,0E0,0E0],"parents":[2147483647,0,0,1,1,2,2,3,3,4,4,5,5,6,6,7,7,10,10,11,11,12,12,14,14,15,15,18,18,19,19,20,20,22,22,23,23,24,24,25,25,26,26,28,28,29,29,30,30,31,31,32,32,36,36,37,37,38,38],"right_children":[2,4,6,8,10,12,14,16,-1,-1,18,20,22,-1,24,26,-1,-1,28,30,32,-1,34,36,38,40,42,-1,44,46,48,50,52,-1,-1,-1,54,56,58,-1,-1,-1,-1,-1,-1,-1,-1,-1,-1,-1,-1,-1,-1,-1,-1,-1,-1,-1,-1],"split_conditions":[3.7930487E2,3.6223007E2,4.4291113E2,3.5739493E2,3.6307788E2,1E0,4.4646597E2,1E0,-5.742136E-1,3.0080557E0,3.6363007E2,4.059248E2,4.1192126E2,2.164436E0,4.7929596E2,2.9138495E2,3.2855318E0,-2.0049138E0,3.6457013E2,3.98643E2,4.1382193E2,-8.660889E-2,4.1382193E2,4.6332718E2,5.38476E2,2.3660278E2,3.2730008E2,4.2451863E0,3.7829376E2,3.8238596E2,4.0559006E2,4.1192126E2,4.3272495E2,-6.2088114E-1,-1.1999341E-1,-8.6225855E-1,4.6436404E2,4.8903705E2,8.915289E2,-2.3421738E-2,2.4525917E-1,-5.399608E-1,3.6291033E-2,-7.978757E-2,1.6233017E0,-2.4496718E-1,-6.774624E-2,-5.5990463E-1,-9.7923234E-2,9.733424E-2,1.506273E0,-1.3733192E-1,-2.3523153E-1,5.225549E-1,-7.848169E-1,1.5644677E0,6.160674E-1,-5.1192033E-1,-1.9347707E-2],"split_indices":[0,0,0,0,0,1,0,1,0,0,0,0,0,0,0,0,0,0,0,0,0,0,0,0,0,0,0,0,0,0,0,0,0,0,0,0,0,0,0,0,0,0,0,0,0,0,0,0,0,0,0,0,0,0,0,0,0,0,0],"split_type":[0,0,0,0,0,0,0,0,0,0,0,0,0,0,0,0,0,0,0,0,0,0,0,0,0,0,0,0,0,0,0,0,0,0,0,0,0,0,0,0,0,0,0,0,0,0,0,0,0,0,0,0,0,0,0,0,0,0,0],"sum_hessian":[5.71E2,2.73E2,2.98E2,2.32E2,4.1E1,7.1E1,2.27E2,2.14E2,1.8E1,3E0,3.8E1,6.5E1,6E0,3E0,2.24E2,2.13E2,1E0,3E0,3.5E1,1.6E1,4.9E1,2E0,4E0,1.1E1,2.13E2,1.54E2,5.9E1,2E0,3.3E1,1.3E1,3E0,5E0,4.4E1,2E0,2E0,4E0,7E0,1E1,2.03E2,1.09E2,4.5E1,1.3E1,4.6E1,3.1E1,2E0,8E0,5E0,2E0,1E0,4E0,1E0,2.9E1,1.5E1,2E0,5E0,2E0,8E0,1E1,1.93E2],"tree_param":{"num_deleted":"0","num_feature":"2","num_nodes":"59","size_leaf_vector":"1"}},{"base_weights":[5.361817E-2,1.3638847E-1,-1.9564648E-1,8.0872804E-2,1.1152581E0,-2.8820443E-1,1.0641947E0,1.2407977E-1,-2.5865147E-1,1.0706503E0,7.116397E-1,-3.5458753E-1,3.0612126E-1,1.3356259E0,-4.3060305E-3,9.7460136E-2,8.025493E-1,1.2438264E0,1.8517494E-3,-1.7137021E-1,-5.0979984E-1,-9.522511E-1,2.7616415E0,4.17482E-1,6.448198E-1,1.4183903E-1,-8.793874E-1,-5.8779527E-2,5.707431E-1,-7.024559E-1,5.638165E-1,-4.0004185E-1,1.2234199E0,-1.0988314E0,-2.4261652E-1,-6.574194E-1,-5.408605E-1,1.0597801E0,-4.8328973E-2,1.6752128E-1,4.121971E-2,2.4012301E-2,7.1127707E-1,-4.9939367E-1,-4.8972648E-2,-1.6824484E-1,1.3885508E-1,-3.190942E-2,-2.6502764E-1,-6.3738205E-2,-3.6687335E-1,-4.4208625E-1,-2.350999E-1,2.591902E-1,-1.6054082E-1,-2.7968922E-1,6.093073E-2],"categories":[],"categories_nodes":[],"categories_segments":[],"categories_sizes":[],"default_left":[0,0,0,0,0,0,0,0,0,0,0,0,0,0,0,0,0,0,0,0,0,0,0,0,0,0,0,0,0,0,0,0,0,0,0,0,0,0,0,0,0,0,0,0,0,0,0,0,0,0,0,0,0,0,0,0,0],"id":11,"left_children":[1,3,5,7,9,11,13,15,-1,-1,17,19,21,23,-1,25,-1,27,29,31,33,35,37,39,-1,41,43,45,-1,47,-1,49,-1,51,53,55,-1,-1,-1,-1,-1,-1,-1,-1,-1,-1,-1,-1,-1,-1,-1,-1,-1,-1,-1,-1,-1],"loss_changes":[1.1828021E1,2.3277124E1,1.6981695E1,1.673138E1,2.0237371E1,5.3952713E0,2.9466877E0,2.6291672E1,0E0,0E0,7.93023E0,3.3535833E0,4.5889202E1,5.079953E0,0E0,1.694508E1,0E0,1.040737E1,1.4543819E1,5.701976E1,9.963066E0,1.322648E0,1.183564E1,1.20625496E-1,0E0,5.1054356E1,9.288361E0,1.5689601E0,0E0,7.690296E-1,0E0,8.2296915E0,0E0,1.2075844E0,1.5352417E1,2.3181982E0,0E0,0E0,0E0,0E0,0E0,0E0,0E0,0E0,0E0,0E0,0E0,0E0,0E0,0E0,0E0,0E0,0E0,0E0,0E0,0E0,0E0],"parents":[2147483647,0,0,1,1,2,2,3,3,4,4,5,5,6,6,7,7,10,10,11,11,12,12,13,13,15,15,17,17,18,18,19,19,20,20,21,21,22,22,23,23,25,25,26,26,27,27,29,29,31,31,33,33,34,34,35,35],"right_children":[2,4,6,8,10,12,14,16,-1,-1,18,20,22,24,-1,26,-1,28,30,32,34,36,38,40,-1,42,44,46,-1,48,-1,50,-1,52,54,56,-1,-1,-1,-1,-1,-1,-1,-1,-1,-1,-1,-1,-1,-1,-1,-1,-1,-1,-1,-1,-1],"split_conditions":[1.2441351E3,1.1748092E3,1.708386E3,1.1347361E3,1.1784971E3,1E0,3.0116492E3,1.1027081E3,-2.5865147E-1,1.0706503E0,1.1916151E3,1.3899441E3,1.4183588E3,1.753716E3,-4.3060305E-3,5.900481E2,8.025493E-1,1.1839559E3,1.241386E3,1.3835063E3,1.4363348E3,1.3717513E3,1.4190609E3,1.7236218E3,6.448198E-1,4.928949E2,8.915289E2,1.183017E3,5.707431E-1,1.1975178E3,5.638165E-1,1.355457E3,1.2234199E0,1.4120509E3,1.462163E3,1.3237582E3,-5.408605E-1,1.0597801E0,-4.8328973E-2,1.6752128E-1,4.121971E-2,2.4012301E-2,7.1127707E-1,-4.9939367E-1,-4.8972648E-2,-1.6824484E-1,1.3885508E-1,-3.190942E-2,-2.6502764E-1,-6.3738205E-2,-3.6687335E-1,-4.4208625E-1,-2.350999E-1,2.591902E-1,-1.6054082E-1,-2.7968922E-1,6.093073E-2],"split_indices":[0,0,0,0,0,1,0,0,0,0,0,0,0,0,0,0,0,0,0,0,0,0,0,0,0,0,0,0,0,0,0,0,0,0,0,0,0,0,0,0,0,0,0,0,0,0,0,0,0,0,0,0,0,0,0,0,0],"split_type":[0,0,0,0,0,0,0,0,0,0,0,0,0,0,0,0,0,0,0,0,0,0,0,0,0,0,0,0,0,0,0,0,0,0,0,0,0,0,0,0,0,0,0,0,0,0,0,0,0,0,0,0,0,0,0,0,0],"sum_hessian":[5.71E2,4.29E2,1.42E2,4.07E2,2.2E1,1.33E2,9E0,3.9E2,1.7E1,2E0,2E1,1.2E2,1.3E1,7E0,2E0,3.87E2,3E0,1.1E1,9E0,5.6E1,6.4E1,9E0,4E0,4E0,3E0,3.71E2,1.6E1,4E0,7E0,7E0,2E0,5.4E1,2E0,1.9E1,4.5E1,8E0,1E0,3E0,1E0,2E0,2E0,3.62E2,9E0,7E0,9E0,2E0,2E0,2E0,5E0,4.5E1,9E0,7E0,1.2E1,9E0,3.6E1,6E0,2E0],"tree_param":{"num_deleted":"0","num_feature":"2","num_nodes":"57","size_leaf_vector":"1"}},{"base_weights":[4.439454E-2,1.7246504E-1,-6.6716686E-2,8.635682E-2,1.7372893E0,-2.161978E0,-1.7768027E-2,3.508308E-2,3.3975606E0,-1.0848935E0,-9.70938E-1,1.2938392E0,-6.115909E-2,-8.783444E-2,9.459201E-1,2.7891002E0,-5.0037575E-1,-9.5804065E-1,4.1559392E-1,-3.9949572E-1,4.5952298E-2,5.8764387E-3,-1.2623223E0,2.3258398E0,-6.0274057E-2,-3.3332953E-1,-9.6627754E-1,1.6720353E0,-5.251858E-2,6.5800965E-2,-7.763591E-2,-1.335723E-1,-4.0247515E-1,-1.5592111E0,2.292217E-1,-2.086554E-1,-6.1055664E-2,-7.4089624E-2,-3.6138278E-1,-4.6944734E-1,9.758711E-3],"categories":[],"categories_nodes":[],"categories_segments":[],"categories_sizes":[],"default_left":[0,0,0,0,0,0,0,0,0,0,0,0,0,0,0,0,0,0,0,0,0,0,0,0,0,0,0,0,0,0,0,0,0,0,0,0,0,0,0,0,0],"id":12,"left_children":[1,3,5,7,-1,9,11,13,15,17,-1,-1,19,21,23,-1,-1,-1,-1,25,27,29,31,-1,33,35,37,-1,39,-1,-1,-1,-1,-1,-1,-1,-1,-1,-1,-1,-1],"loss_changes":[8.151107E0,1.2819043E2,3.1447582E1,4.4532368E1,0E0,4.589939E0,5.6824017E1,2.9192122E1,1.3504059E2,3.0467037E1,0E0,0E0,1.0854029E1,2.5321743E1,2.127876E2,0E0,0E0,0E0,0E0,2.3780403E0,1.2439258E2,1.214668E1,5.0364494E-1,0E0,1.2254407E2,2.9614997E0,9.0254784E-1,0E0,2.8989954E1,0E0,0E0,0E0,0E0,0E0,0E0,0E0,0E0,0E0,0E0,0E0,0E0],"parents":[2147483647,0,0,1,1,2,2,3,3,5,5,6,6,7,7,8,8,9,9,12,12,13,13,14,14,19,19,20,20,21,21,22,22,24,24,25,25,26,26,28,28],"right_children":[2,4,6,8,-1,10,12,14,16,18,-1,-1,20,22,24,-1,-1,-1,-1,26,28,30,32,-1,34,36,38,-1,40,-1,-1,-1,-1,-1,-1,-1,-1,-1,-1,-1,-1],"split_conditions":[3.746102E2,3.728161E2,3.7829376E2,1E0,1.7372893E0,3.7650394E2,3.7930487E2,3.6223007E2,3.487971E2,3.7543298E2,-9.70938E-1,1.2938392E0,4.4291113E2,3.5739493E2,3.6307788E2,2.7891002E0,-5.0037575E-1,-9.5804065E-1,4.1559392E-1,1E0,4.4646597E2,2.4282884E2,3.59468E2,2.3258398E0,3.6363007E2,4.059248E2,4.1192126E2,1.6720353E0,4.7929596E2,6.5800965E-2,-7.763591E-2,-1.335723E-1,-4.0247515E-1,-1.5592111E0,2.292217E-1,-2.086554E-1,-6.1055664E-2,-7.4089624E-2,-3.6138278E-1,-4.6944734E-1,9.758711E-3],"split_indices":[0,0,0,1,0,0,0,0,0,0,0,0,0,0,0,0,0,0,0,1,0,0,0,0,0,0,0,0,0,0,0,0,0,0,0,0,0,0,0,0,0],"split_type":[0,0,0,0,0,0,0,0,0,0,0,0,0,0,0,0,0,0,0,0,0,0,0,0,0,0,0,0,0,0,0,0,0,0,0,0,0,0,0,0,0],"sum_hessian":[5.71E2,2.65E2,3.06E2,2.62E2,3E0,6E0,3E2,2.59E2,3E0,4E0,2E0,2E0,2.98E2,2.29E2,3E1,1E0,2E0,2E0,2E0,7.1E1,2.27E2,2.13E2,1.6E1,3E0,2.7E1,6.5E1,6E0,3E0,2.24E2,1.18E2,9.5E1,2E0,1.4E1,3E0,2.4E1,1.6E1,4.9E1,2E0,4E0,1.1E1,2.13E2],"tree_param":{"num_deleted":"0","num_feature":"2","num_nodes":"41","size_leaf_vector":"1"}},{"base_weights":[3.940068E-2,-5.17229E-1,6.792588E-2,-3.6821836E-1,-3.387103E-1,1.8100079E0,2.530863E-2,-6.761725E-1,-3.916502E-3,5.42911E-1,2.5522757E0,-5.0934464E-1,7.685564E-2,-3.2316077E-1,-4.4814324E-1,3.4521562E-1,-6.649035E-2,1.8172606E0,-6.269474E-1,-2.0705718E-1,-8.737454E-1,1.3414412E0,4.951399E-2,1.6117254E-1,-7.616447E-1,-6.1494257E-2,2.3410207E-1,2.2431909E-1,6.4952797E-1,-3.493442E-1,1.4337713E-1,-5.800053E-1,1.1949288E0,-1.0125252E0,-6.198351E-1,-4.311907E-1,7.429436E-2,-1.3294825E-1,-2.9080153E-1,4.392933E-2,-2.5847128E-1,4.646744E-1,9.739142E-2,-1.9267866E-1,-5.7276803E-1,-9.833885E-2,-2.2796851E-1,3.7574485E-1,2.7757494E-3],"categories":[],"categories_nodes":[],"categories_segments":[],"categories_sizes":[],"default_left":[0,0,0,0,0,0,0,0,0,0,0,0,0,0,0,0,0,0,0,0,0,0,0,0,0,0,0,0,0,0,0,0,0,0,0,0,0,0,0,0,0,0,0,0,0,0,0,0,0],"id":13,"left_children":[1,3,5,7,-1,9,11,13,15,17,-1,19,21,-1,23,25,-1,27,29,31,33,-1,35,-1,37,-1,-1,-1,-1,-1,-1,39,41,43,45,-1,47,-1,-1,-1,-1,-1,-1,-1,-1,-1,-1,-1,-1],"loss_changes":[9.1173315E0,2.1369023E0,4.041648E1,2.68987E0,0E0,1.0570539E2,1.4728506E1,7.060647E-1,9.8865986E-1,1.902903E1,0E0,4.996312E0,5.8294582E1,0E0,3.498384E0,1.3569747E0,0E0,6.1319923E-1,4.7138667E0,1.4810502E1,1.1239052E-1,0E0,1.7976051E1,0E0,9.960413E-2,0E0,0E0,0E0,0E0,0E0,0E0,4.626029E0,1.3455868E0,2.7579603E0,1.5993834E-1,0E0,3.6618298E1,0E0,0E0,0E0,0E0,0E0,0E0,0E0,0E0,0E0,0E0,0E0,0E0],"parents":[2147483647,0,0,1,1,2,2,3,3,5,5,6,6,7,7,8,8,9,9,11,11,12,12,14,14,15,15,17,17,18,18,19,19,20,20,22,22,24,24,31,31,32,32,33,33,34,34,36,36],"right_children":[2,4,6,8,-1,10,12,14,16,18,-1,20,22,-1,24,26,-1,28,30,32,34,-1,36,-1,38,-1,-1,-1,-1,-1,-1,40,42,44,46,-1,48,-1,-1,-1,-1,-1,-1,-1,-1,-1,-1,-1,-1],"split_conditions":[1.8135214E2,1.8017197E2,1.8737627E2,1.22196915E2,-3.387103E-1,1.8677664E2,2.1479916E2,1.1127877E2,1.4390707E2,1.8395424E2,2.5522757E0,2.0046591E2,2.1559096E2,-3.2316077E-1,1.11326935E2,1.41603E2,-6.649035E-2,1.8248224E2,1.8597818E2,1.973462E2,2.0749902E2,1.3414412E0,2.1919585E2,1.6117254E-1,1.1844397E2,-6.1494257E-2,2.3410207E-1,2.2431909E-1,6.4952797E-1,-3.493442E-1,1.4337713E-1,1.9119215E2,1.9782614E2,2.0658017E2,2.091887E2,-4.311907E-1,2.4282884E2,-1.3294825E-1,-2.9080153E-1,4.392933E-2,-2.5847128E-1,4.646744E-1,9.739142E-2,-1.9267866E-1,-5.7276803E-1,-9.833885E-2,-2.2796851E-1,3.7574485E-1,2.7757494E-3],"split_indices":[0,0,0,0,0,0,0,0,0,0,0,0,0,0,0,0,0,0,0,0,0,0,0,0,0,0,0,0,0,0,0,0,0,0,0,0,0,0,0,0,0,0,0,0,0,0,0,0,0],"split_type":[0,0,0,0,0,0,0,0,0,0,0,0,0,0,0,0,0,0,0,0,0,0,0,0,0,0,0,0,0,0,0,0,0,0,0,0,0,0,0,0,0,0,0,0,0,0,0,0,0],"sum_hessian":[5.71E2,2.7E1,5.44E2,2.3E1,4E0,1.2E1,5.32E2,1.2E1,1.1E1,1.1E1,1E0,4.6E1,4.86E2,3E0,9E0,4E0,7E0,5E0,6E0,2.6E1,2E1,2E0,4.84E2,2E0,7E0,2E0,2E0,2E0,3E0,4E0,2E0,2.1E1,5E0,1.1E1,9E0,7E0,4.77E2,4E0,3E0,6E0,1.5E1,3E0,2E0,9E0,2E0,4E0,5E0,2.4E1,4.53E2],"tree_param":{"num_deleted":"0","num_feature":"2","num_nodes":"49","size_leaf_vector":"1"}},{"base_weights":[3.273127E-2,1.6191912E-1,-6.2497158E-2,8.970721E-3,7.440469E0,-1.5641961E0,2.4062194E-2,7.739059E-2,-1.2090132E0,3.3449476E0,3.752871E-1,-6.075574E-1,-8.7817955E-1,3.204389E0,-4.853178E-2,-2.472605E-2,1.8019012E0,6.53734E-1,-6.1889815E-1,3.365294E-1,1.3457749E0,-1.7319623E0,-9.220998E-3,-7.632494E-2,2.9483914E0,-8.701359E-1,-7.773057E-1,1.0345165E0,-4.3881886E-2,4.741831E-3,-2.1463004E-1,2.3703187E0,-4.008558E-1,-7.6698786E-1,3.3191988E-1,-2.008847E-2,3.2830086E-1],"categories":[],"categories_nodes":[],"categories_segments":[],"categories_sizes":[],"default_left":[0,0,0,0,0,0,0,0,0,0,0,0,0,0,0,0,0,0,0,0,0,0,0,0,0,0,0,0,0,0,0,0,0,0,0,0,0],"id":14,"left_children":[1,3,5,7,9,11,13,15,-1,-1,-1,-1,17,19,21,23,-1,-1,-1,-1,-1,25,27,29,31,33,-1,-1,35,-1,-1,-1,-1,-1,-1,-1,-1],"loss_changes":[7.047067E0,2.7045123E2,4.293305E1,6.635927E1,1.00847534E2,3.9140282E0,7.241863E1,1.4303333E2,0E0,0E0,0E0,0E0,3.7096413E1,1.3650436E1,2.0300358E1,3.5969463E1,0E0,0E0,0E0,0E0,0E0,2.9279652E0,3.6224304E1,1.3554107E1,9.54377E1,1.9495687E1,0E0,0E0,7.927922E0,0E0,0E0,0E0,0E0,0E0,0E0,0E0,0E0],"parents":[2147483647,0,0,1,1,2,2,3,3,4,4,5,5,6,6,7,7,12,12,13,13,14,14,15,15,21,21,22,22,23,23,24,24,25,25,28,28],"right_children":[2,4,6,8,10,12,14,16,-1,-1,-1,-1,18,20,22,24,-1,-1,-1,-1,-1,26,28,30,32,34,-1,-1,36,-1,-1,-1,-1,-1,-1,-1,-1],"split_conditions":[3.6499692E2,3.6363007E2,3.7157727E2,3.6307788E2,3.6457013E2,3.689821E2,3.746102E2,3.6223007E2,-1.2090132E0,3.3449476E0,3.752871E-1,-6.075574E-1,3.6966492E2,3.728161E2,3.7829376E2,1E0,1.8019012E0,6.53734E-1,-6.1889815E-1,3.365294E-1,1.3457749E0,3.7650394E2,3.7930487E2,3.523388E2,3.487971E2,3.7543298E2,-7.773057E-1,1.0345165E0,1.753716E3,4.741831E-3,-2.1463004E-1,2.3703187E0,-4.008558E-1,-7.6698786E-1,3.3191988E-1,-2.008847E-2,3.2830086E-1],"split_indices":[0,0,0,0,0,0,0,0,0,0,0,0,0,0,0,1,0,0,0,0,0,0,0,0,0,0,0,0,0,0,0,0,0,0,0,0,0],"split_type":[0,0,0,0,0,0,0,0,0,0,0,0,0,0,0,0,0,0,0,0,0,0,0,0,0,0,0,0,0,0,0,0,0,0,0,0,0],"sum_hessian":[5.71E2,2.42E2,3.29E2,2.38E2,4E0,1.7E1,3.12E2,2.35E2,3E0,2E0,2E0,9E0,8E0,6E0,3.06E2,2.32E2,3E0,2E0,6E0,3E0,3E0,6E0,3E2,2.29E2,3E0,4E0,2E0,2E0,2.98E2,2.01E2,2.8E1,1E0,2E0,2E0,2E0,2.93E2,5E0],"tree_param":{"num_deleted":"0","num_feature":"2","num_nodes":"37","size_leaf_vector":"1"}},{"base_weights":[3.5696216E-2,-3.9585894E-1,5.780236E-2,-2.8228134E-1,-2.5855792E-1,1.5103328E0,2.2266341E-2,-4.8648322E-1,5.224962E-2,4.3134776E-1,2.168723E0,-3.389786E-1,7.761434E-2,-2.515165E-1,-3.2864127E-1,1.8633328E-1,-1.6760457E-1,1.4137721E0,-4.7235134E-1,-1.6573794E-1,-9.5979756E-1,9.2210644E-1,1.1450573E-2,1.2798963E-1,-5.2235913E-1,-7.401466E-2,-1.0011498E-1,1.7850687E-1,5.023173E-1,-2.6663956E-1,1.1375332E-1,-3.770166E-1,2.9316363E-1,-1.3536249E0,6.440681E-2,-1.7708075E-1,-5.0143816E-2,6.07462E-3,-4.960771E-2,-4.0990375E-2,-2.004378E-1,1.0722047E0,-6.408671E-2,-2.1988289E-1,-6.406823E-1,5.065679E-1,7.919294E-3],"categories":[],"categories_nodes":[],"categories_segments":[],"categories_sizes":[],"default_left":[0,0,0,0,0,0,0,0,0,0,0,0,0,0,0,0,0,0,0,0,0,0,0,0,0,0,0,0,0,0,0,0,0,0,0,0,0,0,0,0,0,0,0,0,0,0,0],"id":15,"left_children":[1,3,5,7,-1,9,11,13,15,17,-1,19,21,-1,23,-1,25,27,29,31,-1,-1,33,-1,35,-1,37,-1,-1,-1,-1,39,41,43,45,-1,-1,-1,-1,-1,-1,-1,-1,-1,-1,-1,-1],"loss_changes":[5.479773E0,1.2386761E0,2.8097715E1,1.6649027E0,0E0,7.709745E1,1.0683209E1,5.5765176E-1,1.3547665E0,1.13215885E1,0E0,3.465226E1,9.174599E1,0E0,1.9785744E0,0E0,1.8013418E-2,2.8398895E-1,2.8193312E0,6.703542E0,0E0,0E0,3.290651E1,0E0,1.425643E-1,0E0,5.0466392E-2,0E0,0E0,0E0,0E0,3.1976523E0,3.7342663E1,6.6858826E0,2.6994347E1,0E0,0E0,0E0,0E0,0E0,0E0,0E0,0E0,0E0,0E0,0E0,0E0],"parents":[2147483647,0,0,1,1,2,2,3,3,5,5,6,6,7,7,8,8,9,9,11,11,12,12,14,14,16,16,17,17,18,18,19,19,22,22,24,24,26,26,31,31,32,32,33,33,34,34],"right_children":[2,4,6,8,-1,10,12,14,16,18,-1,20,22,-1,24,-1,26,28,30,32,-1,-1,34,-1,36,-1,38,-1,-1,-1,-1,40,42,44,46,-1,-1,-1,-1,-1,-1,-1,-1,-1,-1,-1,-1],"split_conditions":[1.8135214E2,1.8017197E2,1.8737627E2,1.41603E2,-2.5855792E-1,1.8677664E2,2.3660278E2,1.1127877E2,1.4390707E2,1.8395424E2,2.168723E0,2.2717976E2,2.4282884E2,-2.515165E-1,1.11326935E2,1.8633328E-1,1.6601228E2,1.8248224E2,1.8597818E2,2.1479916E2,-9.5979756E-1,9.2210644E-1,2.624011E2,1.2798963E-1,1.22196915E2,-7.401466E-2,1.6918517E2,1.7850687E-1,5.023173E-1,-2.6663956E-1,1.1375332E-1,2.0046591E2,2.1559096E2,2.5848007E2,2.7864505E2,-1.7708075E-1,-5.0143816E-2,6.07462E-3,-4.960771E-2,-4.0990375E-2,-2.004378E-1,1.0722047E0,-6.408671E-2,-2.1988289E-1,-6.406823E-1,5.065679E-1,7.919294E-3],"split_indices":[0,0,0,0,0,0,0,0,0,0,0,0,0,0,0,0,0,0,0,0,0,0,0,0,0,0,0,0,0,0,0,0,0,0,0,0,0,0,0,0,0,0,0,0,0,0,0],"split_type":[0,0,0,0,0,0,0,0,0,0,0,0,0,0,0,0,0,0,0,0,0,0,0,0,0,0,0,0,0,0,0,0,0,0,0,0,0,0,0,0,0,0,0,0,0,0,0],"sum_hessian":[5.71E2,2.7E1,5.44E2,2.3E1,4E0,1.2E1,5.32E2,1.4E1,9E0,1.1E1,1E0,7E1,4.62E2,3E0,1.1E1,2E0,7E0,5E0,6E0,6.7E1,3E0,9E0,4.53E2,2E0,9E0,2E0,5E0,2E0,3E0,4E0,2E0,4.6E1,2.1E1,1.6E1,4.37E2,7E0,2E0,2E0,3E0,2.6E1,2E1,2E0,1.9E1,1E1,6E0,9E0,4.28E2],"tree_param":{"num_deleted":"0","num_feature":"2","num_nodes":"47","size_leaf_vector":"1"}},{"base_weights":[2.942625E-2,8.2991526E-2,-1.4975339E-1,-8.774009E-2,2.1378145E-1,-7.3140794E-1,-3.935609E-2,5.4256834E-2,-1.3835151E0,4.709096E0,1.0281953E-1,-2.7027196E-1,-1.0547372E0,9.034632E-1,-1.3050984E-1,-5.6468364E-2,2.7039106E0,-5.765944E-1,-1.8586159E-1,2.9661381E0,2.013583E0,-6.9438654E-1,1.5254728E-1,-9.0581954E-1,2.728513E-1,-4.9409682E-1,-2.5535095E-1,-2.710135E-1,2.1321425E0,-2.2135916E-1,7.365247E-1,4.8600316E-2,-1.3129488E0,1.81357E0,1.5833473E-1,2.5326902E-1,-5.522182E-1,1.270796E0,-3.169882E-1,1.5171996E0,9.034267E-2,-3.5575578E-1,-1.6699076E-1,-1.4538002E-2,-9.174967E-2,1.1309222E0,-6.485086E-2,-3.229092E-1,9.106674E-1,-6.4463174E-1,1.4205391E0,-8.220168E-3,2.1459615E-1,-2.5653023E-1,-7.6622266E-1,-5.754829E-1,6.546502E-1,-6.3549787E-1,4.397674E-2,-2.2681612E-1,-5.9687313E-2,1.0010777E-1,4.2126575E-1,4.8671532E-2,-4.5978636E-1,8.212472E-1,-7.546413E-2],"categories":[],"categories_nodes":[],"categories_segments":[],"categories_sizes":[],"default_left":[0,0,0,0,0,0,0,0,0,0,0,0,0,0,0,0,0,0,0,0,0,0,0,0,0,0,0,0,0,0,0,0,0,0,0,0,0,0,0,0,0,0,0,0,0,0,0,0,0,0,0,0,0,0,0,0,0,0,0,0,0,0,0,0,0,0,0],"id":16,"left_children":[1,3,5,7,9,11,13,15,17,19,21,23,25,27,29,31,33,-1,35,37,-1,-1,39,41,-1,-1,-1,43,45,47,49,51,53,-1,55,-1,-1,-1,-1,-1,57,-1,-1,-1,-1,-1,-1,59,61,63,65,-1,-1,-1,-1,-1,-1,-1,-1,-1,-1,-1,-1,-1,-1,-1,-1],"loss_changes":[5.5023737E0,9.866276E0,8.447343E0,3.5402313E1,1.2421799E2,2.8460093E0,9.7433605E0,5.12014E1,1.1895798E1,1.0367126E0,2.9805494E1,8.321886E0,4.4891357E-2,1.5008391E1,8.276296E0,2.2242622E1,5.858197E1,0E0,1.348664E1,3.0017365E1,0E0,0E0,7.307226E1,2.4392128E-2,0E0,0E0,0E0,3.167355E-2,2.0042854E1,1.1100053E1,1.0363033E1,7.9243245E0,5.2032223E0,0E0,2.5199564E1,0E0,0E0,0E0,0E0,0E0,3.0001448E1,0E0,0E0,0E0,0E0,0E0,0E0,4.5205116E0,1.8095584E0,3.1146183E0,1.6103003E1,0E0,0E0,0E0,0E0,0E0,0E0,0E0,0E0,0E0,0E0,0E0,0E0,0E0,0E0,0E0,0E0],"parents":[2147483647,0,0,1,1,2,2,3,3,4,4,5,5,6,6,7,7,8,8,9,9,10,10,11,11,12,12,13,13,14,14,15,15,16,16,18,18,19,19,22,22,23,23,27,27,28,28,29,29,30,30,31,31,32,32,34,34,40,40,47,47,48,48,49,49,50,50],"right_children":[2,4,6,8,10,12,14,16,18,20,22,24,26,28,30,32,34,-1,36,38,-1,-1,40,42,-1,-1,-1,44,46,48,50,52,54,-1,56,-1,-1,-1,-1,-1,58,-1,-1,-1,-1,-1,-1,60,62,64,66,-1,-1,-1,-1,-1,-1,-1,-1,-1,-1,-1,-1,-1,-1,-1,-1],"split_conditions":[1.2618918E3,3.470831E2,1.3147471E3,3.398559E2,3.487971E2,1.2856271E3,1.3237582E3,3.2730008E2,3.4624506E2,1E0,3.5038306E2,1.2674298E3,1.2905571E3,1.318265E3,1E0,2.9751517E2,3.35088E2,-5.765944E-1,3.4696387E2,3.48449E2,2.013583E0,-6.9438654E-1,3.523388E2,1.2644799E3,2.728513E-1,-4.9409682E-1,-2.5535095E-1,1.3164132E3,1E0,1.708386E3,1.4183588E3,2.7524185E2,3.2287787E2,1.81357E0,3.3577896E2,2.5326902E-1,-5.522182E-1,1.270796E0,-3.169882E-1,1.5171996E0,3.5310388E2,-3.5575578E-1,-1.6699076E-1,-1.4538002E-2,-9.174967E-2,1.1309222E0,-6.485086E-2,1.377739E3,1.753716E3,1.3717513E3,1.4190609E3,-8.220168E-3,2.1459615E-1,-2.5653023E-1,-7.6622266E-1,-5.754829E-1,6.546502E-1,-6.3549787E-1,4.397674E-2,-2.2681612E-1,-5.9687313E-2,1.0010777E-1,4.2126575E-1,4.8671532E-2,-4.5978636E-1,8.212472E-1,-7.546413E-2],"split_indices":[0,0,0,0,0,0,0,0,0,1,0,0,0,0,1,0,0,0,0,0,0,0,0,0,0,0,0,0,1,0,0,0,0,0,0,0,0,0,0,0,0,0,0,0,0,0,0,0,0,0,0,0,0,0,0,0,0,0,0,0,0,0,0,0,0,0,0],"split_type":[0,0,0,0,0,0,0,0,0,0,0,0,0,0,0,0,0,0,0,0,0,0,0,0,0,0,0,0,0,0,0,0,0,0,0,0,0,0,0,0,0,0,0,0,0,0,0,0,0,0,0,0,0,0,0,0,0,0,0,0,0,0,0,0,0,0,0],"sum_hessian":[5.71E2,4.4E2,1.31E2,1.91E2,2.49E2,2E1,1.11E2,1.73E2,1.8E1,5E0,2.44E2,9E0,1.1E1,9E0,1.02E2,1.67E2,6E0,1.2E1,6E0,4E0,1E0,4E0,2.4E2,6E0,3E0,1E0,1E1,5E0,4E0,9.3E1,9E0,1.55E2,1.2E1,2E0,4E0,4E0,2E0,3E0,1E0,2E0,2.38E2,2E0,4E0,1E0,4E0,2E0,2E0,8.6E1,7E0,3E0,6E0,1.4E2,1.5E1,1E1,2E0,2E0,2E0,5E0,2.33E2,1.8E1,6.8E1,4E0,3E0,2E0,1E0,3E0,3E0],"tree_param":{"num_deleted":"0","num_feature":"2","num_nodes":"67","size_leaf_vector":"1"}},{"base_weights":[2.746804E-2,1.3893525E-1,-5.4695603E-2,1.7602405E-2,5.9108586E0,-1.1757681E0,9.949766E-3,7.142288E-2,-9.4866204E-1,2.6655788E0,2.8985044E-1,-1.5250963E0,-6.5698475E-1,2.4389205E0,-4.5466337E-2,-6.9019487E-3,1.3847966E0,-2.692378E-1,-5.919725E-1,5.12608E-1,-4.7309756E-1,2.4913402E-1,1.0312992E0,-1.4300522E0,-1.3115618E-2,-4.22079E-2,2.0249157E0,-7.376255E-1,-6.322238E-1,8.1723386E-1,-4.0535584E-2,3.5303803E-3,-2.4499382E-1,1.7115452E0,-3.310638E-1,-6.2396944E-1,2.5515673E-1,-9.7063385E-2,1.470404E-2],"categories":[],"categories_nodes":[],"categories_segments":[],"categories_sizes":[],"default_left":[0,0,0,0,0,0,0,0,0,0,0,0,0,0,0,0,0,0,0,0,0,0,0,0,0,0,0,0,0,0,0,0,0,0,0,0,0,0,0],"id":17,"left_children":[1,3,5,7,9,11,13,15,-1,-1,-1,17,19,21,23,25,-1,-1,-1,-1,-1,-1,-1,27,29,31,33,35,-1,-1,37,-1,-1,-1,-1,-1,-1,-1,-1],"loss_changes":[5.2462907E0,1.7007468E2,2.3927507E1,4.1128033E1,6.495288E1,2.2600956E0,4.2241974E1,8.403662E1,0E0,0E0,0E0,1.0418224E0,2.2282557E1,8.390373E0,1.3732495E1,1.6799784E1,0E0,0E0,0E0,0E0,0E0,0E0,0E0,1.7286758E0,2.270189E1,9.623829E0,5.2349792E1,1.2427637E1,0E0,0E0,7.5934706E0,0E0,0E0,0E0,0E0,0E0,0E0,0E0,0E0],"parents":[2147483647,0,0,1,1,2,2,3,3,4,4,5,5,6,6,7,7,11,11,12,12,13,13,14,14,15,15,23,23,24,24,25,25,26,26,27,27,30,30],"right_children":[2,4,6,8,10,12,14,16,-1,-1,-1,18,20,22,24,26,-1,-1,-1,-1,-1,-1,-1,28,30,32,34,36,-1,-1,38,-1,-1,-1,-1,-1,-1,-1,-1],"split_conditions":[3.6499692E2,3.6363007E2,3.7157727E2,3.6307788E2,3.6457013E2,3.689821E2,3.746102E2,3.6223007E2,-9.4866204E-1,2.6655788E0,2.8985044E-1,3.6752606E2,3.6966492E2,3.728161E2,3.7829376E2,1E0,1.3847966E0,-2.692378E-1,-5.919725E-1,5.12608E-1,-4.7309756E-1,2.4913402E-1,1.0312992E0,3.7650394E2,3.7930487E2,3.59468E2,3.487971E2,3.7543298E2,-6.322238E-1,8.1723386E-1,4.4291113E2,3.5303803E-3,-2.4499382E-1,1.7115452E0,-3.310638E-1,-6.2396944E-1,2.5515673E-1,-9.7063385E-2,1.470404E-2],"split_indices":[0,0,0,0,0,0,0,0,0,0,0,0,0,0,0,1,0,0,0,0,0,0,0,0,0,0,0,0,0,0,0,0,0,0,0,0,0,0,0],"split_type":[0,0,0,0,0,0,0,0,0,0,0,0,0,0,0,0,0,0,0,0,0,0,0,0,0,0,0,0,0,0,0,0,0,0,0,0,0,0,0],"sum_hessian":[5.71E2,2.42E2,3.29E2,2.38E2,4E0,1.7E1,3.12E2,2.35E2,3E0,2E0,2E0,9E0,8E0,6E0,3.06E2,2.32E2,3E0,5E0,4E0,2E0,6E0,3E0,3E0,6E0,3E2,2.29E2,3E0,4E0,2E0,2E0,2.98E2,2.15E2,1.4E1,1E0,2E0,2E0,2E0,7.1E1,2.27E2],"tree_param":{"num_deleted":"0","num_feature":"2","num_nodes":"39","size_leaf_vector":"1"}},{"base_weights":[2.7484903E-2,7.635905E-2,-1.0806445E-1,3.2745216E-2,1.3419367E0,-1.4918563E-1,4.9077472E-1,8.664721E-2,-4.6531934E-1,8.4471154E-1,8.616665E-1,-8.018094E-2,-3.6804822E-1,6.897731E-1,-6.104374E-2,3.4577083E-2,8.323432E-1,-1.0992448E0,-1.5437825E-1,-9.426079E-2,4.0542385E-1,-1.745138E-1,1.1443772E0,-4.3819883E-1,3.2354355E-2,2.4184303E-1,3.2317272E-1,6.428643E-2,-1.0655922E0,-3.512661E-1,-1.4104275E-1,5.9635377E-1,-3.9562032E-1,-1.4640513E-1,9.927474E-2,-9.345369E-2,-5.7908535E-1,2.3172956E0,-6.8498612E-3,-3.6955371E-1,-6.937846E-1,2.6324274E-2,-1.5686417E-2,1.10981375E-1,9.940147E-3,9.073353E-3,1.2349623E0,6.1322484E-2,-2.0209672E-1,-5.9187785E-2,6.3315815E-1,-1.2689614E-1,-3.4996438E-1,2.3877832E-1,1.0322099E0,-1.5901089E-1,-7.384651E-2,-2.4415903E-1,-3.2020427E-2],"categories":[],"categories_nodes":[],"categories_segments":[],"categories_sizes":[],"default_left":[0,0,0,0,0,0,0,0,0,0,0,0,0,0,0,0,0,0,0,0,0,0,0,0,0,0,0,0,0,0,0,0,0,0,0,0,0,0,0,0,0,0,0,0,0,0,0,0,0,0,0,0,0,0,0,0,0,0,0],"id":18,"left_children":[1,3,5,7,9,11,13,15,17,-1,19,21,23,25,-1,27,-1,29,31,33,-1,35,37,39,41,43,-1,45,-1,-1,-1,-1,47,-1,-1,49,51,53,-1,55,57,-1,-1,-1,-1,-1,-1,-1,-1,-1,-1,-1,-1,-1,-1,-1,-1,-1,-1],"loss_changes":[3.7976713E0,2.3193867E1,3.8162115E0,1.0993762E1,7.483097E0,2.1301534E0,1.521908E0,5.1547707E1,7.714841E0,0E0,5.745326E0,1.2906478E1,9.691858E-1,1.12795E0,0E0,3.890748E1,0E0,3.5429E-2,1.52566805E1,9.9857223E-1,0E0,3.3237276E0,1.1005248E1,2.5240612E-1,3.2719843E-2,1.21415436E-1,0E0,4.9674194E1,0E0,0E0,0E0,0E0,4.4752584E0,0E0,0E0,2.0327122E1,1.0654969E0,4.0978947E0,0E0,3.6461234E-1,2.6559377E-1,0E0,0E0,0E0,0E0,0E0,0E0,0E0,0E0,0E0,0E0,0E0,0E0,0E0,0E0,0E0,0E0,0E0,0E0],"parents":[2147483647,0,0,1,1,2,2,3,3,4,4,5,5,6,6,7,7,8,8,10,10,11,11,12,12,13,13,15,15,17,17,18,18,19,19,21,21,22,22,23,23,24,24,25,25,27,27,32,32,35,35,36,36,37,37,39,39,40,40],"right_children":[2,4,6,8,10,12,14,16,18,-1,20,22,24,26,-1,28,-1,30,32,34,-1,36,38,40,42,44,-1,46,-1,-1,-1,-1,48,-1,-1,50,52,54,-1,56,58,-1,-1,-1,-1,-1,-1,-1,-1,-1,-1,-1,-1,-1,-1,-1,-1,-1,-1],"split_conditions":[1.1916151E3,1.1748092E3,1.708386E3,5.38476E2,1.1784971E3,1.484428E3,3.0116492E3,4.928949E2,9.14942E2,8.4471154E-1,1.1839559E3,1.4571711E3,1.6313219E3,1.753716E3,-6.104374E-2,4.8903705E2,8.323432E-1,8.915289E2,9.484849E2,1.183017E3,4.0542385E-1,1.4190609E3,1.462163E3,1.5695829E3,1.647573E3,1.7236218E3,3.2317272E-1,4.7929596E2,-1.0655922E0,-3.512661E-1,-1.4104275E-1,5.9635377E-1,1.1347361E3,-1.4640513E-1,9.927474E-2,1.4183588E3,1.454988E3,1.461845E3,-6.8498612E-3,1.5037432E3,1E0,2.6324274E-2,-1.5686417E-2,1.10981375E-1,9.940147E-3,9.073353E-3,1.2349623E0,6.1322484E-2,-2.0209672E-1,-5.9187785E-2,6.3315815E-1,-1.2689614E-1,-3.4996438E-1,2.3877832E-1,1.0322099E0,-1.5901089E-1,-7.384651E-2,-2.4415903E-1,-3.2020427E-2],"split_indices":[0,0,0,0,0,0,0,0,0,0,0,0,0,0,0,0,0,0,0,0,0,0,0,0,0,0,0,0,0,0,0,0,0,0,0,0,0,0,0,0,1,0,0,0,0,0,0,0,0,0,0,0,0,0,0,0,0,0,0],"split_type":[0,0,0,0,0,0,0,0,0,0,0,0,0,0,0,0,0,0,0,0,0,0,0,0,0,0,0,0,0,0,0,0,0,0,0,0,0,0,0,0,0,0,0,0,0,0,0,0,0,0,0,0,0,0,0,0,0,0,0],"sum_hessian":[5.71E2,4.2E2,1.51E2,4.07E2,1.3E1,1.42E2,9E0,3.68E2,3.9E1,2E0,1.1E1,1.09E2,3.3E1,7E0,2E0,3.62E2,6E0,1.2E1,2.7E1,4E0,7E0,1.02E2,7E0,2.8E1,5E0,4E0,3E0,3.6E2,2E0,1E1,2E0,2E0,2.5E1,2E0,2E0,8.6E1,1.6E1,3E0,4E0,2.4E1,4E0,3E0,2E0,2E0,2E0,3.58E2,2E0,8E0,1.7E1,8.3E1,3E0,1.4E1,2E0,2E0,1E0,9E0,1.5E1,3E0,1E0],"tree_param":{"num_deleted":"0","num_feature":"2","num_nodes":"59","size_leaf_vector":"1"}},{"base_weights":[2.5223615E-2,-3.0063304E-1,4.1918594E-2,-2.1354683E-1,-1.9755611E-1,1.2606215E0,1.2115485E-2,-3.6801317E-1,3.950739E-2,3.419195E-1,1.8427569E0,-2.4432695E-1,5.1414184E-2,-1.9591162E-1,-2.4233691E-1,1.4818974E-1,-1.3585293E-1,1.0994576E0,-3.562445E-1,-1.0906111E-1,-7.448294E-1,2.2398455E0,3.0976045E-3,1.0151487E-1,-3.9231914E-1,-6.008854E-2,-8.098968E-2,1.4192867E-1,3.8830942E-1,-2.036982E-1,9.0125844E-2,-1.0265303E-2,-7.555819E-1,7.3407805E-1,2.8230402E-1,-4.8007557E-1,3.5445243E-2,-6.0731452E-2,-1.4555004E-1,3.9828303E-3,-3.943248E-2,-5.4715175E-2,9.962349E-1,-4.7603798E-1,2.0403916E-1,8.494884E-1,4.9416865E-3],"categories":[],"categories_nodes":[],"categories_segments":[],"categories_sizes":[],"default_left":[0,0,0,0,0,0,0,0,0,0,0,0,0,0,0,0,0,0,0,0,0,0,0,0,0,0,0,0,0,0,0,0,0,0,0,0,0,0,0,0,0,0,0,0,0,0,0],"id":19,"left_children":[1,3,5,7,-1,9,11,13,15,17,-1,19,21,-1,23,-1,25,27,29,31,-1,33,35,-1,37,-1,39,-1,-1,-1,-1,41,43,-1,-1,-1,45,-1,-1,-1,-1,-1,-1,-1,-1,-1,-1],"loss_changes":[3.1243794E0,7.3205256E-1,1.9779745E1,9.526597E-1,0E0,5.6204918E1,5.384058E0,3.7905884E-1,8.640464E-1,6.738305E0,0E0,2.1226904E1,4.8949528E1,0E0,1.1779261E0,0E0,1.2062222E-2,1.2013626E-1,1.6875486E0,4.3356442E0,0E0,3.8705063E-1,2.3603235E1,0E0,7.808387E-2,0E0,3.028037E-2,0E0,0E0,0E0,0E0,3.5005783E1,1.1819649E1,0E0,0E0,0E0,2.3614485E1,0E0,0E0,0E0,0E0,0E0,0E0,0E0,0E0,0E0,0E0],"parents":[2147483647,0,0,1,1,2,2,3,3,5,5,6,6,7,7,8,8,9,9,11,11,12,12,14,14,16,16,17,17,18,18,19,19,21,21,22,22,24,24,26,26,31,31,32,32,36,36],"right_children":[2,4,6,8,-1,10,12,14,16,18,-1,20,22,-1,24,-1,26,28,30,32,-1,34,36,-1,38,-1,40,-1,-1,-1,-1,42,44,-1,-1,-1,46,-1,-1,-1,-1,-1,-1,-1,-1,-1,-1],"split_conditions":[1.8135214E2,1.8017197E2,1.8737627E2,1.41603E2,-1.9755611E-1,1.8677664E2,2.3660278E2,1.1127877E2,1.4390707E2,1.8395424E2,1.8427569E0,2.2717976E2,2.4282884E2,-1.9591162E-1,1.11326935E2,1.4818974E-1,1.6601228E2,1.8248224E2,1.8597818E2,2.2279286E2,-7.448294E-1,2.3912502E2,2.5690793E2,1.0151487E-1,1.1844397E2,-6.008854E-2,1.6918517E2,1.4192867E-1,3.8830942E-1,-2.036982E-1,9.0125844E-2,2.2018195E2,2.2467398E2,7.3407805E-1,2.8230402E-1,-4.8007557E-1,2.5848007E2,-6.0731452E-2,-1.4555004E-1,3.9828303E-3,-3.943248E-2,-5.4715175E-2,9.962349E-1,-4.7603798E-1,2.0403916E-1,8.494884E-1,4.9416865E-3],"split_indices":[0,0,0,0,0,0,0,0,0,0,0,0,0,0,0,0,0,0,0,0,0,0,0,0,0,0,0,0,0,0,0,0,0,0,0,0,0,0,0,0,0,0,0,0,0,0,0],"split_type":[0,0,0,0,0,0,0,0,0,0,0,0,0,0,0,0,0,0,0,0,0,0,0,0,0,0,0,0,0,0,0,0,0,0,0,0,0,0,0,0,0,0,0,0,0,0,0],"sum_hessian":[5.71E2,2.7E1,5.44E2,2.3E1,4E0,1.2E1,5.32E2,1.4E1,9E0,1.1E1,1E0,7E1,4.62E2,3E0,1.1E1,2E0,7E0,5E0,6E0,6.7E1,3E0,9E0,4.53E2,2E0,9E0,2E0,5E0,2E0,3E0,4E0,2E0,5.9E1,8E0,7E0,2E0,8E0,4.45E2,4E0,5E0,2E0,3E0,5.7E1,2E0,5E0,3E0,2E0,4.43E2],"tree_param":{"num_deleted":"0","num_feature":"2","num_nodes":"47","size_leaf_vector":"1"}},{"base_weights":[2.312722E-2,1.0861901E-1,-3.9895907E-2,1.1744971E-2,4.7174745E0,-8.8192415E-1,8.6549055E-3,5.3609893E-2,-7.3836654E-1,2.12966E0,2.2907734E-1,-1.1663022E0,-4.6795696E-1,1.8781501E0,-3.4000214E-2,-6.933848E-3,1.0700641E0,-2.0543219E-1,-4.5326278E-1,4.072834E-1,-3.5504773E-1,1.8992545E-1,7.961034E-1,-1.1560547E0,-7.7929655E-3,-3.7494734E-2,1.7520505E0,-6.0131264E-1,-5.08582E-1,6.5098405E-1,-2.9617133E-2,1.6485285E-3,-1.7293657E-1,1.4527113E0,-2.67654E-1,-5.019787E-1,2.0132238E-1,-7.249504E-2,1.1241168E-2],"categories":[],"categories_nodes":[],"categories_segments":[],"categories_sizes":[],"default_left":[0,0,0,0,0,0,0,0,0,0,0,0,0,0,0,0,0,0,0,0,0,0,0,0,0,0,0,0,0,0,0,0,0,0,0,0,0,0,0],"id":20,"left_children":[1,3,5,7,9,11,13,15,-1,-1,-1,17,19,21,23,25,-1,-1,-1,-1,-1,-1,-1,27,29,31,33,35,-1,-1,37,-1,-1,-1,-1,-1,-1,-1,-1],"loss_changes":[3.0862467E0,1.0843886E2,1.3498416E1,2.4875746E1,4.165808E1,1.5732384E0,2.5023586E1,5.0223473E1,0E0,0E0,0E0,6.246109E-1,1.3363051E1,5.079077E0,9.018621E0,1.2590869E1,0E0,0E0,0E0,0E0,0E0,0E0,0E0,1.0745001E0,1.4370001E1,5.3322263E0,3.7006344E1,7.9425583E0,0E0,0E0,4.262271E0,0E0,0E0,0E0,0E0,0E0,0E0,0E0,0E0],"parents":[2147483647,0,0,1,1,2,2,3,3,4,4,5,5,6,6,7,7,11,11,12,12,13,13,14,14,15,15,23,23,24,24,25,25,26,26,27,27,30,30],"right_children":[2,4,6,8,10,12,14,16,-1,-1,-1,18,20,22,24,26,-1,-1,-1,-1,-1,-1,-1,28,30,32,34,36,-1,-1,38,-1,-1,-1,-1,-1,-1,-1,-1],"split_conditions":[3.6499692E2,3.6363007E2,3.7157727E2,3.6307788E2,3.6457013E2,3.689821E2,3.746102E2,3.6223007E2,-7.3836654E-1,2.12966E0,2.2907734E-1,3.6752606E2,3.6966492E2,3.728161E2,3.7829376E2,1E0,1.0700641E0,-2.0543219E-1,-4.5326278E-1,4.072834E-1,-3.5504773E-1,1.8992545E-1,7.961034E-1,3.7650394E2,3.7930487E2,3.5739493E2,3.487971E2,3.7543298E2,-5.08582E-1,6.5098405E-1,4.4291113E2,1.6485285E-3,-1.7293657E-1,1.4527113E0,-2.67654E-1,-5.019787E-1,2.0132238E-1,-7.249504E-2,1.1241168E-2],"split_indices":[0,0,0,0,0,0,0,0,0,0,0,0,0,0,0,1,0,0,0,0,0,0,0,0,0,0,0,0,0,0,0,0,0,0,0,0,0,0,0],"split_type":[0,0,0,0,0,0,0,0,0,0,0,0,0,0,0,0,0,0,0,0,0,0,0,0,0,0,0,0,0,0,0,0,0,0,0,0,0,0,0],"sum_hessian":[5.71E2,2.42E2,3.29E2,2.38E2,4E0,1.7E1,3.12E2,2.35E2,3E0,2E0,2E0,9E0,8E0,6E0,3.06E2,2.32E2,3E0,5E0,4E0,2E0,6E0,3E0,3E0,6E0,3E2,2.29E2,3E0,4E0,2E0,2E0,2.98E2,2.13E2,1.6E1,1E0,2E0,2E0,2E0,7.1E1,2.27E2],"tree_param":{"num_deleted":"0","num_feature":"2","num_nodes":"39","size_leaf_vector":"1"}},{"base_weights":[2.2944726E-2,-7.101568E-2,7.023463E-2,3.4406822E-2,-1.0327262E0,9.7452706E-1,1.9332057E-2,-5.380921E-2,2.1466763E0,-4.2223755E-1,-1.8926266E-1,-5.3234047E-1,4.3390308E-2,3.2314144E-2,-1.0034742E0,1.4470172E0,1.11312486E-1,1.8787771E-1,-4.4561338E-1,1.2099209E0,1.0924283E-2,-3.8122484E-3,3.3506054E-1,-6.5670586E-1,-6.16817E-1,-4.6422514E-1,5.1988137E-1,-4.8142204E-1,3.745322E-2,1.3929084E-2,-5.585498E-1,-2.6428246E-1,3.60024E-3,7.478316E-1,5.1174466E-3],"categories":[],"categories_nodes":[],"categories_segments":[],"categories_sizes":[],"default_left":[0,0,0,0,0,0,0,0,0,0,0,0,0,0,0,0,0,0,0,0,0,0,0,0,0,0,0,0,0,0,0,0,0,0,0],"id":21,"left_children":[1,3,5,7,9,-1,11,13,15,-1,17,-1,19,21,23,-1,25,-1,-1,-1,27,29,-1,31,-1,-1,-1,-1,33,-1,-1,-1,-1,-1,-1],"loss_changes":[2.5466003E0,1.950163E1,6.157461E1,3.253798E1,5.739006E0,0E0,1.6303537E1,1.3772868E1,3.7599712E1,0E0,8.329302E0,0E0,4.814074E1,6.077318E0,3.7598076E0,0E0,1.6130766E1,0E0,0E0,0E0,1.5918989E1,1.4182542E1,0E0,1.8099465E0,0E0,0E0,0E0,0E0,1.8235357E1,0E0,0E0,0E0,0E0,0E0,0E0],"parents":[2147483647,0,0,1,1,2,2,3,3,4,4,6,6,7,7,8,8,10,10,12,12,13,13,14,14,16,16,20,20,21,21,23,23,28,28],"right_children":[2,4,6,8,10,-1,12,14,16,-1,18,-1,20,22,24,-1,26,-1,-1,-1,28,30,-1,32,-1,-1,-1,-1,34,-1,-1,-1,-1,-1,-1],"split_conditions":[3.470831E2,3.398559E2,3.487971E2,3.2730008E2,3.4624506E2,9.7452706E-1,3.5038306E2,2.9138495E2,3.35088E2,-4.2223755E-1,3.4696387E2,-5.3234047E-1,3.523388E2,2.8899002E2,3.2287787E2,1.4470172E0,3.3577896E2,1.8787771E-1,-4.4561338E-1,1.2099209E0,3.5310388E2,2.8490497E2,3.3506054E-1,3.095119E2,-6.16817E-1,-4.6422514E-1,5.1988137E-1,-4.8142204E-1,3.5381506E2,1.3929084E-2,-5.585498E-1,-2.6428246E-1,3.60024E-3,7.478316E-1,5.1174466E-3],"split_indices":[0,0,0,0,0,0,0,0,0,0,0,0,0,0,0,0,0,0,0,0,0,0,0,0,0,0,0,0,0,0,0,0,0,0,0],"split_type":[0,0,0,0,0,0,0,0,0,0,0,0,0,0,0,0,0,0,0,0,0,0,0,0,0,0,0,0,0,0,0,0,0,0,0],"sum_hessian":[5.71E2,1.91E2,3.8E2,1.73E2,1.8E1,5E0,3.75E2,1.67E2,6E0,1.2E1,6E0,4E0,3.71E2,1.54E2,1.3E1,2E0,4E0,4E0,2E0,2E0,3.69E2,1.5E2,4E0,1.1E1,2E0,2E0,2E0,5E0,3.64E2,1.47E2,3E0,8E0,3E0,2E0,3.62E2],"tree_param":{"num_deleted":"0","num_feature":"2","num_nodes":"35","size_leaf_vector":"1"}},{"base_weights":[1.8962095E-2,5.6753978E-2,-9.481044E-2,2.509247E-2,6.159341E-1,-2.742322E-1,-5.8501802E-2,6.540406E-2,-3.4740925E-1,6.71509E-1,3.548283E-1,7.0866233E-1,-9.874155E-2,2.7092615E-2,6.128348E-1,-8.2700324E-1,-1.1233314E-1,1.5700938E-1,4.468216E-1,1.2737683E0,-4.0229604E-1,-5.3749335E-1,-1.5593976E-2,5.0974954E-2,-8.5673386E-1,-1.4350384E-1,-9.851207E-1,4.7282296E-1,-3.0282915E-1,6.134982E-1,-5.4735005E-1,2.0483345E-1,4.9114972E-1,-1.9331427E-1,-7.7951807E-1,7.49268E-1,-8.970102E-2,7.1572657E-3,9.8370975E-1,-3.3550116E-1,-1.1709428E-1,-3.3446535E-1,-1.691787E-2,-1.2138415E-1,2.572746E-1,-5.900829E-2,-2.546497E-1,-2.0666395E-1,2.1667619E-1,-4.1650474E-1,-1.7938688E-1,-5.643125E-2,5.172783E-1,-1.3470401E-1,6.870178E-4],"categories":[],"categories_nodes":[],"categories_segments":[],"categories_sizes":[],"default_left":[0,0,0,0,0,0,0,0,0,0,0,0,0,0,0,0,0,0,0,0,0,0,0,0,0,0,0,0,0,0,0,0,0,0,0,0,0,0,0,0,0,0,0,0,0,0,0,0,0,0,0,0,0,0,0],"id":22,"left_children":[1,3,5,7,9,-1,11,13,15,-1,17,19,21,23,-1,25,27,29,-1,31,-1,33,35,37,-1,-1,39,-1,41,43,45,-1,-1,47,49,51,53,-1,-1,-1,-1,-1,-1,-1,-1,-1,-1,-1,-1,-1,-1,-1,-1,-1,-1],"loss_changes":[2.464797E0,7.5974746E0,4.2004232E0,6.149306E0,8.949156E0,0E0,4.330102E0,2.7898703E1,4.4167447E0,0E0,4.4794064E0,9.815989E0,4.80713E0,2.5138025E1,0E0,2.4544525E-1,9.483068E0,6.44491E0,0E0,1.7076492E-1,0E0,1.5986047E0,6.4155564E0,3.1522459E1,0E0,0E0,1.9740105E-1,0E0,5.140245E0,3.3290448E0,6.787715E-1,0E0,0E0,5.034786E0,4.9631405E-1,9.463654E0,3.4055417E0,0E0,0E0,0E0,0E0,0E0,0E0,0E0,0E0,0E0,0E0,0E0,0E0,0E0,0E0,0E0,0E0,0E0,0E0],"parents":[2147483647,0,0,1,1,2,2,3,3,4,4,6,6,7,7,8,8,10,10,11,11,12,12,13,13,15,15,16,16,17,17,19,19,21,21,22,22,23,23,26,26,28,28,29,29,30,30,33,33,34,34,35,35,36,36],"right_children":[2,4,6,8,10,-1,12,14,16,-1,18,20,22,24,-1,26,28,30,-1,32,-1,34,36,38,-1,-1,40,-1,42,44,46,-1,-1,48,50,52,54,-1,-1,-1,-1,-1,-1,-1,-1,-1,-1,-1,-1,-1,-1,-1,-1,-1,-1],"split_conditions":[1.2441351E3,1.1748092E3,1.2480278E3,5.38476E2,1.1784971E3,-2.742322E-1,1.2618918E3,4.928949E2,9.14942E2,6.71509E-1,1.241386E3,1E0,1.3147471E3,4.8903705E2,6.128348E-1,6.3132404E2,9.484849E2,1.1916151E3,4.468216E-1,1.251325E3,-4.0229604E-1,1.2856271E3,1.3237582E3,4.7929596E2,-8.5673386E-1,-1.4350384E-1,8.915289E2,4.7282296E-1,1.1027081E3,1.183017E3,1.21537E3,2.0483345E-1,4.9114972E-1,1.2674298E3,1.2905571E3,1.318265E3,1.377739E3,7.1572657E-3,9.8370975E-1,-3.3550116E-1,-1.1709428E-1,-3.3446535E-1,-1.691787E-2,-1.2138415E-1,2.572746E-1,-5.900829E-2,-2.546497E-1,-2.0666395E-1,2.1667619E-1,-4.1650474E-1,-1.7938688E-1,-5.643125E-2,5.172783E-1,-1.3470401E-1,6.870178E-4],"split_indices":[0,0,0,0,0,0,0,0,0,0,0,1,0,0,0,0,0,0,0,0,0,0,0,0,0,0,0,0,0,0,0,0,0,0,0,0,0,0,0,0,0,0,0,0,0,0,0,0,0,0,0,0,0,0,0],"split_type":[0,0,0,0,0,0,0,0,0,0,0,0,0,0,0,0,0,0,0,0,0,0,0,0,0,0,0,0,0,0,0,0,0,0,0,0,0,0,0,0,0,0,0,0,0,0,0,0,0,0,0,0,0,0,0],"sum_hessian":[5.71E2,4.29E2,1.42E2,4.07E2,2.2E1,5E0,1.37E2,3.68E2,3.9E1,2E0,2E1,6E0,1.31E2,3.62E2,6E0,1.2E1,2.7E1,1.8E1,2E0,5E0,1E0,2E1,1.11E2,3.6E2,2E0,5E0,7E0,2E0,2.5E1,1.1E1,7E0,3E0,2E0,9E0,1.1E1,9E0,1.02E2,3.58E2,2E0,5E0,2E0,5E0,2E1,2E0,9E0,4E0,3E0,6E0,3E0,1E0,1E1,5E0,4E0,2E1,8.2E1],"tree_param":{"num_deleted":"0","num_feature":"2","num_nodes":"55","size_leaf_vector":"1"}},{"base_weights":[1.4975054E-2,-2.482801E-1,2.8472612E-2,-1.8160519E-1,-1.5559909E-1,1.0352502E0,3.863641E-3,-3.322168E-1,-3.3088524E-3,2.5322476E-1,1.5629334E0,-1.9450493E-1,3.4274668E-2,-2.1861823E-1,-1.5994771E-1,1.9515152E-1,-1.2693298E-1,8.3904696E-1,-2.850835E-1,-7.3027976E-2,-5.3501856E-1,4.9472174E-1,-1.369062E-3,-1.5694684E-1,-1.3365405E-2,-1.6428947E-2,1.1400472E-1,-5.2618027E-2,-8.154726E-2,1.08995825E-1,2.958243E-1,-5.342239E-1,6.755353E-2,-2.4203978E-1,3.0871406E-1,-8.994492E-1,3.3491056E-2,7.666479E-2,-5.1612344E-2,-1.360798E-3,-3.567567E-2,-2.0215951E-1,-6.495247E-2,-3.8206514E-2,-1.697772E-1,8.6328286E-1,-3.3944737E-2,-1.08902976E-1,-4.841798E-1,3.410845E-1,2.307412E-3],"categories":[],"categories_nodes":[],"categories_segments":[],"categories_sizes":[],"default_left":[0,0,0,0,0,0,0,0,0,0,0,0,0,0,0,0,0,0,0,0,0,0,0,0,0,0,0,0,0,0,0,0,0,0,0,0,0,0,0,0,0,0,0,0,0,0,0,0,0,0,0],"id":23,"left_children":[1,3,5,7,-1,9,11,13,15,17,-1,19,21,23,-1,25,27,29,31,33,-1,-1,35,-1,37,-1,-1,-1,39,-1,-1,41,-1,43,45,47,49,-1,-1,-1,-1,-1,-1,-1,-1,-1,-1,-1,-1,-1,-1],"loss_changes":[2.0395577E0,4.1058624E-1,1.349879E1,6.4338464E-1,0E0,4.1120384E1,3.2220378E0,1.8018949E-1,3.1918508E-1,4.023433E0,0E0,1.3573724E1,2.665134E1,6.180804E-1,0E0,2.5181222E-1,3.2924414E-3,6.1426163E-2,1.0101838E0,4.3974886E0,0E0,0E0,1.4243584E1,0E0,3.426566E-1,0E0,0E0,0E0,1.6728807E-2,0E0,0E0,7.5933576E-2,0E0,1.6737218E0,2.308377E1,5.9298363E0,1.2460611E1,0E0,0E0,0E0,0E0,0E0,0E0,0E0,0E0,0E0,0E0,0E0,0E0,0E0,0E0],"parents":[2147483647,0,0,1,1,2,2,3,3,5,5,6,6,7,7,8,8,9,9,11,11,12,12,13,13,15,15,16,16,17,17,18,18,19,19,22,22,24,24,28,28,31,31,33,33,34,34,35,35,36,36],"right_children":[2,4,6,8,-1,10,12,14,16,18,-1,20,22,24,-1,26,28,30,32,34,-1,-1,36,-1,38,-1,-1,-1,40,-1,-1,42,-1,44,46,48,50,-1,-1,-1,-1,-1,-1,-1,-1,-1,-1,-1,-1,-1,-1],"split_conditions":[1.8135214E2,1.8017197E2,1.8737627E2,1.22196915E2,-1.5559909E-1,1.8677664E2,2.3660278E2,1.1844397E2,1.4390707E2,1.8395424E2,1.5629334E0,2.2701907E2,2.4282884E2,1.1127877E2,-1.5994771E-1,1.41603E2,1.6601228E2,1.8248224E2,1.8597818E2,2.1479916E2,-5.3501856E-1,4.9472174E-1,2.624011E2,-1.5694684E-1,1.11326935E2,-1.6428947E-2,1.1400472E-1,-5.2618027E-2,1.6918517E2,1.08995825E-1,2.958243E-1,1.8469476E2,6.755353E-2,2.0658017E2,2.1559096E2,2.5848007E2,2.7864505E2,7.666479E-2,-5.1612344E-2,-1.360798E-3,-3.567567E-2,-2.0215951E-1,-6.495247E-2,-3.8206514E-2,-1.697772E-1,8.6328286E-1,-3.3944737E-2,-1.08902976E-1,-4.841798E-1,3.410845E-1,2.307412E-3],"split_indices":[0,0,0,0,0,0,0,0,0,0,0,0,0,0,0,0,0,0,0,0,0,0,0,0,0,0,0,0,0,0,0,0,0,0,0,0,0,0,0,0,0,0,0,0,0,0,0,0,0,0,0],"split_type":[0,0,0,0,0,0,0,0,0,0,0,0,0,0,0,0,0,0,0,0,0,0,0,0,0,0,0,0,0,0,0,0,0,0,0,0,0,0,0,0,0,0,0,0,0,0,0,0,0,0,0],"sum_hessian":[5.71E2,2.7E1,5.44E2,2.3E1,4E0,1.2E1,5.32E2,1.2E1,1.1E1,1.1E1,1E0,7E1,4.62E2,9E0,3E0,4E0,7E0,5E0,6E0,6.6E1,4E0,9E0,4.53E2,3E0,6E0,2E0,2E0,2E0,5E0,2E0,3E0,4E0,2E0,4.6E1,2E1,1.6E1,4.37E2,2E0,4E0,2E0,3E0,2E0,2E0,3.5E1,1.1E1,2E0,1.8E1,1E1,6E0,9E0,4.28E2],"tree_param":{"num_deleted":"0","num_feature":"2","num_nodes":"51","size_leaf_vector":"1"}},{"base_weights":[1.3384866E-2,3.6641408E-2,-1.3221155E-1,1.6574137E-2,9.946381E-1,-9.273206E-1,-3.5389333E-3,2.8166221E-2,-4.4945636E-1,-3.377517E-1,-5.7424885E-1,4.8523086E-1,-1.0172623E-1,-5.837901E-2,8.536801E-2,-6.094009E-1,2.3351097E-1,-1.7204551E-1,-3.8778988E-1,-5.688877E-1,-8.145826E-3,1.9407006E-2,-7.676625E-1,2.428431E0,3.5740826E-2,-2.451336E-1,4.4288635E-2,-3.5003185E-2,1.4008313E-1,-1.3827477E-1,5.225201E-2,-2.7296054E-1,-3.0555606E-1,6.187618E-1,-1.4135711E-1,-1.5335327E-2,5.127686E-1,-3.0793113E-1,-5.322459E-2,4.3935284E-1,1.0872059E0,-4.0685028E-1,1.8114207E-2,-2.1508318E-1,2.1179791E-1,1.2090731E-2,8.737344E-1,-9.335142E-2,7.249744E-2],"categories":[],"categories_nodes":[],"categories_segments":[],"categories_sizes":[],"default_left":[0,0,0,0,0,0,0,0,0,0,0,0,0,0,0,0,0,0,0,0,0,0,0,0,0,0,0,0,0,0,0,0,0,0,0,0,0,0,0,0,0,0,0,0,0,0,0,0,0],"id":24,"left_children":[1,3,5,7,-1,9,11,13,15,-1,17,-1,19,21,23,25,27,29,-1,31,33,35,37,39,41,-1,-1,-1,-1,-1,-1,43,-1,45,47,-1,-1,-1,-1,-1,-1,-1,-1,-1,-1,-1,-1,-1,-1],"loss_changes":[1.9416763E0,3.2448742E1,8.079111E0,2.6705737E0,0E0,1.2449169E-1,1.1146518E1,2.3861942E0,1.4531448E0,0E0,1.511227E0,0E0,2.8806984E0,1.0607987E1,3.3634293E1,1.6930637E0,2.99718E-1,5.803411E-1,0E0,1.185627E0,4.7640915E0,2.0823694E1,2.7199707E0,1.6073112E0,9.856369E0,0E0,0E0,0E0,0E0,0E0,0E0,3.9832697E0,0E0,1.3150663E1,3.1321454E0,0E0,0E0,0E0,0E0,0E0,0E0,0E0,0E0,0E0,0E0,0E0,0E0,0E0,0E0],"parents":[2147483647,0,0,1,1,2,2,3,3,5,5,6,6,7,7,8,8,10,10,12,12,13,13,14,14,15,15,16,16,17,17,19,19,20,20,21,21,22,22,23,23,24,24,31,31,33,33,34,34],"right_children":[2,4,6,8,-1,10,12,14,16,-1,18,-1,20,22,24,26,28,30,-1,32,34,36,38,40,42,-1,-1,-1,-1,-1,-1,44,-1,46,48,-1,-1,-1,-1,-1,-1,-1,-1,-1,-1,-1,-1,-1,-1],"split_conditions":[1.3899441E3,1.3835063E3,1.4183588E3,1.355457E3,9.946381E-1,1.4110172E3,1.4190609E3,3.470831E2,1E0,-3.377517E-1,1.4152612E3,4.8523086E-1,1.4363348E3,3.398559E2,3.487971E2,1.377739E3,1.3649628E3,1.4120509E3,-3.8778988E-1,1.433039E3,1.462163E3,3.2730008E2,3.4624506E2,1E0,3.5038306E2,-2.451336E-1,4.4288635E-2,-3.5003185E-2,1.4008313E-1,-1.3827477E-1,5.225201E-2,1.4238759E3,-3.0555606E-1,1.461845E3,1.6313219E3,-1.5335327E-2,5.127686E-1,-3.0793113E-1,-5.322459E-2,4.3935284E-1,1.0872059E0,-4.0685028E-1,1.8114207E-2,-2.1508318E-1,2.1179791E-1,1.2090731E-2,8.737344E-1,-9.335142E-2,7.249744E-2],"split_indices":[0,0,0,0,0,0,0,0,1,0,0,0,0,0,0,0,0,0,0,0,0,0,0,1,0,0,0,0,0,0,0,0,0,0,0,0,0,0,0,0,0,0,0,0,0,0,0,0,0],"split_type":[0,0,0,0,0,0,0,0,0,0,0,0,0,0,0,0,0,0,0,0,0,0,0,0,0,0,0,0,0,0,0,0,0,0,0,0,0,0,0,0,0,0,0,0,0,0,0,0,0],"sum_hessian":[5.71E2,4.93E2,7.8E1,4.91E2,2E0,1E1,6.8E1,4.8E2,1.1E1,5E0,5E0,3E0,6.5E1,1.91E2,2.89E2,9E0,2E0,4E0,1E0,1E1,5.5E1,1.73E2,1.8E1,5E0,2.84E2,7E0,2E0,1E0,1E0,2E0,2E0,7E0,3E0,9E0,4.6E1,1.67E2,6E0,1.2E1,6E0,4E0,1E0,4E0,2.8E2,5E0,2E0,8E0,1E0,3.2E1,1.4E1],"tree_param":{"num_deleted":"0","num_feature":"2","num_nodes":"49","size_leaf_vector":"1"}},{"base_weights":[1.3570003E-2,8.734193E-2,-4.079408E-2,1.0397367E-2,3.7478232E0,-6.819185E-1,-3.79397E-3,4.327477E-2,-5.795907E-1,1.6971891E0,1.7672274E-1,-9.117075E-1,-3.508286E-1,1.427539E0,-3.6417868E-2,-3.2033501E-3,8.2194203E-1,-5.408271E-1,-3.5232675E-1,3.1928748E-1,-2.721571E-1,1.398355E-1,6.096225E-1,-9.5286864E-1,-1.498407E-2,4.193552E-2,-5.1381665E-1,-2.0939226E-1,-8.632801E-2,-5.0720674E-1,-4.134047E-1,5.1424813E-1,-3.228323E-2,4.002764E-3,9.241248E-1,-1.1776172E-1,-2.6114193E-1,-4.081221E-1,1.5451871E-1,-6.0720976E-2,6.4741434E-3],"categories":[],"categories_nodes":[],"categories_segments":[],"categories_sizes":[],"default_left":[0,0,0,0,0,0,0,0,0,0,0,0,0,0,0,0,0,0,0,0,0,0,0,0,0,0,0,0,0,0,0,0,0,0,0,0,0,0,0,0,0],"id":25,"left_children":[1,3,5,7,9,11,13,15,-1,-1,-1,17,19,21,23,25,-1,27,-1,-1,-1,-1,-1,29,31,33,35,-1,-1,37,-1,-1,39,-1,-1,-1,-1,-1,-1,-1,-1],"loss_changes":[2.2975934E0,6.8402985E1,7.825564E0,1.5346135E1,2.682515E1,1.0496016E0,1.466773E1,2.9586594E1,0E0,0E0,0E0,3.3920002E-1,8.051384E0,3.1213055E0,6.0161295E0,5.39185E0,0E0,3.7763357E-2,0E0,0E0,0E0,0E0,0E0,6.2736464E-1,9.059074E0,1.8637924E1,4.8013926E-1,0E0,0E0,5.061695E0,0E0,0E0,2.744193E0,0E0,0E0,0E0,0E0,0E0,0E0,0E0,0E0],"parents":[2147483647,0,0,1,1,2,2,3,3,4,4,5,5,6,6,7,7,11,11,12,12,13,13,14,14,15,15,17,17,23,23,24,24,25,25,26,26,29,29,32,32],"right_children":[2,4,6,8,10,12,14,16,-1,-1,-1,18,20,22,24,26,-1,28,-1,-1,-1,-1,-1,30,32,34,36,-1,-1,38,-1,-1,40,-1,-1,-1,-1,-1,-1,-1,-1],"split_conditions":[3.6499692E2,3.6363007E2,3.7157727E2,3.6307788E2,3.6457013E2,3.689821E2,3.746102E2,3.6223007E2,-5.795907E-1,1.6971891E0,1.7672274E-1,3.6752606E2,3.6966492E2,3.728161E2,3.7829376E2,3.5739493E2,8.2194203E-1,3.664739E2,-3.5232675E-1,3.1928748E-1,-2.721571E-1,1.398355E-1,6.096225E-1,3.7650394E2,3.7930487E2,1E0,3.6206387E2,-2.0939226E-1,-8.632801E-2,3.7543298E2,-4.134047E-1,5.1424813E-1,4.4291113E2,4.002764E-3,9.241248E-1,-1.1776172E-1,-2.6114193E-1,-4.081221E-1,1.5451871E-1,-6.0720976E-2,6.4741434E-3],"split_indices":[0,0,0,0,0,0,0,0,0,0,0,0,0,0,0,0,0,0,0,0,0,0,0,0,0,1,0,0,0,0,0,0,0,0,0,0,0,0,0,0,0],"split_type":[0,0,0,0,0,0,0,0,0,0,0,0,0,0,0,0,0,0,0,0,0,0,0,0,0,0,0,0,0,0,0,0,0,0,0,0,0,0,0,0,0],"sum_hessian":[5.71E2,2.42E2,3.29E2,2.38E2,4E0,1.7E1,3.12E2,2.35E2,3E0,2E0,2E0,9E0,8E0,6E0,3.06E2,2.32E2,3E0,5E0,4E0,2E0,6E0,3E0,3E0,6E0,3E2,2.14E2,1.8E1,2E0,3E0,4E0,2E0,2E0,2.98E2,2.13E2,1E0,1.5E1,3E0,2E0,2E0,7.1E1,2.27E2],"tree_param":{"num_deleted":"0","num_feature":"2","num_nodes":"41","size_leaf_vector":"1"}},{"base_weights":[1.4056861E-2,6.1857317E-2,-5.9936985E-2,1.330379E-2,1.2702404E0,-5.7570356E-1,-1.7605266E-2,5.0083324E-2,-2.3300608E-1,4.843879E-1,-3.988421E-2,-4.4137407E-2,2.1408603E-1,-1.7467405E-1,-1.9941826E-1,-5.056826E-1,6.4439694E-3,2.2520157E-2,-5.349047E-1,6.59395E-1,1.3792084E-1,-4.1015738E-1,-2.304299E-2,7.815886E-1,-3.0362623E-2,-1.19557865E-2,1.0523667E0,-4.7662726E-1,-1.076648E-1,1.0533582E-1,-1.2443998E-2,-1.7736183E-1,-9.01622E-2,4.6080563E-2,-7.2578646E-2,-6.907661E-1,6.725499E-4],"categories":[],"categories_nodes":[],"categories_segments":[],"categories_sizes":[],"default_left":[0,0,0,0,0,0,0,0,0,0,0,0,0,0,0,0,0,0,0,0,0,0,0,0,0,0,0,0,0,0,0,0,0,0,0,0,0],"id":26,"left_children":[1,3,5,7,-1,-1,9,11,13,-1,15,17,19,21,-1,-1,23,25,27,-1,29,31,33,-1,35,-1,-1,-1,-1,-1,-1,-1,-1,-1,-1,-1,-1],"loss_changes":[2.026837E0,7.0441086E1,1.7673227E1,3.1370807E0,0E0,0E0,8.10093E0,4.6606383E0,1.0171328E0,0E0,1.6708172E1,6.29301E0,1.6318283E1,1.4545187E0,0E0,0E0,2.0549242E1,3.709646E1,3.696353E0,0E0,4.1071005E0,1.3985395E-1,1.0424521E0,0E0,1.5710875E1,0E0,0E0,0E0,0E0,0E0,0E0,0E0,0E0,0E0,0E0,0E0,0E0],"parents":[2147483647,0,0,1,1,2,2,3,3,6,6,7,7,8,8,10,10,11,11,12,12,13,13,16,16,17,17,18,18,20,20,21,21,22,22,24,24],"right_children":[2,4,6,8,-1,-1,10,12,14,-1,16,18,20,22,-1,-1,24,26,28,-1,30,32,34,-1,36,-1,-1,-1,-1,-1,-1,-1,-1,-1,-1,-1,-1],"split_conditions":[4.4646597E2,4.4291113E2,4.6332718E2,4.1476416E2,1.2702404E0,-5.7570356E-1,4.6436404E2,3.470831E2,4.4203424E2,4.843879E-1,4.7929596E2,3.35088E2,3.48449E2,4.241588E2,-1.9941826E-1,-5.056826E-1,4.8903705E2,3.2730008E2,3.3577896E2,6.59395E-1,3.6499692E2,4.1646002E2,4.3272495E2,7.815886E-1,4.928949E2,-1.19557865E-2,1.0523667E0,-4.7662726E-1,-1.076648E-1,1.0533582E-1,-1.2443998E-2,-1.7736183E-1,-9.01622E-2,4.6080563E-2,-7.2578646E-2,-6.907661E-1,6.725499E-4],"split_indices":[0,0,0,0,0,0,0,0,0,0,0,0,0,0,0,0,0,0,0,0,0,0,0,0,0,0,0,0,0,0,0,0,0,0,0,0,0],"split_type":[0,0,0,0,0,0,0,0,0,0,0,0,0,0,0,0,0,0,0,0,0,0,0,0,0,0,0,0,0,0,0,0,0,0,0,0,0],"sum_hessian":[5.71E2,3.47E2,2.24E2,3.44E2,3E0,4E0,2.2E2,3E2,4.4E1,2E0,2.18E2,1.91E2,1.09E2,4E1,4E0,5E0,2.13E2,1.69E2,2.2E1,3E0,1.06E2,1.5E1,2.5E1,2E0,2.11E2,1.67E2,2E0,2E0,2E1,4.8E1,5.8E1,4E0,1.1E1,1.4E1,1.1E1,2E0,2.09E2],"tree_param":{"num_deleted":"0","num_feature":"2","num_nodes":"37","size_leaf_vector":"1"}},{"base_weights":[1.2426743E-2,1.9329126E-1,-2.6403E-3,-5.3551238E-2,1.7655524E0,-6.2129265E-1,1.1696512E-2,-1.670364E-1,2.1571009E-1,1.3319864E0,1.0280428E-1,-1.352005E-1,-3.2545543E-1,4.529237E-1,1.2301952E-3,-1.1663545E-1,-1.12666115E-1,2.0226274E-1,-2.0810482E-1,-4.7691783E-1,1.4381857E-1,-1.1034025E-1,1.0345777E0,-4.8957205E-1,1.3101962E-2,-2.3350403E-1,1.9691786E-2,-4.0874785E-1,5.870056E-2,-1.9992447E-2,-2.1846649E-1,2.1914937E-1,-2.77078E-1,3.8832417E-1,1.029811E-1,-2.1254396E-1,-3.749425E-1,3.7289077E-1,-4.3837847E-3,-4.357878E-2,-1.1871947E-1,5.2425556E-2,-2.390467E-2,-1.5706979E-1,-4.7304157E-2,-1.9958314E-1,6.0047295E-2,7.680171E-3,8.038876E-1,-2.5862405E-1,5.356618E-3],"categories":[],"categories_nodes":[],"categories_segments":[],"categories_sizes":[],"default_left":[0,0,0,0,0,0,0,0,0,0,0,0,0,0,0,0,0,0,0,0,0,0,0,0,0,0,0,0,0,0,0,0,0,0,0,0,0,0,0,0,0,0,0,0,0,0,0,0,0,0,0],"id":27,"left_children":[1,3,5,7,9,11,13,15,17,-1,-1,19,-1,21,23,25,-1,-1,27,29,-1,31,33,35,37,39,41,43,-1,-1,-1,-1,-1,-1,-1,45,-1,47,49,-1,-1,-1,-1,-1,-1,-1,-1,-1,-1,-1,-1],"loss_changes":[1.559264E0,1.7170984E1,4.6992335E0,1.2277608E0,2.1310495E1,2.5573144E0,2.391579E0,2.504624E-1,2.4721308E0,0E0,0E0,1.6987581E0,0E0,4.045652E0,2.9605463E0,3.86975E-1,0E0,0E0,6.470792E-1,4.6699023E-1,0E0,5.461382E0,6.334262E-1,2.2616422E0,3.122058E0,1.286124E-1,1.9883192E-1,6.1579227E-2,0E0,0E0,0E0,0E0,0E0,0E0,0E0,2.0015974E0,0E0,1.8356844E1,9.056687E0,0E0,0E0,0E0,0E0,0E0,0E0,0E0,0E0,0E0,0E0,0E0,0E0],"parents":[2147483647,0,0,1,1,2,2,3,3,4,4,5,5,6,6,7,7,8,8,11,11,13,13,14,14,15,15,18,18,19,19,21,21,22,22,23,23,24,24,25,25,26,26,27,27,35,35,37,37,38,38],"right_children":[2,4,6,8,10,12,14,16,18,-1,-1,20,-1,22,24,26,-1,-1,28,30,-1,32,34,36,38,40,42,44,-1,-1,-1,-1,-1,-1,-1,46,-1,48,50,-1,-1,-1,-1,-1,-1,-1,-1,-1,-1,-1,-1],"split_conditions":[1.8939304E2,1.8677664E2,1.9601988E2,1.8135214E2,1.8737627E2,1.9437384E2,2.0046591E2,1.8017197E2,1.8395424E2,1.3319864E0,1.0280428E-1,1.9170927E2,-3.2545543E-1,1.973462E2,2.0749902E2,1.22196915E2,-1.12666115E-1,2.0226274E-1,1.8597818E2,1.9119215E2,1.4381857E-1,1.9682812E2,1.9782614E2,2.0658017E2,2.2279286E2,1.1844397E2,1.4390707E2,1.8469476E2,5.870056E-2,-1.9992447E-2,-2.1846649E-1,2.1914937E-1,-2.77078E-1,3.8832417E-1,1.029811E-1,2.0498895E2,-3.749425E-1,2.2018195E2,2.3660278E2,-4.357878E-2,-1.1871947E-1,5.2425556E-2,-2.390467E-2,-1.5706979E-1,-4.7304157E-2,-1.9958314E-1,6.0047295E-2,7.680171E-3,8.038876E-1,-2.5862405E-1,5.356618E-3],"split_indices":[0,0,0,0,0,0,0,0,0,0,0,0,0,0,0,0,0,0,0,0,0,0,0,0,0,0,0,0,0,0,0,0,0,0,0,0,0,0,0,0,0,0,0,0,0,0,0,0,0,0,0],"split_type":[0,0,0,0,0,0,0,0,0,0,0,0,0,0,0,0,0,0,0,0,0,0,0,0,0,0,0,0,0,0,0,0,0,0,0,0,0,0,0,0,0,0,0,0,0,0,0,0,0,0,0],"sum_hessian":[5.71E2,4.3E1,5.28E2,3.8E1,5E0,1.1E1,5.17E2,2.7E1,1.1E1,1E0,4E0,6E0,5E0,1.1E1,5.06E2,2.3E1,4E0,5E0,6E0,4E0,2E0,6E0,5E0,1.1E1,4.95E2,1.2E1,1.1E1,4E0,2E0,2E0,2E0,3E0,3E0,3E0,2E0,9E0,2E0,2.2E1,4.73E2,9E0,3E0,4E0,7E0,2E0,2E0,4E0,5E0,2E1,2E0,1.1E1,4.62E2],"tree_param":{"num_deleted":"0","num_feature":"2","num_nodes":"51","size_leaf_vector":"1"}},{"base_weights":[1.0974981E-2,4.7403578E-2,-5.497172E-2,1.9468298E-2,4.4678262E-1,-6.5514815E-1,-1.4048464E-2,3.4913667E-2,-5.5368423E-1,-1.15858965E-1,-7.749683E-1,3.716734E-1,-3.37581E-2,1.7721001E-2,6.241995E-1,-2.5985715E-1,-1.0026041E-1,-2.5908026E-1,-6.661806E-3,5.00665E-2,-9.217753E-1,5.864986E-1,-4.973855E-2,3.7507776E-3,9.832312E-1,-4.3882027E-1,-1.4053622E-1,-1.5540618E-1,4.944624E-4],"categories":[],"categories_nodes":[],"categories_segments":[],"categories_sizes":[],"default_left":[0,0,0,0,0,0,0,0,0,0,0,0,0,0,0,0,0,0,0,0,0,0,0,0,0,0,0,0,0],"id":28,"left_children":[1,3,5,7,-1,9,11,13,-1,-1,15,-1,17,19,-1,-1,-1,-1,21,23,25,-1,27,-1,-1,-1,-1,-1,-1],"loss_changes":[1.3767476E0,1.483399E1,5.0012755E0,1.05213375E1,0E0,1.19645596E-1,4.783336E0,1.26601925E1,0E0,0E0,3.2179356E-2,0E0,4.266523E0,1.0955613E1,0E0,0E0,0E0,0E0,1.5730072E1,4.214799E1,2.257514E0,0E0,4.3804092E0,0E0,0E0,0E0,0E0,0E0,0E0],"parents":[2147483647,0,0,1,1,2,2,3,3,5,5,6,6,7,7,10,10,12,12,13,13,18,18,19,19,20,20,22,22],"right_children":[2,4,6,8,-1,10,12,14,-1,-1,16,-1,18,20,-1,-1,-1,-1,22,24,26,-1,28,-1,-1,-1,-1,-1,-1],"split_conditions":[5.38476E2,4.928949E2,9.14942E2,4.8903705E2,4.4678262E-1,6.3132404E2,9.484849E2,4.7929596E2,-5.5368423E-1,-1.15858965E-1,8.915289E2,3.716734E-1,1.1027081E3,4.4646597E2,6.241995E-1,-2.5985715E-1,-1.0026041E-1,-2.5908026E-1,1.1347361E3,4.4291113E2,4.6332718E2,5.864986E-1,1.1748092E3,3.7507776E-3,9.832312E-1,-4.3882027E-1,-1.4053622E-1,-1.5540618E-1,4.944624E-4],"split_indices":[0,0,0,0,0,0,0,0,0,0,0,0,0,0,0,0,0,0,0,0,0,0,0,0,0,0,0,0,0],"split_type":[0,0,0,0,0,0,0,0,0,0,0,0,0,0,0,0,0,0,0,0,0,0,0,0,0,0,0,0,0],"sum_hessian":[5.71E2,3.68E2,2.03E2,3.62E2,6E0,1.2E1,1.91E2,3.6E2,2E0,5E0,7E0,2E0,1.89E2,3.58E2,2E0,5E0,2E0,5E0,1.84E2,3.47E2,1.1E1,3E0,1.81E2,3.44E2,3E0,4E0,7E0,1.7E1,1.64E2],"tree_param":{"num_deleted":"0","num_feature":"2","num_nodes":"29","size_leaf_vector":"1"}},{"base_weights":[9.418825E-3,1.0287803E-1,-1.5098937E-2,6.9633615E-4,1.2165887E0,-3.2529575E-1,6.5111094E-3,5.048441E-2,-3.9939263E-1,4.0927473E-1,1.251896E-1,6.996604E-1,-9.217679E-3,1.8502312E-2,8.693979E-1,-6.1173046E-1,9.214867E-3,7.883804E-2,-4.5288017E-1,3.8166088E-1,-5.085254E-2,6.366457E-1,-9.819668E-3,-2.3885183E-3,3.736717E-1,-8.215284E-2,8.261117E-1,-5.435553E-1,8.591909E-4],"categories":[],"categories_nodes":[],"categories_segments":[],"categories_sizes":[],"default_left":[0,0,0,0,0,0,0,0,0,0,0,0,0,0,0,0,0,0,0,0,0,0,0,0,0,0,0,0,0],"id":29,"left_children":[1,3,5,7,9,-1,11,13,-1,-1,-1,-1,15,17,19,-1,21,23,-1,-1,-1,25,27,-1,-1,-1,-1,-1,-1],"loss_changes":[1.31224E0,1.3541453E1,1.0497136E1,7.3621864E0,6.1093426E-1,0E0,1.6336308E1,2.7863054E0,0E0,0E0,0E0,0E0,1.6631458E1,9.707731E0,1.889555E0,0E0,5.27305E0,1.0238416E1,0E0,0E0,0E0,2.5812344E1,9.810547E0,0E0,0E0,0E0,0E0,0E0,0E0],"parents":[2147483647,0,0,1,1,2,2,3,3,4,4,6,6,7,7,12,12,13,13,14,14,16,16,17,17,21,21,22,22],"right_children":[2,4,6,8,10,-1,12,14,-1,-1,-1,-1,16,18,20,-1,22,24,-1,-1,-1,26,28,-1,-1,-1,-1,-1,-1],"split_conditions":[2.4282884E2,2.3660278E2,2.5690793E2,2.2717976E2,2.3912502E2,-3.2529575E-1,2.5848007E2,2.2467398E2,-3.9939263E-1,4.0927473E-1,1.251896E-1,6.996604E-1,2.5904727E2,2.23305E2,2.2701907E2,-6.1173046E-1,2.7864505E2,2.1919585E2,-4.5288017E-1,3.8166088E-1,-5.085254E-2,2.7524185E2,2.8034567E2,-2.3885183E-3,3.736717E-1,-8.215284E-2,8.261117E-1,-5.435553E-1,8.591909E-4],"split_indices":[0,0,0,0,0,0,0,0,0,0,0,0,0,0,0,0,0,0,0,0,0,0,0,0,0,0,0,0,0],"split_type":[0,0,0,0,0,0,0,0,0,0,0,0,0,0,0,0,0,0,0,0,0,0,0,0,0,0,0,0,0],"sum_hessian":[5.71E2,1.18E2,4.53E2,1.09E2,9E0,8E0,4.45E2,1.06E2,3E0,7E0,2E0,2E0,4.43E2,1.03E2,3E0,3E0,4.4E2,1E2,3E0,2E0,1E0,1.2E1,4.28E2,9.4E1,6E0,9E0,3E0,2E0,4.26E2],"tree_param":{"num_deleted":"0","num_feature":"2","num_nodes":"29","size_leaf_vector":"1"}},{"base_weights":[7.2019384E-3,1.6226704E-1,-5.7093413E-3,-4.368083E-2,1.4738837E0,-4.7116104E-1,5.0843456E-3,-1.2704022E-1,1.5446448E-1,1.1319844E0,7.780443E-2,-1.0932759E-1,-2.4443199E-1,3.5191283E-1,-3.1346404E-3,-1.0689521E-1,-8.527428E-2,5.0452185E-1,-1.6765104E-1,-3.826235E-1,1.1478243E-1,-8.668123E-2,8.0495375E-1,-3.8682207E-1,6.1544394E-3,7.4433E-2,-1.250516E-1,5.1129535E-2,1.886877E-1,-3.2808763E-1,4.6688084E-2,-1.6266251E-2,-1.7504549E-1,1.6953428E-1,-2.1504194E-1,3.0064487E-1,8.211241E-2,-1.6395998E-1,-3.002265E-1,4.9461952E-1,-5.9439843E-3,-2.2794245E-2,-8.595309E-2,-1.2592812E-1,-3.8115695E-2,-1.5201005E-1,4.4695046E-2,-2.9979488E-2,6.9347507E-1,-2.825308E-1,2.9192402E-3],"categories":[],"categories_nodes":[],"categories_segments":[],"categories_sizes":[],"default_left":[0,0,0,0,0,0,0,0,0,0,0,0,0,0,0,0,0,0,0,0,0,0,0,0,0,0,0,0,0,0,0,0,0,0,0,0,0,0,0,0,0,0,0,0,0,0,0,0,0,0,0],"id":30,"left_children":[1,3,5,7,9,11,13,15,17,-1,-1,19,-1,21,23,-1,25,27,29,31,-1,33,35,37,39,-1,41,-1,-1,43,-1,-1,-1,-1,-1,-1,-1,45,-1,47,49,-1,-1,-1,-1,-1,-1,-1,-1,-1,-1],"loss_changes":[1.1461214E0,1.1949866E1,2.6600597E0,6.637969E-1,1.5777607E1,1.4028873E0,1.4777029E0,2.3774263E-1,1.4376905E0,0E0,0E0,1.0875028E0,0E0,2.4541867E0,1.809381E0,0E0,3.625549E-1,1.4224458E-1,4.1411856E-1,2.9818016E-1,0E0,3.2800667E0,3.5426044E-1,1.4777845E0,2.9341302E0,0E0,1.6045749E-1,0E0,0E0,3.8815796E-2,0E0,0E0,0E0,0E0,0E0,0E0,0E0,1.1480728E0,0E0,1.3194338E1,7.1235614E0,0E0,0E0,0E0,0E0,0E0,0E0,0E0,0E0,0E0,0E0],"parents":[2147483647,0,0,1,1,2,2,3,3,4,4,5,5,6,6,7,7,8,8,11,11,13,13,14,14,16,16,17,17,18,18,19,19,21,21,22,22,23,23,24,24,26,26,29,29,37,37,39,39,40,40],"right_children":[2,4,6,8,10,12,14,16,18,-1,-1,20,-1,22,24,-1,26,28,30,32,-1,34,36,38,40,-1,42,-1,-1,44,-1,-1,-1,-1,-1,-1,-1,46,-1,48,50,-1,-1,-1,-1,-1,-1,-1,-1,-1,-1],"split_conditions":[1.8939304E2,1.8677664E2,1.9601988E2,1.8135214E2,1.8737627E2,1.9437384E2,2.0046591E2,1.1127877E2,1.8395424E2,1.1319844E0,7.780443E-2,1.9170927E2,-2.4443199E-1,1.973462E2,2.0749902E2,-1.0689521E-1,1.11326935E2,1.8248224E2,1.8597818E2,1.9119215E2,1.1478243E-1,1.9682812E2,1.9782614E2,2.0658017E2,2.1559096E2,7.4433E-2,1.8017197E2,5.1129535E-2,1.886877E-1,1.8469476E2,4.6688084E-2,-1.6266251E-2,-1.7504549E-1,1.6953428E-1,-2.1504194E-1,3.0064487E-1,8.211241E-2,2.0498895E2,-3.002265E-1,2.1479916E2,2.1919585E2,-2.2794245E-2,-8.595309E-2,-1.2592812E-1,-3.8115695E-2,-1.5201005E-1,4.4695046E-2,-2.9979488E-2,6.9347507E-1,-2.825308E-1,2.9192402E-3],"split_indices":[0,0,0,0,0,0,0,0,0,0,0,0,0,0,0,0,0,0,0,0,0,0,0,0,0,0,0,0,0,0,0,0,0,0,0,0,0,0,0,0,0,0,0,0,0,0,0,0,0,0,0],"split_type":[0,0,0,0,0,0,0,0,0,0,0,0,0,0,0,0,0,0,0,0,0,0,0,0,0,0,0,0,0,0,0,0,0,0,0,0,0,0,0,0,0,0,0,0,0,0,0,0,0,0,0],"sum_hessian":[5.71E2,4.3E1,5.28E2,3.8E1,5E0,1.1E1,5.17E2,2.7E1,1.1E1,1E0,4E0,6E0,5E0,1.1E1,5.06E2,3E0,2.4E1,5E0,6E0,4E0,2E0,6E0,5E0,1.1E1,4.95E2,2E0,2.2E1,2E0,3E0,4E0,2E0,2E0,2E0,3E0,3E0,3E0,2E0,9E0,2E0,1.1E1,4.84E2,1.8E1,4E0,2E0,2E0,4E0,5E0,9E0,2E0,7E0,4.77E2],"tree_param":{"num_deleted":"0","num_feature":"2","num_nodes":"51","size_leaf_vector":"1"}},{"base_weights":[7.1107126E-3,3.380202E-2,-7.319959E-2,1.1019859E-2,4.3646812E-1,-2.149735E-1,-4.4696175E-2,2.8753975E-2,-1.12445034E-1,5.297678E-1,2.2576615E-1,5.0613576E-1,-7.356835E-2,1.3385703E-2,4.536864E-1,6.5311044E-2,3.5001796E-1,9.7663754E-1,-3.4753126E-1,-4.0768263E-1,4.454105E-3,3.4189932E-2,-3.7112162E-1,4.0667567E-1,-4.5489976E-1,1.5037666E-1,3.8548034E-1,-1.6779613E-1,-5.3213155E-1,1.0553392E0,-5.6805745E-2,4.0450636E-3,3.3092394E-1,-7.03467E-2,-1.9525488E-1,-5.296875E-2,2.1610953E-1,-5.3773526E-2,-2.0572296E-1,-1.6308679E-1,1.5955478E-1,-3.5960865E-1,-1.2233428E-1,7.9847926E-1,-1.2395683E-1,-2.7597927E-2,8.389075E-2],"categories":[],"categories_nodes":[],"categories_segments":[],"categories_sizes":[],"default_left":[0,0,0,0,0,0,0,0,0,0,0,0,0,0,0,0,0,0,0,0,0,0,0,0,0,0,0,0,0,0,0,0,0,0,0,0,0,0,0,0,0,0,0,0,0,0,0],"id":31,"left_children":[1,3,5,7,9,-1,11,13,-1,-1,15,17,19,21,-1,23,-1,25,-1,27,29,31,33,35,37,-1,-1,39,41,43,45,-1,-1,-1,-1,-1,-1,-1,-1,-1,-1,-1,-1,-1,-1,-1,-1],"loss_changes":[1.2286062E0,3.9398406E0,2.5903761E0,2.8025057E0,6.0439053E0,0E0,2.2319484E0,8.894303E0,0E0,0E0,3.0944195E0,6.6136665E0,3.4428465E0,3.1164474E0,0E0,3.5590463E0,0E0,2.3527193E-1,0E0,6.570511E-1,7.0126724E0,8.152147E0,6.117823E-1,2.3226566E0,3.861482E-1,0E0,0E0,2.9185784E0,8.373966E-1,1.5252762E1,1.2450882E0,0E0,0E0,0E0,0E0,0E0,0E0,0E0,0E0,0E0,0E0,0E0,0E0,0E0,0E0,0E0,0E0],"parents":[2147483647,0,0,1,1,2,2,3,3,4,4,6,6,7,7,10,10,11,11,12,12,13,13,15,15,17,17,19,19,20,20,21,21,22,22,23,23,24,24,27,27,28,28,29,29,30,30],"right_children":[2,4,6,8,10,-1,12,14,-1,-1,16,18,20,22,-1,24,-1,26,-1,28,30,32,34,36,38,-1,-1,40,42,44,46,-1,-1,-1,-1,-1,-1,-1,-1,-1,-1,-1,-1,-1,-1,-1,-1],"split_conditions":[1.2441351E3,1.1748092E3,1.2480278E3,1.1347361E3,1.1784971E3,-2.149735E-1,1.2618918E3,1.1027081E3,-1.12445034E-1,5.297678E-1,1.241386E3,1E0,1.3180511E3,5.38476E2,4.536864E-1,1.1916151E3,3.5001796E-1,1.251325E3,-3.4753126E-1,1.2856271E3,1.3237582E3,4.928949E2,9.484849E2,1.1839559E3,1.21537E3,1.5037666E-1,3.8548034E-1,1.2674298E3,1.2905571E3,1E0,1.708386E3,4.0450636E-3,3.3092394E-1,-7.03467E-2,-1.9525488E-1,-5.296875E-2,2.1610953E-1,-5.3773526E-2,-2.0572296E-1,-1.6308679E-1,1.5955478E-1,-3.5960865E-1,-1.2233428E-1,7.9847926E-1,-1.2395683E-1,-2.7597927E-2,8.389075E-2],"split_indices":[0,0,0,0,0,0,0,0,0,0,0,1,0,0,0,0,0,0,0,0,0,0,0,0,0,0,0,0,0,1,0,0,0,0,0,0,0,0,0,0,0,0,0,0,0,0,0],"split_type":[0,0,0,0,0,0,0,0,0,0,0,0,0,0,0,0,0,0,0,0,0,0,0,0,0,0,0,0,0,0,0,0,0,0,0,0,0,0,0,0,0,0,0,0,0,0,0],"sum_hessian":[5.71E2,4.29E2,1.42E2,4.07E2,2.2E1,5E0,1.37E2,3.9E2,1.7E1,2E0,2E1,6E0,1.31E2,3.87E2,3E0,1.8E1,2E0,5E0,1E0,2.4E1,1.07E2,3.68E2,1.9E1,1.1E1,7E0,3E0,2E0,9E0,1.5E1,5E0,1.02E2,3.62E2,6E0,1.4E1,5E0,4E0,7E0,4E0,3E0,6E0,3E0,1E0,1.4E1,2E0,3E0,9.3E1,9E0],"tree_param":{"num_deleted":"0","num_feature":"2","num_nodes":"47","size_leaf_vector":"1"}},{"base_weights":[7.447147E-3,2.328048E-2,-9.165557E-2,7.1581495E-3,7.9787487E-1,-2.1391943E-1,8.738006E-3,2.4517318E-2,-1.401986E-1,3.784888E-1,-6.7327194E-2,1.7604314E-2,3.0838436E-1,-3.403888E-1,-4.4425875E-3,-3.5809317E-1,3.287978E-2,2.6438016E-2,-3.6400533E-1,-1.17810346E-1,-4.975051E-1,4.635195E-1,-2.0771122E-1,-2.1578293E-1,-2.85084E-1,1.7052715E0,-1.10151E-1,6.00575E-3,2.8001443E-1,-5.5690322E-2,-2.9540157E-1,-1.21150166E-1,1.2365503E-1,-3.0566734E-1,-1.07243985E-1,2.5354642E-1,-9.606657E-2,-7.706364E-2,6.1709642E-2,-1.2493791E-1,8.065876E-2,1.8591022E-1,7.4429756E-1,-5.6987647E-2,6.124014E-2],"categories":[],"categories_nodes":[],"categories_segments":[],"categories_sizes":[],"default_left":[0,0,0,0,0,0,0,0,0,0,0,0,0,0,0,0,0,0,0,0,0,0,0,0,0,0,0,0,0,0,0,0,0,0,0,0,0,0,0,0,0,0,0,0,0],"id":32,"left_children":[1,3,5,7,-1,-1,9,11,13,-1,15,17,-1,19,21,23,25,27,29,31,33,35,37,39,-1,41,43,-1,-1,-1,-1,-1,-1,-1,-1,-1,-1,-1,-1,-1,-1,-1,-1,-1,-1],"loss_changes":[8.996741E-1,2.0977612E1,4.9346848E0,1.2619687E0,0E0,0E0,6.6607404E0,3.0409966E0,1.4116931E0,0E0,1.9348013E0,1.489504E0,0E0,6.757734E-1,3.1401827E0,1.2276082E0,1.2148011E1,2.484574E0,9.242996E-1,1.6823604E0,5.11853E-1,3.2616699E0,5.2034605E-1,1.5708268E0,0E0,1.830925E0,1.217649E0,0E0,0E0,0E0,0E0,0E0,0E0,0E0,0E0,0E0,0E0,0E0,0E0,0E0,0E0,0E0,0E0,0E0,0E0],"parents":[2147483647,0,0,1,1,2,2,3,3,6,6,7,7,8,8,10,10,11,11,13,13,14,14,15,15,16,16,17,17,18,18,19,19,20,20,21,21,22,22,23,23,25,25,26,26],"right_children":[2,4,6,8,-1,-1,10,12,14,-1,16,18,-1,20,22,24,26,28,30,32,34,36,38,40,-1,42,44,-1,-1,-1,-1,-1,-1,-1,-1,-1,-1,-1,-1,-1,-1,-1,-1,-1,-1],"split_conditions":[1.3899441E3,1.3835063E3,1.4183588E3,1.2618918E3,7.9787487E-1,-2.1391943E-1,1.4190609E3,1.251325E3,1.3147471E3,3.784888E-1,1.4571711E3,1.2441351E3,3.0838436E-1,1.2856271E3,1.3237582E3,1.454988E3,1.462163E3,1.241386E3,1E0,1.2674298E3,1.2905571E3,1E0,1E0,1.4363348E3,-2.85084E-1,1.461845E3,1.708386E3,6.00575E-3,2.8001443E-1,-5.5690322E-2,-2.9540157E-1,-1.21150166E-1,1.2365503E-1,-3.0566734E-1,-1.07243985E-1,2.5354642E-1,-9.606657E-2,-7.706364E-2,6.1709642E-2,-1.2493791E-1,8.065876E-2,1.8591022E-1,7.4429756E-1,-5.6987647E-2,6.124014E-2],"split_indices":[0,0,0,0,0,0,0,0,0,0,0,0,0,0,0,0,0,0,1,0,0,1,1,0,0,0,0,0,0,0,0,0,0,0,0,0,0,0,0,0,0,0,0,0,0],"split_type":[0,0,0,0,0,0,0,0,0,0,0,0,0,0,0,0,0,0,0,0,0,0,0,0,0,0,0,0,0,0,0,0,0,0,0,0,0,0,0,0,0,0,0,0,0],"sum_hessian":[5.71E2,4.93E2,7.8E1,4.91E2,2E0,1E1,6.8E1,4.4E2,5.1E1,3E0,6.5E1,4.38E2,2E0,2E1,3.1E1,1.6E1,4.9E1,4.29E2,9E0,9E0,1.1E1,9E0,2.2E1,1.4E1,2E0,3E0,4.6E1,4.27E2,2E0,8E0,1E0,6E0,3E0,1E0,1E1,6E0,3E0,2E1,2E0,1E1,4E0,2E0,1E0,3.7E1,9E0],"tree_param":{"num_deleted":"0","num_feature":"2","num_nodes":"45","size_leaf_vector":"1"}},{"base_weights":[7.910124E-3,1.308334E-1,-2.3290715E-3,-4.0850744E-2,1.2249748E0,-3.657725E-1,6.0949633E-3,-1.0366352E-1,1.09116636E-1,9.606795E-1,5.671915E-2,-9.6076965E-2,-1.8583655E-1,1.1801411E-1,-9.942129E-3,-8.510526E-2,-7.071367E-2,3.8475847E-1,-1.4273588E-1,-3.1413937E-1,8.981581E-2,-2.2553E-2,8.9338857E-1,-2.4200895E-1,6.158165E-3,5.7536174E-2,-1.0187841E-1,3.8893513E-2,1.4397119E-1,-2.7051085E-1,3.5340313E-2,-1.5023232E-2,-1.4204647E-1,5.477354E-2,-3.1244743E-1,2.984364E-1,9.7558215E-2,5.5713433E-1,-6.362166E-3,-5.7501987E-2,-1.5184076E-2,-1.02752686E-1,-3.2502748E-2,1.0607042E-3,2.0446602E-1,-4.770093E-1,2.404981E-3],"categories":[],"categories_nodes":[],"categories_segments":[],"categories_sizes":[],"default_left":[0,0,0,0,0,0,0,0,0,0,0,0,0,0,0,0,0,0,0,0,0,0,0,0,0,0,0,0,0,0,0,0,0,0,0,0,0,0,0,0,0,0,0,0,0,0,0],"id":33,"left_children":[1,3,5,7,9,11,13,15,17,-1,-1,19,-1,21,23,-1,25,27,29,31,-1,33,35,-1,37,-1,39,-1,-1,41,-1,-1,-1,43,-1,-1,-1,-1,45,-1,-1,-1,-1,-1,-1,-1,-1],"loss_changes":[7.202442E-1,8.315297E0,1.6218475E0,3.7868622E-1,1.1684346E1,7.6148975E-1,9.3090963E-1,1.4602599E-1,8.8797194E-1,0E0,0E0,6.976982E-1,0E0,7.104638E0,5.8288703E0,0E0,2.2405833E-1,8.342022E-2,2.6489717E-1,1.8667871E-1,0E0,4.469341E0,2.5264645E-1,0E0,1.0347681E1,0E0,9.617506E-2,0E0,0E0,2.1270782E-2,0E0,0E0,0E0,1.6996776E0,0E0,0E0,0E0,0E0,1.0123162E1,0E0,0E0,0E0,0E0,0E0,0E0,0E0,0E0],"parents":[2147483647,0,0,1,1,2,2,3,3,4,4,5,5,6,6,7,7,8,8,11,11,13,13,14,14,16,16,17,17,18,18,19,19,21,21,22,22,24,24,26,26,29,29,33,33,38,38],"right_children":[2,4,6,8,10,12,14,16,18,-1,-1,20,-1,22,24,-1,26,28,30,32,-1,34,36,-1,38,-1,40,-1,-1,42,-1,-1,-1,44,-1,-1,-1,-1,46,-1,-1,-1,-1,-1,-1,-1,-1],"split_conditions":[1.8939304E2,1.8677664E2,1.9601988E2,1.8135214E2,1.8737627E2,1.9437384E2,2.4282884E2,1.1127877E2,1.8395424E2,9.606795E-1,5.671915E-2,1.9170927E2,-1.8583655E-1,2.3660278E2,2.5690793E2,-8.510526E-2,1.11326935E2,1.8248224E2,1.8597818E2,1.9119215E2,8.981581E-2,2.2717976E2,2.3912502E2,-2.4200895E-1,2.5848007E2,5.7536174E-2,1.22196915E2,3.8893513E-2,1.4397119E-1,1.8469476E2,3.5340313E-2,-1.5023232E-2,-1.4204647E-1,2.2467398E2,-3.1244743E-1,2.984364E-1,9.7558215E-2,5.5713433E-1,2.5904727E2,-5.7501987E-2,-1.5184076E-2,-1.02752686E-1,-3.2502748E-2,1.0607042E-3,2.0446602E-1,-4.770093E-1,2.404981E-3],"split_indices":[0,0,0,0,0,0,0,0,0,0,0,0,0,0,0,0,0,0,0,0,0,0,0,0,0,0,0,0,0,0,0,0,0,0,0,0,0,0,0,0,0,0,0,0,0,0,0],"split_type":[0,0,0,0,0,0,0,0,0,0,0,0,0,0,0,0,0,0,0,0,0,0,0,0,0,0,0,0,0,0,0,0,0,0,0,0,0,0,0,0,0,0,0,0,0,0,0],"sum_hessian":[5.71E2,4.3E1,5.28E2,3.8E1,5E0,1.1E1,5.17E2,2.7E1,1.1E1,1E0,4E0,6E0,5E0,6.4E1,4.53E2,3E0,2.4E1,5E0,6E0,4E0,2E0,5.5E1,9E0,8E0,4.45E2,2E0,2.2E1,2E0,3E0,4E0,2E0,2E0,2E0,5.2E1,3E0,7E0,2E0,2E0,4.43E2,7E0,1.5E1,2E0,2E0,4.9E1,3E0,3E0,4.4E2],"tree_param":{"num_deleted":"0","num_feature":"2","num_nodes":"47","size_leaf_vector":"1"}},{"base_weights":[7.069544E-3,4.6551146E-2,-2.2024695E-2,-1.3207764E-2,2.8937168E0,-7.146088E-1,-3.8025237E-4,1.3663057E-2,-4.7858533E-1,1.3316158E0,1.1524258E-1,-1.4993669E-1,-3.1477767E-1,2.5285035E-1,-8.30898E-3,-2.0930981E-2,6.0760504E-1,-2.054907E-1,6.8505374E-3,2.1804417E-2,-5.0341415E-1,1.0952909E0,-1.7989635E-2,-5.86104E-4,7.659056E-1,-2.1950372E-1,-9.278591E-2,1.0547061E-1,4.695571E-1,-2.3200528E-1,-1.0899809E-4],"categories":[],"categories_nodes":[],"categories_segments":[],"categories_sizes":[],"default_left":[0,0,0,0,0,0,0,0,0,0,0,0,0,0,0,0,0,0,0,0,0,0,0,0,0,0,0,0,0,0,0],"id":34,"left_children":[1,3,5,7,9,11,13,15,-1,-1,-1,-1,-1,-1,17,19,-1,-1,21,23,25,27,29,-1,-1,-1,-1,-1,-1,-1,-1],"loss_changes":[6.580743E-1,4.138309E1,4.9466248E0,1.0182092E1,1.76814E1,1.944871E-1,2.153087E0,1.6466196E1,0E0,0E0,0E0,0E0,0E0,0E0,3.2769427E0,4.8152294E0,0E0,0E0,8.482299E0,1.2934406E1,6.1564016E-1,1.8960505E0,4.087188E0,0E0,0E0,0E0,0E0,0E0,0E0,0E0,0E0],"parents":[2147483647,0,0,1,1,2,2,3,3,