{"learner":{"attributes":{"scikit_learn":"{\"_estimator_type\": \"classifier\"}"},"feature_names":["latency_ms","block_lag","hour_of_day","day_of_week","rolling_latency_5"],"feature_types":["float","float","int","int","float"],"gradient_booster":{"model":{"cats":{"enc":[],"feature_segments":[],"sorted_idx":[]},"gbtree_model_param":{"num_parallel_tree":"1","num_trees":"150"},"iteration_indptr":[0,1,2,3,4,5,6,7,8,9,10,11,12,13,14,15,16,17,18,19,20,21,22,23,24,25,26,27,28,29,30,31,32,33,34,35,36,37,38,39,40,41,42,43,44,45,46,47,48,49,50,51,52,53,54,55,56,57,58,59,60,61,62,63,64,65,66,67,68,69,70,71,72,73,74,75,76,77,78,79,80,81,82,83,84,85,86,87,88,89,90,91,92,93,94,95,96,97,98,99,100,101,102,103,104,105,106,107,108,109,110,111,112,113,114,115,116,117,118,119,120,121,122,123,124,125,126,127,128,129,130,131,132,133,134,135,136,137,138,139,140,141,142,143,144,145,146,147,148,149,150],"tree_info":[0,0,0,0,0,0,0,0,0,0,0,0,0,0,0,0,0,0,0,0,0,0,0,0,0,0,0,0,0,0,0,0,0,0,0,0,0,0,0,0,0,0,0,0,0,0,0,0,0,0,0,0,0,0,0,0,0,0,0,0,0,0,0,0,0,0,0,0,0,0,0,0,0,0,0,0,0,0,0,0,0,0,0,0,0,0,0,0,0,0,0,0,0,0,0,0,0,0,0,0,0,0,0,0,0,0,0,0,0,0,0,0,0,0,0,0,0,0,0,0,0,0,0,0,0,0,0,0,0,0,0,0,0,0,0,0,0,0,0,0,0,0,0,0,0,0,0,0,0,0],"trees":[{"base_weights":[-2.2366855E-8,-5.90695E-2,7.2877973E-1,-1.4769287E0,-3.1492032E-2,7.9033786E-1,-6.0748234E-2,-1.6994193E0,-7.5315315E-1,-2.0217963E-3,-1.1110744E0,7.259115E-1,8.549294E-2,-8.888889E-2,1.0224822E0,-1.3550645E0,-9.6551724E-2,1.7500627E-1,-8.857143E-2,-2.9126635E-1,1.0842016E-1,6.144778E-1,-1.2692072E0,1.3915762E0,6.826575E-1,-6.0000002E-2,1.3760718E0,-9.43662E-2,2.4791504E-3,-1.4935228E-2,2.7309885E-2,1.9312775E-2,-1.755606E-2,1.6412629E-2,-4.933366E-3,-6.923077E-2,7.66027E-2,-5.20987E-2,-9.54023E-2,8.1873976E-2,-5E-2,-4.243284E-2,3.8508896E-2,1.9362025E-2,8.020127E-2],"categories":[],"categories_nodes":[],"categories_segments":[],"categories_sizes":[],"default_left":[0,0,0,0,0,0,0,0,0,0,0,0,0,0,0,0,0,0,0,0,0,0,0,0,0,0,0,0,0,0,0,0,0,0,0,0,0,0,0,0,0,0,0,0,0],"id":0,"left_children":[1,3,5,7,9,11,13,15,17,19,21,23,-1,-1,25,27,-1,29,-1,31,33,35,37,39,41,-1,43,-1,-1,-1,-1,-1,-1,-1,-1,-1,-1,-1,-1,-1,-1,-1,-1,-1,-1],"loss_changes":[1.6982687E2,1.4264157E2,1.4423431E1,9.928253E0,1.1391713E2,1.5018005E1,4.3335278E1,1.5658722E0,1.7474365E1,1.1140613E2,2.6741486E1,6.48497E0,0E0,0E0,1.2906175E1,1.8366322E1,0E0,1.9937942E0,0E0,3.9214844E1,1.14927956E2,1.8008343E1,1.0711365E1,1.0336786E1,3.3412613E1,0E0,2.2690296E0,0E0,0E0,0E0,0E0,0E0,0E0,0E0,0E0,0E0,0E0,0E0,0E0,0E0,0E0,0E0,0E0,0E0,0E0],"parents":[2147483647,0,0,1,1,2,2,3,3,4,4,5,5,6,6,7,7,8,8,9,9,10,10,11,11,14,14,15,15,17,17,19,19,20,20,21,21,22,22,23,23,24,24,26,26],"right_children":[2,4,6,8,10,12,14,16,18,20,22,24,-1,-1,26,28,-1,30,-1,32,34,36,38,40,42,-1,44,-1,-1,-1,-1,-1,-1,-1,-1,-1,-1,-1,-1,-1,-1,-1,-1,-1,-1],"split_conditions":[5E0,1.1E1,1.1574882E3,1.3826749E3,2E1,1.1729532E3,1.2358141E3,3.0081293E2,1.5012062E3,1.5E1,1.3381538E2,1.07413055E2,8.549294E-2,-8.888889E-2,1.1729532E3,2.8616714E2,-9.6551724E-2,1.4687771E3,-8.857143E-2,2E0,1.8E1,1.2321806E2,2.5848007E2,1.3016801E2,1.2321806E2,-6.0000002E-2,1.1885028E3,-9.43662E-2,2.4791504E-3,-1.4935228E-2,2.7309885E-2,1.9312775E-2,-1.755606E-2,1.6412629E-2,-4.933366E-3,-6.923077E-2,7.66027E-2,-5.20987E-2,-9.54023E-2,8.1873976E-2,-5E-2,-4.243284E-2,3.8508896E-2,1.9362025E-2,8.020127E-2],"split_indices":[3,2,0,0,2,4,0,4,0,2,4,0,0,0,4,0,0,4,0,3,2,0,0,4,0,0,4,0,0,0,0,0,0,0,0,0,0,0,0,0,0,0,0,0,0],"split_type":[0,0,0,0,0,0,0,0,0,0,0,0,0,0,0,0,0,0,0,0,0,0,0,0,0,0,0,0,0,0,0,0,0,0,0,0,0,0,0,0,0,0,0,0,0],"sum_hessian":[3.943E3,3.6482212E3,2.9477878E2,6.8601654E1,3.5796196E3,2.734568E2,2.132199E1,5.1440662E1,1.7160995E1,3.4854756E3,9.414398E1,2.5722382E2,1.6232985E1,8E0,1.3321989E1,2.3440662E1,2.8E1,9.410995E0,7.75E0,9.6265924E2,2.5228164E3,7.6609945E0,8.648299E1,1.3792321E1,2.434315E2,1.5E0,1.1821989E1,1.675E1,6.6906633E0,4.2203317E0,5.1906633E0,7.769895E1,8.8496027E2,1.2234673E3,1.299349E3,2.25E0,5.4109945E0,6.573299E1,2.075E1,1.2792321E1,1E0,1.2690663E1,2.3074083E2,2.7203317E0,9.101658E0],"tree_param":{"num_deleted":"0","num_feature":"5","num_nodes":"45","size_leaf_vector":"1"}},{"base_weights":[-8.3887564E-5,-5.623083E-2,6.929752E-1,-1.4093429E0,-2.9955655E-2,7.5163454E-1,-6.0011152E-2,-1.6212698E0,-7.203653E-1,-1.9169446E-3,-1.0581543E0,6.90033E-1,8.1609085E-2,-8.509008E-2,9.7525084E-1,-1.2930893E0,-9.210115E-2,1.6746463E-1,-8.479866E-2,-2.7672315E-1,1.0300757E-1,5.853393E-1,-1.2087263E0,1.326167E0,6.487549E-1,-5.823196E-2,1.3165914E0,-9.010603E-2,2.3713172E-3,-1.4332172E-2,2.6169127E-2,1.8361127E-2,-1.6680548E-2,1.5593736E-2,-4.6869167E-3,-6.689073E-2,7.346245E-2,-4.95665E-2,-9.1052294E-2,7.945882E-2,1.04556065E-2,-4.0483344E-2,3.6605507E-2,1.865544E-2,7.670113E-2],"categories":[],"categories_nodes":[],"categories_segments":[],"categories_sizes":[],"default_left":[0,0,0,0,0,0,0,0,0,0,0,0,0,0,0,0,0,0,0,0,0,0,0,0,0,0,0,0,0,0,0,0,0,0,0,0,0,0,0,0,0,0,0,0,0],"id":1,"left_children":[1,3,5,7,9,11,13,15,17,19,21,23,-1,-1,25,27,-1,29,-1,31,33,35,37,39,41,-1,43,-1,-1,-1,-1,-1,-1,-1,-1,-1,-1,-1,-1,-1,-1,-1,-1,-1,-1],"loss_changes":[1.5349055E2,1.296857E2,1.3101852E1,8.977493E0,1.0321723E2,1.3753357E1,3.9545597E1,1.4098511E0,1.6000408E1,1.0055244E2,2.4226898E1,5.9172134E0,0E0,0E0,1.1982732E1,1.6737495E1,0E0,1.8325088E0,0E0,3.5421143E1,1.0373861E2,1.6670296E1,9.827919E0,4.0071316E0,3.0296509E1,0E0,2.054926E0,0E0,0E0,0E0,0E0,0E0,0E0,0E0,0E0,0E0,0E0,0E0,0E0,0E0,0E0,0E0,0E0,0E0,0E0],"parents":[2147483647,0,0,1,1,2,2,3,3,4,4,5,5,6,6,7,7,8,8,9,9,10,10,11,11,14,14,15,15,17,17,19,19,20,20,21,21,22,22,23,23,24,24,26,26],"right_children":[2,4,6,8,10,12,14,16,18,20,22,24,-1,-1,26,28,-1,30,-1,32,34,36,38,40,42,-1,44,-1,-1,-1,-1,-1,-1,-1,-1,-1,-1,-1,-1,-1,-1,-1,-1,-1,-1],"split_conditions":[5E0,1.1E1,1.1574882E3,1.3826749E3,2E1,1.1729532E3,1.2358141E3,3.0081293E2,1.5012062E3,1.5E1,1.3381538E2,1.07413055E2,8.1609085E-2,-8.509008E-2,1.1729532E3,2.8616714E2,-9.210115E-2,1.4687771E3,-8.479866E-2,2E0,1.8E1,1.2321806E2,2.5848007E2,1.24657776E2,1.2321806E2,-5.823196E-2,1.1885028E3,-9.010603E-2,2.3713172E-3,-1.4332172E-2,2.6169127E-2,1.8361127E-2,-1.6680548E-2,1.5593736E-2,-4.6869167E-3,-6.689073E-2,7.346245E-2,-4.95665E-2,-9.1052294E-2,7.945882E-2,1.04556065E-2,-4.0483344E-2,3.6605507E-2,1.865544E-2,7.670113E-2],"split_indices":[3,2,0,0,2,4,0,4,0,2,4,0,0,0,4,0,0,4,0,3,2,0,0,4,0,0,4,0,0,0,0,0,0,0,0,0,0,0,0,0,0,0,0,0,0],"split_type":[0,0,0,0,0,0,0,0,0,0,0,0,0,0,0,0,0,0,0,0,0,0,0,0,0,0,0,0,0,0,0,0,0,0,0,0,0,0,0,0,0,0,0,0,0],"sum_hessian":[3.9424382E3,3.6478342E3,2.9460388E2,6.848287E1,3.5793513E3,2.733139E2,2.1289984E1,5.1338264E1,1.7144611E1,3.4853098E3,9.4041626E1,2.5711053E2,1.6203358E1,7.9842186E0,1.3305765E1,2.3403418E1,2.7934845E1,9.409792E0,7.73482E0,9.625838E2,2.522726E3,7.6503706E0,8.639126E1,1.3770283E1,2.4334027E2,1.4986508E0,1.1807115E1,1.6712765E1,6.690653E0,4.2200966E0,5.1896954E0,7.769171E1,8.848921E2,1.2233849E3,1.2993411E3,2.2473059E0,5.4030643E0,6.56884E1,2.0702858E1,1.0803874E1,2.9664087E0,1.2684953E1,2.306553E2,2.7200766E0,9.087038E0],"tree_param":{"num_deleted":"0","num_feature":"5","num_nodes":"45","size_leaf_vector":"1"}},{"base_weights":[-1.4755264E-4,-5.3543497E-2,6.598341E-1,-1.349175E0,-2.8499896E-2,7.157165E-1,-5.9419878E-2,-1.5523788E0,-6.9021237E-1,-1.8177112E-3,-1.0097892E0,6.566704E-1,7.815244E-2,-8.172287E-2,9.3215793E-1,-1.237501E0,-8.822471E-2,1.6028363E-1,-8.145218E-2,-2.6294443E-1,9.787192E-2,5.588361E-1,-1.1533859E0,1.2706012E0,6.169617E-1,-5.6575518E-2,1.2624476E0,-8.637636E-2,2.2681782E-3,-1.375465E-2,2.5083432E-2,-4.900122E-3,-2.3587339E-2,1.4817545E-2,-4.4528306E-3,-6.473309E-2,7.061597E-2,-4.721589E-2,-8.725318E-2,7.616579E-2,1.0066341E-2,-8.104682E-2,3.3284605E-2,1.7977007E-2,7.3553436E-2],"categories":[],"categories_nodes":[],"categories_segments":[],"categories_sizes":[],"default_left":[0,0,0,0,0,0,0,0,0,0,0,0,0,0,0,0,0,0,0,0,0,0,0,0,0,0,0,0,0,0,0,0,0,0,0,0,0,0,0,0,0,0,0,0,0],"id":2,"left_children":[1,3,5,7,9,11,13,15,17,19,21,23,-1,-1,25,27,-1,29,-1,31,33,35,37,39,41,-1,43,-1,-1,-1,-1,-1,-1,-1,-1,-1,-1,-1,-1,-1,-1,-1,-1,-1,-1],"loss_changes":[1.3894823E2,1.1832108E2,1.1904541E1,8.187927E0,9.372262E1,1.2678406E1,3.6194534E1,1.2929611E0,1.4712209E1,9.076796E1,2.1987907E1,5.5008774E0,0E0,0E0,1.11482E1,1.5353577E1,0E0,1.684717E0,0E0,3.3132584E1,9.365073E1,1.5465109E1,9.130676E0,3.6703281E0,2.7697334E1,0E0,1.875618E0,0E0,0E0,0E0,0E0,0E0,0E0,0E0,0E0,0E0,0E0,0E0,0E0,0E0,0E0,0E0,0E0,0E0,0E0],"parents":[2147483647,0,0,1,1,2,2,3,3,4,4,5,5,6,6,7,7,8,8,9,9,10,10,11,11,14,14,15,15,17,17,19,19,20,20,21,21,22,22,23,23,24,24,26,26],"right_children":[2,4,6,8,10,12,14,16,18,20,22,24,-1,-1,26,28,-1,30,-1,32,34,36,38,40,42,-1,44,-1,-1,-1,-1,-1,-1,-1,-1,-1,-1,-1,-1,-1,-1,-1,-1,-1,-1],"split_conditions":[5E0,1.1E1,1.1574882E3,1.3826749E3,2E1,1.1729532E3,1.2358141E3,3.0081293E2,1.5012062E3,1.5E1,1.3381538E2,1.07413055E2,7.815244E-2,-8.172287E-2,1.1729532E3,2.8616714E2,-8.822471E-2,1.4687771E3,-8.145218E-2,1.4E1,1.8E1,1.2321806E2,2.5848007E2,1.24657776E2,1.24657776E2,-5.6575518E-2,1.1885028E3,-8.637636E-2,2.2681782E-3,-1.375465E-2,2.5083432E-2,-4.900122E-3,-2.3587339E-2,1.4817545E-2,-4.4528306E-3,-6.473309E-2,7.061597E-2,-4.721589E-2,-8.725318E-2,7.616579E-2,1.0066341E-2,-8.104682E-2,3.3284605E-2,1.7977007E-2,7.3553436E-2],"split_indices":[3,2,0,0,2,4,0,4,0,2,4,0,0,0,4,0,0,4,0,2,2,0,0,4,4,0,4,0,0,0,0,0,0,0,0,0,0,0,0,0,0,0,0,0,0],"split_type":[0,0,0,0,0,0,0,0,0,0,0,0,0,0,0,0,0,0,0,0,0,0,0,0,0,0,0,0,0,0,0,0,0,0,0,0,0,0,0,0,0,0,0,0,0],"sum_hessian":[3.9408716E3,3.6467495E3,2.941221E2,6.8149704E1,3.5785996E3,2.7292236E2,2.1199757E1,5.1051266E1,1.7098436E1,3.4848452E3,9.375438E1,2.5680215E2,1.612019E1,7.9397674E0,1.3259989E1,2.3298927E1,2.7752338E1,9.406382E0,7.6920547E0,9.623724E2,2.522473E3,7.620255E0,8.6134125E1,1.3717623E1,2.4308455E2,1.4947702E0,1.1765219E1,1.6608303E1,6.6906238E0,4.219428E0,5.1869535E0,5.384761E2,4.2389624E2,1.223154E3,1.299319E3,2.2396095E0,5.3806453E0,6.556343E1,2.0570696E1,1.0751875E1,2.9657476E0,4.4928126E0,2.3859174E2,2.719349E0,9.04587E0],"tree_param":{"num_deleted":"0","num_feature":"5","num_nodes":"45","size_leaf_vector":"1"}},{"base_weights":[-2.266083E-4,-5.1004615E-2,6.286108E-1,-1.2951846E0,-2.7127601E-2,6.817952E-1,-5.8955263E-2,-1.491141E0,-6.6234404E-1,-1.7324059E-3,-9.6531594E-1,6.2506086E-1,7.505189E-2,-7.871726E-2,8.926097E-1,-1.1872641E0,-8.481967E-2,1.5344116E-1,-7.846319E-2,-2.4989803E-1,9.299777E-2,5.3459245E-1,-1.1024392E0,1.2199119E0,5.8677685E-1,-5.5020005E-2,1.2128592E0,-8.3084784E-2,2.1695197E-3,-1.320139E-2,2.4049066E-2,1.7699746E-2,-1.5163846E-2,1.408148E-2,-4.2304755E-3,-6.273652E-2,6.802072E-2,-4.502457E-2,-8.390775E-2,7.319882E-2,9.691916E-3,-3.9058257E-2,3.3257086E-2,1.7325314E-2,7.070327E-2],"categories":[],"categories_nodes":[],"categories_segments":[],"categories_sizes":[],"default_left":[0,0,0,0,0,0,0,0,0,0,0,0,0,0,0,0,0,0,0,0,0,0,0,0,0,0,0,0,0,0,0,0,0,0,0,0,0,0,0,0,0,0,0,0,0],"id":3,"left_children":[1,3,5,7,9,11,13,15,17,19,21,23,-1,-1,25,27,-1,29,-1,31,33,35,37,39,41,-1,43,-1,-1,-1,-1,-1,-1,-1,-1,-1,-1,-1,-1,-1,-1,-1,-1,-1,-1],"loss_changes":[1.258264E2,1.08281624E2,1.0806549E1,7.523567E0,8.525777E1,1.1767448E1,3.3214634E1,1.2047501E0,1.3577786E1,8.1955765E1,1.9986176E1,5.145363E0,0E0,0E0,1.03906975E1,1.4164825E1,0E0,1.5492083E0,0E0,3.115326E1,8.455308E1,1.4375105E1,8.573189E0,3.3814335E0,2.6647682E1,0E0,1.7238388E0,0E0,0E0,0E0,0E0,0E0,0E0,0E0,0E0,0E0,0E0,0E0,0E0,0E0,0E0,0E0,0E0,0E0,0E0],"parents":[2147483647,0,0,1,1,2,2,3,3,4,4,5,5,6,6,7,7,8,8,9,9,10,10,11,11,14,14,15,15,17,17,19,19,20,20,21,21,22,22,23,23,24,24,26,26],"right_children":[2,4,6,8,10,12,14,16,18,20,22,24,-1,-1,26,28,-1,30,-1,32,34,36,38,40,42,-1,44,-1,-1,-1,-1,-1,-1,-1,-1,-1,-1,-1,-1,-1,-1,-1,-1,-1,-1],"split_conditions":[5E0,1.1E1,1.1574882E3,1.3826749E3,2E1,1.1729532E3,1.2358141E3,3.0081293E2,1.5012062E3,1.5E1,1.3381538E2,1.07413055E2,7.505189E-2,-7.871726E-2,1.1729532E3,2.8616714E2,-8.481967E-2,1.4687771E3,-7.846319E-2,2E0,1.8E1,1.2321806E2,2.5848007E2,1.24657776E2,1.2321806E2,-5.5020005E-2,1.1885028E3,-8.3084784E-2,2.1695197E-3,-1.320139E-2,2.4049066E-2,1.7699746E-2,-1.5163846E-2,1.408148E-2,-4.2304755E-3,-6.273652E-2,6.802072E-2,-4.502457E-2,-8.390775E-2,7.319882E-2,9.691916E-3,-3.9058257E-2,3.3257086E-2,1.7325314E-2,7.070327E-2],"split_indices":[3,2,0,0,2,4,0,4,0,2,4,0,0,0,4,0,0,4,0,3,2,0,0,4,0,0,4,0,0,0,0,0,0,0,0,0,0,0,0,0,0,0,0,0,0],"split_type":[0,0,0,0,0,0,0,0,0,0,0,0,0,0,0,0,0,0,0,0,0,0,0,0,0,0,0,0,0,0,0,0,0,0,0,0,0,0,0,0,0,0,0,0,0],"sum_hessian":[3.9385544E3,3.6451326E3,2.93422E2,6.7633835E1,3.5774985E3,2.7236267E2,2.1059317E1,5.0607258E1,1.702658E1,3.4841892E3,9.330935E1,2.5637137E2,1.5991309E1,7.8706455E0,1.3188672E1,2.3137106E1,2.7470154E1,9.401041E0,7.6255393E0,9.6210767E2,2.5220815E3,7.573106E0,8.5736244E1,1.3635766E1,2.427356E2,1.488599E0,1.1700073E1,1.6446527E1,6.690578E0,4.218379E0,5.182662E0,7.767809E1,8.8442957E2,1.2227969E3,1.2992848E3,2.227459E0,5.345647E0,6.537007E1,2.0366175E1,1.0670807E1,2.9649587E0,1.2666143E1,2.3006946E2,2.7182002E0,8.981873E0],"tree_param":{"num_deleted":"0","num_feature":"5","num_nodes":"45","size_leaf_vector":"1"}},{"base_weights":[-2.822187E-4,-4.8588846E-2,5.995409E-1,-1.2463886E0,-2.581704E-2,6.5015846E-1,-5.8602415E-2,-1.4362968E0,-6.3646936E-1,-1.6424289E-3,-9.241929E-1,5.9554654E-1,7.2250836E-2,-7.601736E-2,8.5611767E-1,-1.1415504E0,-8.18064E-2,1.4691646E-1,-7.5776614E-2,-2.3750207E-1,8.837085E-2,5.122988E-1,-1.0552772E0,1.1733917E0,5.5858254E-1,-5.355599E-2,1.1671855E0,-8.015903E-2,2.0751709E-3,-1.2671252E-2,2.306265E-2,-4.1372585E-3,-2.1677656E-2,1.3383177E-2,-4.0192488E-3,-6.0882676E-2,6.564174E-2,-4.2973932E-2,-8.0940306E-2,7.05078E-2,9.331717E-3,-7.759637E-2,3.0230353E-2,1.6699025E-2,6.81062E-2],"categories":[],"categories_nodes":[],"categories_segments":[],"categories_sizes":[],"default_left":[0,0,0,0,0,0,0,0,0,0,0,0,0,0,0,0,0,0,0,0,0,0,0,0,0,0,0,0,0,0,0,0,0,0,0,0,0,0,0,0,0,0,0,0,0],"id":4,"left_children":[1,3,5,7,9,11,13,15,17,19,21,23,-1,-1,25,27,-1,29,-1,31,33,35,37,39,41,-1,43,-1,-1,-1,-1,-1,-1,-1,-1,-1,-1,-1,-1,-1,-1,-1,-1,-1,-1],"loss_changes":[1.140892E2,9.936107E1,9.814537E0,6.957939E0,7.7683586E1,1.0972252E1,3.0551506E1,1.1379547E0,1.2571949E1,7.399399E1,1.8190224E1,4.828987E0,0E0,0E0,9.700418E0,1.3133713E1,0E0,1.424897E0,0E0,2.9172863E1,7.634623E1,1.3385585E1,8.121971E0,3.131216E0,2.456533E1,0E0,1.594059E0,0E0,0E0,0E0,0E0,0E0,0E0,0E0,0E0,0E0,0E0,0E0,0E0,0E0,0E0,0E0,0E0,0E0,0E0],"parents":[2147483647,0,0,1,1,2,2,3,3,4,4,5,5,6,6,7,7,8,8,9,9,10,10,11,11,14,14,15,15,17,17,19,19,20,20,21,21,22,22,23,23,24,24,26,26],"right_children":[2,4,6,8,10,12,14,16,18,20,22,24,-1,-1,26,28,-1,30,-1,32,34,36,38,40,42,-1,44,-1,-1,-1,-1,-1,-1,-1,-1,-1,-1,-1,-1,-1,-1,-1,-1,-1,-1],"split_conditions":[5E0,1.1E1,1.1574882E3,1.3826749E3,2E1,1.1729532E3,1.2358141E3,3.0081293E2,1.5012062E3,1.5E1,1.3381538E2,1.07413055E2,7.2250836E-2,-7.601736E-2,1.1729532E3,2.8616714E2,-8.18064E-2,1.4687771E3,-7.5776614E-2,1.4E1,1.8E1,1.2321806E2,2.5848007E2,1.24657776E2,1.24657776E2,-5.355599E-2,1.1885028E3,-8.015903E-2,2.0751709E-3,-1.2671252E-2,2.306265E-2,-4.1372585E-3,-2.1677656E-2,1.3383177E-2,-4.0192488E-3,-6.0882676E-2,6.564174E-2,-4.2973932E-2,-8.0940306E-2,7.05078E-2,9.331717E-3,-7.759637E-2,3.0230353E-2,1.6699025E-2,6.81062E-2],"split_indices":[3,2,0,0,2,4,0,4,0,2,4,0,0,0,4,0,0,4,0,2,2,0,0,4,4,0,4,0,0,0,0,0,0,0,0,0,0,0,0,0,0,0,0,0,0],"split_type":[0,0,0,0,0,0,0,0,0,0,0,0,0,0,0,0,0,0,0,0,0,0,0,0,0,0,0,0,0,0,0,0,0,0,0,0,0,0,0,0,0,0,0,0,0],"sum_hessian":[3.9354404E3,3.6429734E3,2.9246707E2,6.696327E1,3.57601E3,2.7159125E2,2.0875841E1,5.003055E1,1.6932728E1,3.4832795E3,9.2730576E1,2.5576761E2,1.5823641E1,7.780432E0,1.3095408E1,2.2926716E1,2.710383E1,9.394022E0,7.5387063E0,9.61706E2,2.5215735E3,7.511158E0,8.521942E1,1.3529023E1,2.4223859E2,1.4803653E0,1.1615043E1,1.6236198E1,6.690519E0,4.2169976E0,5.177024E0,5.3824963E2,4.2345633E2,1.2223334E3,1.2992402E3,2.2113655E0,5.299793E0,6.511896E1,2.0100464E1,1.0564965E1,2.964058E0,4.4715295E0,2.3776704E2,2.7166786E0,8.898364E0],"tree_param":{"num_deleted":"0","num_feature":"5","num_nodes":"45","size_leaf_vector":"1"}},{"base_weights":[-3.5287743E-4,-4.6303917E-2,5.719735E-1,-1.2019961E0,-2.4580956E-2,6.201061E-1,-5.8348224E-2,-1.3868436E0,-6.1234474E-1,-1.5655995E-3,-8.8597524E-1,5.6744397E-1,6.970384E-2,-7.357798E-2,8.2227856E-1,-1.0996901E0,-7.9122156E-2,1.4069141E-1,-7.3347926E-2,-2.2575884E-1,8.3977625E-2,-3.665424E-3,-1.0901203E0,1.1304594E0,5.316958E-1,-5.2175112E-2,1.1248989E0,-7.754173E-2,1.984919E-3,-1.2163124E-2,2.2121176E-2,1.7034827E-2,-1.3793546E-2,1.2720457E-2,-3.8185928E-3,-7.6355256E-2,4.6297204E-2,-8.507862E-2,-3.81256E-2,6.805211E-2,8.9851525E-3,-3.768154E-2,3.0276421E-2,1.6096935E-2,6.5725975E-2],"categories":[],"categories_nodes":[],"categories_segments":[],"categories_sizes":[],"default_left":[0,0,0,0,0,0,0,0,0,0,0,0,0,0,0,0,0,0,0,0,0,0,0,0,0,0,0,0,0,0,0,0,0,0,0,0,0,0,0,0,0,0,0,0,0],"id":5,"left_children":[1,3,5,7,9,11,13,15,17,19,21,23,-1,-1,25,27,-1,29,-1,31,33,35,37,39,41,-1,43,-1,-1,-1,-1,-1,-1,-1,-1,-1,-1,-1,-1,-1,-1,-1,-1,-1,-1],"loss_changes":[1.0345546E2,9.138915E1,8.906265E0,6.4712143E0,7.087966E1,1.0283554E1,2.8160858E1,1.08741E0,1.1674652E1,6.682135E1,1.6754166E1,4.5531387E0,0E0,0E0,9.069198E0,1.2231459E1,0E0,1.3108037E0,0E0,2.7409393E1,6.8941284E1,2.7593216E1,1.38372345E1,2.912571E0,2.3486946E1,0E0,1.4820261E0,0E0,0E0,0E0,0E0,0E0,0E0,0E0,0E0,0E0,0E0,0E0,0E0,0E0,0E0,0E0,0E0,0E0,0E0],"parents":[2147483647,0,0,1,1,2,2,3,3,4,4,5,5,6,6,7,7,8,8,9,9,10,10,11,11,14,14,15,15,17,17,19,19,20,20,21,21,22,22,23,23,24,24,26,26],"right_children":[2,4,6,8,10,12,14,16,18,20,22,24,-1,-1,26,28,-1,30,-1,32,34,36,38,40,42,-1,44,-1,-1,-1,-1,-1,-1,-1,-1,-1,-1,-1,-1,-1,-1,-1,-1,-1,-1],"split_conditions":[5E0,1.1E1,1.1574882E3,1.3826749E3,2E1,1.1729532E3,1.2358141E3,3.0081293E2,1.5012062E3,1.5E1,1.5080223E2,1.07413055E2,6.970384E-2,-7.357798E-2,1.1729532E3,2.8616714E2,-7.9122156E-2,1.4687771E3,-7.3347926E-2,2E0,1.8E1,1.2418794E2,2.2078938E2,1.24657776E2,1.2321806E2,-5.2175112E-2,1.1885028E3,-7.754173E-2,1.984919E-3,-1.2163124E-2,2.2121176E-2,1.7034827E-2,-1.3793546E-2,1.2720457E-2,-3.8185928E-3,-7.6355256E-2,4.6297204E-2,-8.507862E-2,-3.81256E-2,6.805211E-2,8.9851525E-3,-3.768154E-2,3.0276421E-2,1.6096935E-2,6.5725975E-2],"split_indices":[3,2,0,0,2,4,0,4,0,2,4,0,0,0,4,0,0,4,0,3,2,0,4,4,0,0,4,0,0,0,0,0,0,0,0,0,0,0,0,0,0,0,0,0,0],"split_type":[0,0,0,0,0,0,0,0,0,0,0,0,0,0,0,0,0,0,0,0,0,0,0,0,0,0,0,0,0,0,0,0,0,0,0,0,0,0,0,0,0,0,0,0,0],"sum_hessian":[3.9318115E3,3.6404458E3,2.9136566E2,6.616273E1,3.5742832E3,2.7070993E2,2.065574E1,4.934255E1,1.6820177E1,3.482244E3,9.203929E1,2.550866E2,1.5623322E1,7.6723223E0,1.29834175E1,2.2675507E1,2.666704E1,9.38555E0,7.434627E0,9.6127576E2,2.520968E3,1.7485474E1,7.455382E1,1.3401223E1,2.4168538E2,1.4702837E0,1.1513134E1,1.598506E1,6.690447E0,4.2153277E0,5.1702213E0,7.7657265E1,8.8361847E2,1.2217809E3,1.2991873E3,6.3827367E0,1.1102737E1,2.454633E1,5.000749E1,1.0438164E1,2.96306E0,1.262874E1,2.2905664E2,2.714828E0,8.798306E0],"tree_param":{"num_deleted":"0","num_feature":"5","num_nodes":"45","size_leaf_vector":"1"}},{"base_weights":[-4.114266E-4,-4.413679E-2,5.461871E-1,-1.1613644E0,-2.340976E-2,4.8580548E-1,1.0525895E0,-1.3419719E0,-5.8976537E-1,-1.4842593E-3,-8.500026E-1,5.411189E-1,-7.1189664E-2,1.1691469E0,-4.8856664E-2,-1.0611352E0,-7.67168E-2,1.3474889E-1,-7.114076E-2,-2.1459126E-1,7.980541E-2,4.8706925E-1,-9.715728E-1,4.3064404E-1,7.104567E-1,6.7373835E-2,8.6761355E-1,-7.5186774E-2,1.8986015E-3,-1.1675986E-2,2.1221893E-2,-3.4663924E-3,-1.9941576E-2,1.2091308E-2,-3.627993E-3,-5.708455E-2,6.196156E-2,-3.8924705E-2,-7.689387E-2,2.4446273E-2,-4.531443E-2,5.7986505E-2,2.387194E-2,-4.735785E-2,5.783934E-2],"categories":[],"categories_nodes":[],"categories_segments":[],"categories_sizes":[],"default_left":[0,0,0,0,0,0,0,0,0,0,0,0,0,0,0,0,0,0,0,0,0,0,0,0,0,0,0,0,0,0,0,0,0,0,0,0,0,0,0,0,0,0,0,0,0],"id":6,"left_children":[1,3,5,7,9,11,13,15,17,19,21,23,-1,25,-1,27,-1,29,-1,31,33,35,37,39,41,-1,43,-1,-1,-1,-1,-1,-1,-1,-1,-1,-1,-1,-1,-1,-1,-1,-1,-1,-1],"loss_changes":[9.392034E1,8.42313E1,8.3888855E0,6.048279E0,6.476021E1,2.843618E1,8.275726E0,1.0493546E0,1.0869759E1,6.0337505E1,1.5481728E1,4.4695587E0,0E0,3.8868332E-1,0E0,1.1435675E1,0E0,1.2060428E0,0E0,2.5711647E1,6.2258743E1,1.1658462E1,8.093651E0,1.2678244E1,9.836311E0,0E0,8.219037E0,0E0,0E0,0E0,0E0,0E0,0E0,0E0,0E0,0E0,0E0,0E0,0E0,0E0,0E0,0E0,0E0,0E0,0E0],"parents":[2147483647,0,0,1,1,2,2,3,3,4,4,5,5,6,6,7,7,8,8,9,9,10,10,11,11,13,13,15,15,17,17,19,19,20,20,21,21,22,22,23,23,24,24,26,26],"right_children":[2,4,6,8,10,12,14,16,18,20,22,24,-1,26,-1,28,-1,30,-1,32,34,36,38,40,42,-1,44,-1,-1,-1,-1,-1,-1,-1,-1,-1,-1,-1,-1,-1,-1,-1,-1,-1,-1],"split_conditions":[5E0,1.1E1,1.1729532E3,1.3826749E3,2E1,1.1574882E3,1.2383611E3,3.0081293E2,1.5012062E3,1.5E1,1.3381538E2,2.4843274E2,-7.1189664E-2,1.1574882E3,-4.8856664E-2,2.8616714E2,-7.67168E-2,1.4687771E3,-7.114076E-2,1.4E1,1.8E1,1.2321806E2,2.5848007E2,2.4519234E2,2.529521E2,6.7373835E-2,1.2358141E3,-7.5186774E-2,1.8986015E-3,-1.1675986E-2,2.1221893E-2,-3.4663924E-3,-1.9941576E-2,1.2091308E-2,-3.627993E-3,-5.708455E-2,6.196156E-2,-3.8924705E-2,-7.689387E-2,2.4446273E-2,-4.531443E-2,5.7986505E-2,2.387194E-2,-4.735785E-2,5.783934E-2],"split_indices":[3,2,4,0,2,0,4,4,0,2,4,4,0,0,0,0,0,4,0,2,2,0,0,4,0,0,0,0,0,0,0,0,0,0,0,0,0,0,0,0,0,0,0,0,0],"split_type":[0,0,0,0,0,0,0,0,0,0,0,0,0,0,0,0,0,0,0,0,0,0,0,0,0,0,0,0,0,0,0,0,0,0,0,0,0,0,0,0,0,0,0,0,0],"sum_hessian":[3.9276768E3,3.6376045E3,2.9007233E2,6.5254E1,3.5723503E3,2.609204E2,2.9151905E1,4.8562138E1,1.6691862E1,3.4810178E3,9.1332726E1,2.542718E2,6.6486063E0,2.7969723E1,1.1821828E0,2.2390314E1,2.6171822E1,9.375828E0,7.316035E0,9.60736E2,2.5202817E3,7.361533E0,8.39712E1,1.5602513E2,9.824667E1,1.5395772E1,1.2573952E1,1.5699949E1,6.6903653E0,4.2134066E0,5.1624207E0,5.3796E2,4.2277597E2,1.2211547E3,1.2991271E3,2.1619925E0,5.1995406E0,6.4391815E1,1.9579378E1,1.5011539E2,5.9097433E0,3.2195232E1,6.6051445E1,1.4154685E0,1.1158483E1],"tree_param":{"num_deleted":"0","num_feature":"5","num_nodes":"45","size_leaf_vector":"1"}},{"base_weights":[-4.8214E-4,-4.2075023E-2,5.212067E-1,-1.1239659E0,-2.22939E-2,4.629764E-1,1.0146397E0,-1.3010218E0,-5.685579E-1,-1.415185E-3,-8.1645936E-1,5.158018E-1,-6.913305E-2,1.1288747E0,-4.7735836E-2,-1.0254339E0,-7.454979E-2,1.290731E-1,-6.9125E-2,-2.0400758E-1,7.584263E-2,5.2282503E-3,-1.0074991E0,1.0725014E0,4.809229E-1,6.5230414E-2,8.33686E-1,-7.305663E-2,1.8160364E-3,3.1306855E-2,-5.2641374E-3,-6.241686E-3,-2.6620438E-2,1.1493857E-2,-3.446918E-3,-7.238515E-2,4.4192035E-2,-8.0580726E-2,-3.430972E-2,6.501496E-2,7.745327E-3,-7.539744E-2,2.622865E-2,-4.62957E-2,5.5754807E-2],"categories":[],"categories_nodes":[],"categories_segments":[],"categories_sizes":[],"default_left":[0,0,0,0,0,0,0,0,0,0,0,0,0,0,0,0,0,0,0,0,0,0,0,0,0,0,0,0,0,0,0,0,0,0,0,0,0,0,0,0,0,0,0,0,0],"id":7,"left_children":[1,3,5,7,9,11,13,15,17,19,21,23,-1,25,-1,27,-1,29,-1,31,33,35,37,39,41,-1,43,-1,-1,-1,-1,-1,-1,-1,-1,-1,-1,-1,-1,-1,-1,-1,-1,-1,-1],"loss_changes":[8.517349E1,7.777734E1,7.858322E0,5.6774826E0,5.921341E1,2.6168648E1,7.771755E0,1.0210571E0,1.0144113E1,5.449511E1,1.4365406E1,4.4269104E0,0E0,3.9504623E-1,0E0,1.0728685E1,0E0,1.2733434E0,0E0,2.4925156E1,5.6226856E1,2.4578869E1,1.3302322E1,2.765768E0,2.1744461E1,0E0,7.6857004E0,0E0,0E0,0E0,0E0,0E0,0E0,0E0,0E0,0E0,0E0,0E0,0E0,0E0,0E0,0E0,0E0,0E0,0E0],"parents":[2147483647,0,0,1,1,2,2,3,3,4,4,5,5,6,6,7,7,8,8,9,9,10,10,11,11,13,13,15,15,17,17,19,19,20,20,21,21,22,22,23,23,24,24,26,26],"right_children":[2,4,6,8,10,12,14,16,18,20,22,24,-1,26,-1,28,-1,30,-1,32,34,36,38,40,42,-1,44,-1,-1,-1,-1,-1,-1,-1,-1,-1,-1,-1,-1,-1,-1,-1,-1,-1,-1],"split_conditions":[5E0,1.1E1,1.1729532E3,1.3826749E3,2E1,1.1574882E3,1.2383611E3,3.0081293E2,1.5012062E3,1.5E1,1.5080223E2,1.07413055E2,-6.913305E-2,1.1574882E3,-4.7735836E-2,2.8616714E2,-7.454979E-2,1.3290347E3,-6.9125E-2,1E0,1.8E1,1.2418794E2,2.2078938E2,1.24657776E2,1.24657776E2,6.5230414E-2,1.2358141E3,-7.305663E-2,1.8160364E-3,3.1306855E-2,-5.2641374E-3,-6.241686E-3,-2.6620438E-2,1.1493857E-2,-3.446918E-3,-7.238515E-2,4.4192035E-2,-8.0580726E-2,-3.430972E-2,6.501496E-2,7.745327E-3,-7.539744E-2,2.622865E-2,-4.62957E-2,5.5754807E-2],"split_indices":[3,2,4,0,2,0,4,4,0,2,4,0,0,0,0,0,0,4,0,1,2,0,4,4,4,0,0,0,0,0,0,0,0,0,0,0,0,0,0,0,0,0,0,0,0],"split_type":[0,0,0,0,0,0,0,0,0,0,0,0,0,0,0,0,0,0,0,0,0,0,0,0,0,0,0,0,0,0,0,0,0,0,0,0,0,0,0,0,0,0,0,0,0],"sum_hessian":[3.9232993E3,3.6344534E3,2.888461E2,6.425632E1,3.570197E3,2.600909E2,2.8755175E1,4.770591E1,1.6550407E1,3.4797166E3,9.048042E1,2.5355428E2,6.536645E0,2.7582026E1,1.1731493E0,2.207717E1,2.5628738E1,9.36504E0,7.1853676E0,9.60187E2,2.5195295E3,1.7251606E1,7.322882E1,1.3195329E1,2.4035895E2,1.5145775E1,1.2436251E1,1.5386895E1,6.6902742E0,2.4650283E0,6.9000115E0,7.7477704E2,1.8540996E2,1.2204684E3,1.2990612E3,6.256964E0,1.0994641E1,2.4030666E1,4.919815E1,1.0236894E1,2.958435E0,4.44147E0,2.3591748E2,1.398907E0,1.1037344E1],"tree_param":{"num_deleted":"0","num_feature":"5","num_nodes":"45","size_leaf_vector":"1"}},{"base_weights":[-5.6507613E-4,-4.012205E-2,4.9765176E-1,-1.0888222E0,-2.1245854E-2,4.4142526E-1,9.792697E-1,-1.2634498E0,-5.470929E-1,-1.3520179E-3,-7.8489935E-1,4.9190742E-1,-6.724602E-2,1.0913993E0,-4.6665937E-2,-9.922101E-1,-7.258798E-2,1.2506983E-1,-6.727564E-2,7.3344864E-2,-1.9365017E-1,4.6508482E-1,-8.9799047E-1,1.036411E0,4.5811304E-1,6.32483E-2,8.0185205E-1,-6.115505E-2,4.0162932E-2,3.0166646E-2,-5.0330623E-3,-5.9316857E-3,7.962992E-3,-2.5334269E-2,-5.9756874E-3,-5.3792905E-2,5.87123E-2,-3.533598E-2,-7.352168E-2,6.299395E-2,7.458415E-3,-3.737981E-2,2.6399186E-2,-4.52826E-2,5.3803004E-2],"categories":[],"categories_nodes":[],"categories_segments":[],"categories_sizes":[],"default_left":[0,0,0,0,0,0,0,0,0,0,0,0,0,0,0,0,0,0,0,0,0,0,0,0,0,0,0,0,0,0,0,0,0,0,0,0,0,0,0,0,0,0,0,0,0],"id":8,"left_children":[1,3,5,7,9,11,13,15,17,19,21,23,-1,25,-1,27,-1,29,-1,31,33,35,37,39,41,-1,43,-1,-1,-1,-1,-1,-1,-1,-1,-1,-1,-1,-1,-1,-1,-1,-1,-1,-1],"loss_changes":[7.7267914E1,7.187882E1,7.3772583E0,5.3824463E0,5.4219788E1,2.4113693E1,7.3081913E0,1.0004501E0,9.514153E0,4.999293E1,1.3227062E1,4.192623E0,0E0,4.011116E-1,0E0,1.0410074E1,0E0,1.1802468E0,0E0,4.136426E1,2.2536625E1,1.0198791E1,8.096519E0,2.5938787E0,2.0665218E1,0E0,7.1956577E0,0E0,0E0,0E0,0E0,0E0,0E0,0E0,0E0,0E0,0E0,0E0,0E0,0E0,0E0,0E0,0E0,0E0,0E0],"parents":[2147483647,0,0,1,1,2,2,3,3,4,4,5,5,6,6,7,7,8,8,9,9,10,10,11,11,13,13,15,15,17,17,19,19,20,20,21,21,22,22,23,23,24,24,26,26],"right_children":[2,4,6,8,10,12,14,16,18,20,22,24,-1,26,-1,28,-1,30,-1,32,34,36,38,40,42,-1,44,-1,-1,-1,-1,-1,-1,-1,-1,-1,-1,-1,-1,-1,-1,-1,-1,-1,-1],"split_conditions":[5E0,1.1E1,1.1729532E3,1.3826749E3,2E1,1.1574882E3,1.2383611E3,3.0081293E2,1.5012062E3,1E0,1.3381538E2,1.07413055E2,-6.724602E-2,1.1574882E3,-4.6665937E-2,2.892645E2,-7.258798E-2,1.3290347E3,-6.727564E-2,1.5E1,1.5E1,1.2321806E2,2.5848007E2,1.24657776E2,1.2321806E2,6.32483E-2,1.2358141E3,-6.115505E-2,4.0162932E-2,3.0166646E-2,-5.0330623E-3,-5.9316857E-3,7.962992E-3,-2.5334269E-2,-5.9756874E-3,-5.3792905E-2,5.87123E-2,-3.533598E-2,-7.352168E-2,6.299395E-2,7.458415E-3,-3.737981E-2,2.6399186E-2,-4.52826E-2,5.3803004E-2],"split_indices":[3,2,4,0,2,0,4,4,0,1,4,0,0,0,0,4,0,4,0,2,2,0,0,4,0,0,0,0,0,0,0,0,0,0,0,0,0,0,0,0,0,0,0,0,0],"split_type":[0,0,0,0,0,0,0,0,0,0,0,0,0,0,0,0,0,0,0,0,0,0,0,0,0,0,0,0,0,0,0,0,0,0,0,0,0,0,0,0,0,0,0,0,0],"sum_hessian":[3.918634E3,3.6312432E3,2.8739072E2,6.320308E1,3.5680403E3,2.5906296E2,2.8327765E1,4.678846E1,1.6414618E1,3.478426E3,8.961424E1,2.5264775E2,6.4152017E0,2.7164545E1,1.1632196E0,2.1741383E1,2.5047077E1,9.369828E0,7.0447893E0,2.5057166E3,9.727095E2,7.176848E0,8.243739E1,1.3030411E1,2.3961734E2,1.4877551E1,1.2286994E1,1.954655E1,2.194833E0,2.4680026E0,6.901826E0,7.7456226E2,1.7311542E3,1.8513925E2,7.8757025E2,2.0989447E0,5.0779033E0,6.3466007E1,1.8971388E1,1.0073281E1,2.9571302E0,1.2593881E1,2.2702347E2,1.3815068E0,1.0905487E1],"tree_param":{"num_deleted":"0","num_feature":"5","num_nodes":"45","size_leaf_vector":"1"}},{"base_weights":[-6.113553E-4,-3.823601E-2,4.7551313E-1,-1.0543983E0,-2.0237604E-2,4.211923E-1,9.4615465E-1,-1.2262563E0,-5.2683574E-1,-1.2940521E-3,-7.55033E-1,4.6945435E-1,-6.550712E-2,1.056365E0,-4.5643214E-2,-9.564847E-1,-7.0803955E-2,1.2119827E-1,-6.5571666E-2,6.969298E-2,-1.8405174E-1,1.2616977E-2,-9.344443E-1,7.522009E-1,4.0509415E-1,6.1406333E-2,7.7186877E-1,-6.963343E-2,3.1007838E-3,-1.2482764E-2,2.077902E-2,-5.637108E-3,7.566407E-3,-2.411659E-2,-5.676813E-3,-6.9007866E-2,4.224274E-2,-7.684228E-2,-3.0874003E-2,2.1385383E-2,5.1246602E-2,-7.6408245E-2,2.2401048E-2,-4.431474E-2,5.1968057E-2],"categories":[],"categories_nodes":[],"categories_segments":[],"categories_sizes":[],"default_left":[0,0,0,0,0,0,0,0,0,0,0,0,0,0,0,0,0,0,0,0,0,0,0,0,0,0,0,0,0,0,0,0,0,0,0,0,0,0,0,0,0,0,0,0,0],"id":9,"left_children":[1,3,5,7,9,11,13,15,17,19,21,23,-1,25,-1,27,-1,29,-1,31,33,35,37,39,41,-1,43,-1,-1,-1,-1,-1,-1,-1,-1,-1,-1,-1,-1,-1,-1,-1,-1,-1,-1],"loss_changes":[7.015638E1,6.63589E1,6.933983E0,5.0792465E0,4.9654682E1,2.225111E1,6.8804455E0,1.0460892E0,8.9395075E0,4.514291E1,1.2359493E1,4.292904E0,0E0,4.0675354E-1,0E0,1.0056604E1,0E0,1.2362217E0,0E0,3.73422E1,2.0420273E1,2.199641E1,1.2929264E1,3.604187E0,1.794381E1,0E0,6.744192E0,0E0,0E0,0E0,0E0,0E0,0E0,0E0,0E0,0E0,0E0,0E0,0E0,0E0,0E0,0E0,0E0,0E0,0E0],"parents":[2147483647,0,0,1,1,2,2,3,3,4,4,5,5,6,6,7,7,8,8,9,9,10,10,11,11,13,13,15,15,17,17,19,19,20,20,21,21,22,22,23,23,24,24,26,26],"right_children":[2,4,6,8,10,12,14,16,18,20,22,24,-1,26,-1,28,-1,30,-1,32,34,36,38,40,42,-1,44,-1,-1,-1,-1,-1,-1,-1,-1,-1,-1,-1,-1,-1,-1,-1,-1,-1,-1],"split_conditions":[5E0,1.1E1,1.1729532E3,1.3826749E3,2E1,1.1574882E3,1.2383611E3,3.0081293E2,1.5012062E3,1E0,1.5080223E2,1.4463577E2,-6.550712E-2,1.1574882E3,-4.5643214E-2,2.8616714E2,-7.0803955E-2,1.4687771E3,-6.5571666E-2,1.5E1,1.5E1,1.2418794E2,2.2078938E2,1.2896614E2,1.2184E2,6.1406333E-2,1.2358141E3,-6.963343E-2,3.1007838E-3,-1.2482764E-2,2.077902E-2,-5.637108E-3,7.566407E-3,-2.411659E-2,-5.676813E-3,-6.9007866E-2,4.224274E-2,-7.684228E-2,-3.0874003E-2,2.1385383E-2,5.1246602E-2,-7.6408245E-2,2.2401048E-2,-4.431474E-2,5.1968057E-2],"split_indices":[3,2,4,0,2,0,4,4,0,1,4,4,0,0,0,0,0,4,0,2,2,0,4,4,0,0,0,0,0,0,0,0,0,0,0,0,0,0,0,0,0,0,0,0,0],"split_type":[0,0,0,0,0,0,0,0,0,0,0,0,0,0,0,0,0,0,0,0,0,0,0,0,0,0,0,0,0,0,0,0,0,0,0,0,0,0,0,0,0,0,0,0,0],"sum_hessian":[3.9142686E3,3.6284575E3,2.858109E2,6.2147068E1,3.5663105E3,2.579353E2,2.7875622E1,4.587765E1,1.6269417E1,3.4776558E3,8.86547E1,2.5164926E2,6.2860355E0,2.6723125E1,1.1524963E0,2.1442678E1,2.4434973E1,9.373201E0,6.8962154E0,2.5052004E3,9.724553E2,1.6970863E1,7.168384E1,4.467893E1,2.0697034E2,1.4594814E1,1.2128311E1,1.4755921E1,6.686757E0,4.215092E0,5.1581087E0,7.743443E2,1.7308562E3,1.8482146E2,7.876339E2,6.1014833E0,1.0869381E1,2.3387148E1,4.8296688E1,2.15761E1,2.3102827E1,3.7442477E0,2.0322609E2,1.3633945E0,1.0764916E1],"tree_param":{"num_deleted":"0","num_feature":"5","num_nodes":"45","size_leaf_vector":"1"}},{"base_weights":[-6.9187937E-4,-3.64719E-2,4.5404872E-1,-1.024312E0,-1.9289495E-2,4.015259E-1,9.150204E-1,-1.19411E0,-5.089796E-1,-1.2386367E-3,-7.269756E-1,4.476289E-1,-6.389822E-2,1.0234717E0,-4.466426E-2,-9.2728204E-1,-6.917491E-2,1.1606691E-1,-6.3995294E-2,6.6223964E-2,-1.7493941E-1,-5.2830267E-1,-7.067337E-2,3.4172025E-1,6.106999E-1,6.9709945E-1,5.8373865E-2,-5.7920378E-2,3.9318904E-2,2.9527491E-2,-5.3588445E-3,-5.3571775E-3,7.189727E-3,-2.2962451E-2,-5.3929943E-3,-3.0063419E-2,7.8225166E-2,1.9921277E-2,-4.671126E-2,5.248422E-2,1.9262077E-2,5.727423E-2,-8.726984E-3],"categories":[],"categories_nodes":[],"categories_segments":[],"categories_sizes":[],"default_left":[0,0,0,0,0,0,0,0,0,0,0,0,0,0,0,0,0,0,0,0,0,0,0,0,0,0,0,0,0,0,0,0,0,0,0,0,0,0,0,0,0,0,0],"id":10,"left_children":[1,3,5,7,9,11,13,15,17,19,21,23,-1,25,-1,27,-1,29,-1,31,33,35,-1,37,39,41,-1,-1,-1,-1,-1,-1,-1,-1,-1,-1,-1,-1,-1,-1,-1,-1,-1],"loss_changes":[6.3647625E1,6.153376E1,6.541092E0,4.8156815E0,4.5545677E1,2.054385E1,6.484646E0,1.0354462E0,8.390245E0,4.0765427E1,1.1348145E1,4.1397896E0,0E0,4.6749115E-1,0E0,9.655123E0,0E0,1.1609346E0,0E0,3.371189E1,1.850968E1,1.1686878E1,0E0,1.1580881E1,9.281853E0,4.432036E0,0E0,0E0,0E0,0E0,0E0,0E0,0E0,0E0,0E0,0E0,0E0,0E0,0E0,0E0,0E0,0E0,0E0],"parents":[2147483647,0,0,1,1,2,2,3,3,4,4,5,5,6,6,7,7,8,8,9,9,10,10,11,11,13,13,15,15,17,17,19,19,20,20,21,21,23,23,24,24,25,25],"right_children":[2,4,6,8,10,12,14,16,18,20,22,24,-1,26,-1,28,-1,30,-1,32,34,36,-1,38,40,42,-1,-1,-1,-1,-1,-1,-1,-1,-1,-1,-1,-1,-1,-1,-1,-1,-1],"split_conditions":[5E0,1.1E1,1.1729532E3,1.3826749E3,2E1,1.1574882E3,1.2383611E3,3.0081293E2,1.5012062E3,1E0,2.5848007E2,2.4843274E2,-6.389822E-2,1.1911584E3,-4.466426E-2,3.693831E2,-6.917491E-2,1.3290347E3,-6.3995294E-2,1.5E1,1.5E1,2.9318176E2,-7.067337E-2,2.4519234E2,2.529521E2,1.1531069E3,5.8373865E-2,-5.7920378E-2,3.9318904E-2,2.9527491E-2,-5.3588445E-3,-5.3571775E-3,7.189727E-3,-2.2962451E-2,-5.3929943E-3,-3.0063419E-2,7.8225166E-2,1.9921277E-2,-4.671126E-2,5.248422E-2,1.9262077E-2,5.727423E-2,-8.726984E-3],"split_indices":[3,2,4,0,2,0,4,4,0,1,0,4,0,4,0,0,0,4,0,2,2,4,0,4,0,0,0,0,0,0,0,0,0,0,0,0,0,0,0,0,0,0,0],"split_type":[0,0,0,0,0,0,0,0,0,0,0,0,0,0,0,0,0,0,0,0,0,0,0,0,0,0,0,0,0,0,0,0,0,0,0,0,0,0,0,0,0,0,0],"sum_hessian":[3.9097935E3,3.6254543E3,2.8433917E2,6.098062E1,3.5644736E3,2.5693518E2,2.7403982E1,4.4876873E1,1.6103745E1,3.4767932E3,8.768037E1,2.5078448E2,6.1507063E0,2.6262907E1,1.1410749E0,2.1077324E1,2.379955E1,9.362402E0,6.7413435E0,2.5046472E3,9.721461E2,6.937313E1,1.8307238E1,1.5391673E2,9.6867744E1,9.828502E0,1.6434406E1,1.8857925E1,2.219399E0,2.4691503E0,6.8932514E0,7.741246E2,1.7305226E3,1.844648E2,7.8768134E2,6.772461E1,1.6485214E0,1.4802594E2,5.8907933E0,3.1628632E1,6.523911E1,6.282507E0,3.5459952E0],"tree_param":{"num_deleted":"0","num_feature":"5","num_nodes":"43","size_leaf_vector":"1"}},{"base_weights":[-7.0266915E-4,-3.474213E-2,4.3381286E-1,-9.938854E-1,-1.8355254E-2,3.829348E-1,8.8584644E-1,-1.16168E0,-4.9065256E-1,-1.185746E-3,-6.975848E-1,4.2698187E-1,-6.2403865E-2,9.9252963E-1,-4.3725993E-2,-8.952298E-1,-6.768163E-2,1.1256255E-1,-6.253136E-2,6.2928334E-2,-1.6628666E-1,4.7061154E-1,-8.0437875E-1,9.7285736E-1,3.9375126E-1,7.077196E-1,5.7909813E-2,-5.644862E-2,4.09998E-2,-1.2591039E-2,2.0155214E-2,-5.091149E-3,6.8319114E-3,4.1549588E-3,-1.18370745E-2,-5.0222494E-2,5.6657713E-2,-3.0972902E-2,-6.8996154E-2,5.992631E-2,5.449671E-3,-7.394044E-2,2.1770196E-2,4.8752587E-2,1.0175961E-2],"categories":[],"categories_nodes":[],"categories_segments":[],"categories_sizes":[],"default_left":[0,0,0,0,0,0,0,0,0,0,0,0,0,0,0,0,0,0,0,0,0,0,0,0,0,0,0,0,0,0,0,0,0,0,0,0,0,0,0,0,0,0,0,0,0],"id":11,"left_children":[1,3,5,7,9,11,13,15,17,19,21,23,-1,25,-1,27,-1,29,-1,31,33,35,37,39,41,43,-1,-1,-1,-1,-1,-1,-1,-1,-1,-1,-1,-1,-1,-1,-1,-1,-1,-1,-1],"loss_changes":[5.779386E1,5.6934654E1,6.189335E0,4.568138E0,4.1559364E1,1.8989735E1,6.1182804E0,1.0847626E0,7.90976E0,3.6814003E1,1.1339718E1,4.168209E0,0E0,4.4613838E-1,0E0,9.648003E0,0E0,1.1988736E0,0E0,3.0434917E1,1.7112036E1,8.946898E0,7.7522507E0,2.5435333E0,1.9221458E1,1.4779434E0,0E0,0E0,0E0,0E0,0E0,0E0,0E0,0E0,0E0,0E0,0E0,0E0,0E0,0E0,0E0,0E0,0E0,0E0,0E0],"parents":[2147483647,0,0,1,1,2,2,3,3,4,4,5,5,6,6,7,7,8,8,9,9,10,10,11,11,13,13,15,15,17,17,19,19,20,20,21,21,22,22,23,23,24,24,25,25],"right_children":[2,4,6,8,10,12,14,16,18,20,22,24,-1,26,-1,28,-1,30,-1,32,34,36,38,40,42,44,-1,-1,-1,-1,-1,-1,-1,-1,-1,-1,-1,-1,-1,-1,-1,-1,-1,-1,-1],"split_conditions":[5E0,1.1E1,1.1729532E3,1.3826749E3,2E1,1.1574882E3,1.2383611E3,3.0081293E2,1.5012062E3,1E0,1.3381538E2,1.07413055E2,-6.2403865E-2,1.1955608E3,-4.3725993E-2,2.892645E2,-6.768163E-2,1.4687771E3,-6.253136E-2,1.5E1,1.8092584E2,1.2321806E2,2.5848007E2,1.24657776E2,1.24657776E2,1.1785895E3,5.7909813E-2,-5.644862E-2,4.09998E-2,-1.2591039E-2,2.0155214E-2,-5.091149E-3,6.8319114E-3,4.1549588E-3,-1.18370745E-2,-5.0222494E-2,5.6657713E-2,-3.0972902E-2,-6.8996154E-2,5.992631E-2,5.449671E-3,-7.394044E-2,2.1770196E-2,4.8752587E-2,1.0175961E-2],"split_indices":[3,2,4,0,2,0,4,4,0,1,4,0,0,4,0,4,0,4,0,2,0,0,0,4,4,4,0,0,0,0,0,0,0,0,0,0,0,0,0,0,0,0,0,0,0],"split_type":[0,0,0,0,0,0,0,0,0,0,0,0,0,0,0,0,0,0,0,0,0,0,0,0,0,0,0,0,0,0,0,0,0,0,0,0,0,0,0,0,0,0,0,0,0],"sum_hessian":[3.9054336E3,3.622566E3,2.828677E2,5.9849552E1,3.5627163E3,2.559111E2,2.6956612E1,4.390254E1,1.5947011E1,3.4758557E3,8.686065E1,2.4990051E2,6.0105953E0,2.5827568E1,1.1290436E0,2.0755514E1,2.3147026E1,9.36534E0,6.581671E0,2.5040645E3,9.7179126E2,6.9901485E0,7.98705E1,1.2717383E1,2.3718314E2,1.1437112E1,1.4390456E1,1.8567078E1,2.1884367E0,4.2138305E0,5.15151E0,7.7390454E2,1.7301599E3,2.1402763E2,7.577636E2,2.0066228E0,4.9835258E0,6.201996E1,1.7850536E1,9.776142E0,2.9412415E0,4.410244E0,2.3277289E2,6.8639297E0,4.5731826E0],"tree_param":{"num_deleted":"0","num_feature":"5","num_nodes":"45","size_leaf_vector":"1"}},{"base_weights":[-7.33127E-4,-3.3113495E-2,4.1460443E-1,-9.6556205E-1,-1.7480152E-2,3.653129E-1,8.571821E-1,-1.1311274E0,-4.7454083E-1,-1.1283732E-3,-6.719926E-1,4.0742606E-1,-6.101085E-2,9.619886E-1,-4.2825613E-2,-8.6461055E-1,-6.630788E-2,1.0778923E-1,-6.116692E-2,-1.609705E-1,5.9711214E-2,4.6173614E-2,-8.4282017E-1,6.871223E-1,3.442088E-1,5.68549E-2,6.8233836E-1,-6.553372E-2,5.294318E-3,2.8918518E-2,-5.6493892E-3,-1.1501443E-3,-1.6826106E-2,1.0247528E-2,-3.8294804E-3,-6.5348014E-2,4.1663744E-2,-7.285248E-2,-2.6212608E-2,2.3924408E-2,5.5008736E-2,-7.5039774E-2,1.928872E-2,-4.4244308E-2,4.744987E-2],"categories":[],"categories_nodes":[],"categories_segments":[],"categories_sizes":[],"default_left":[0,0,0,0,0,0,0,0,0,0,0,0,0,0,0,0,0,0,0,0,0,0,0,0,0,0,0,0,0,0,0,0,0,0,0,0,0,0,0,0,0,0,0,0,0],"id":12,"left_children":[1,3,5,7,9,11,13,15,17,19,21,23,-1,25,-1,27,-1,29,-1,31,33,35,37,39,41,-1,43,-1,-1,-1,-1,-1,-1,-1,-1,-1,-1,-1,-1,-1,-1,-1,-1,-1,-1],"loss_changes":[5.2489502E1,5.276204E1,5.8447E0,4.315281E0,3.8120728E1,1.757246E1,5.7711143E0,1.1358414E0,7.4455132E0,3.381398E1,1.0689949E1,4.1814156E0,0E0,5.182762E-1,0E0,9.415142E0,0E0,1.1410724E0,0E0,2.321E1,4.9873E1,1.986683E1,1.2969891E1,3.3566017E0,1.6361607E1,0E0,6.137562E0,0E0,0E0,0E0,0E0,0E0,0E0,0E0,0E0,0E0,0E0,0E0,0E0,0E0,0E0,0E0,0E0,0E0,0E0],"parents":[2147483647,0,0,1,1,2,2,3,3,4,4,5,5,6,6,7,7,8,8,9,9,10,10,11,11,13,13,15,15,17,17,19,19,20,20,21,21,22,22,23,23,24,24,26,26],"right_children":[2,4,6,8,10,12,14,16,18,20,22,24,-1,26,-1,28,-1,30,-1,32,34,36,38,40,42,-1,44,-1,-1,-1,-1,-1,-1,-1,-1,-1,-1,-1,-1,-1,-1,-1,-1,-1,-1],"split_conditions":[5E0,1.1E1,1.1729532E3,1.3826749E3,2E1,1.1574882E3,1.2383611E3,3.0081293E2,1.5012062E3,1.5E1,1.5080223E2,1.4463577E2,-6.101085E-2,1.1574882E3,-4.2825613E-2,2.8616714E2,-6.630788E-2,1.3290347E3,-6.116692E-2,1.4E1,1.8E1,1.2418794E2,2.2078938E2,1.4187909E2,1.2184E2,5.68549E-2,1.2358141E3,-6.553372E-2,5.294318E-3,2.8918518E-2,-5.6493892E-3,-1.1501443E-3,-1.6826106E-2,1.0247528E-2,-3.8294804E-3,-6.5348014E-2,4.1663744E-2,-7.285248E-2,-2.6212608E-2,2.3924408E-2,5.5008736E-2,-7.5039774E-2,1.928872E-2,-4.4244308E-2,4.744987E-2],"split_indices":[3,2,4,0,2,0,4,4,0,2,4,4,0,0,0,0,0,4,0,2,2,0,4,0,0,0,0,0,0,0,0,0,0,0,0,0,0,0,0,0,0,0,0,0,0],"split_type":[0,0,0,0,0,0,0,0,0,0,0,0,0,0,0,0,0,0,0,0,0,0,0,0,0,0,0,0,0,0,0,0,0,0,0,0,0,0,0,0,0,0,0,0,0],"sum_hessian":[3.9008977E3,3.6196262E3,2.8127148E2,5.8683678E1,3.5609424E3,2.5472702E2,2.654446E1,4.2911068E1,1.5772611E1,3.4751248E3,8.581781E1,2.488601E2,5.866918E0,2.5427977E1,1.1164837E0,2.0428247E1,2.2482819E1,9.354099E0,6.418511E0,9.57601E2,2.5175237E3,1.6630829E1,6.918698E1,4.405877E1,2.0480133E2,1.37512045E1,1.1676772E1,1.3755412E1,6.6728363E0,2.4698877E0,6.884212E0,5.368314E2,4.2076956E2,1.218554E3,1.2989696E3,5.87332E0,1.0757507E1,2.2408167E1,4.6778816E1,3.070699E1,1.3351778E1,3.7387757E0,2.0106256E2,1.3607676E0,1.0316005E1],"tree_param":{"num_deleted":"0","num_feature":"5","num_nodes":"45","size_leaf_vector":"1"}},{"base_weights":[-7.921963E-4,-3.159235E-2,3.961095E-1,-9.3992645E-1,-1.6663894E-2,3.484191E-1,8.3050746E-1,-1.1048527E0,-4.5782128E-1,-1.0761293E-3,-6.479343E-1,3.8867006E-1,-5.970779E-2,9.3389124E-1,-4.1960567E-2,-8.39923E-1,-6.5039776E-2,1.0462105E-1,-5.9890773E-2,6.003277E-2,-1.5841247E-1,-4.5676252E-1,-6.677589E-2,9.298917E-1,3.5626087E-1,5.5404205E-2,6.579418E-1,-5.3741094E-2,3.9734405E-2,-1.2677729E-2,1.956971E-2,6.7614685E-3,-4.2011226E-3,-7.3812054E-3,-8.437984E-2,-2.647005E-2,7.736667E-2,5.7598468E-2,4.993833E-3,-7.240557E-2,1.9829147E-2,-4.332156E-2,4.594765E-2],"categories":[],"categories_nodes":[],"categories_segments":[],"categories_sizes":[],"default_left":[0,0,0,0,0,0,0,0,0,0,0,0,0,0,0,0,0,0,0,0,0,0,0,0,0,0,0,0,0,0,0,0,0,0,0,0,0,0,0,0,0,0,0],"id":13,"left_children":[1,3,5,7,9,11,13,15,17,19,21,23,-1,25,-1,27,-1,29,-1,31,33,35,-1,37,39,-1,41,-1,-1,-1,-1,-1,-1,-1,-1,-1,-1,-1,-1,-1,-1,-1,-1],"loss_changes":[4.764574E1,4.902855E1,5.5252266E0,4.1426888E0,3.5023743E1,1.627414E1,5.451893E0,1.1320114E0,7.0383277E0,3.3416466E1,1.0664223E1,4.0347214E0,0E0,5.178032E-1,0E0,8.933582E0,0E0,1.1630241E0,0E0,2.7128437E1,1.5790825E1,1.0810094E1,0E0,2.3626604E0,1.7778717E1,0E0,5.769453E0,0E0,0E0,0E0,0E0,0E0,0E0,0E0,0E0,0E0,0E0,0E0,0E0,0E0,0E0,0E0,0E0],"parents":[2147483647,0,0,1,1,2,2,3,3,4,4,5,5,6,6,7,7,8,8,9,9,10,10,11,11,13,13,15,15,17,17,19,19,20,20,21,21,23,23,24,24,26,26],"right_children":[2,4,6,8,10,12,14,16,18,20,22,24,-1,26,-1,28,-1,30,-1,32,34,36,-1,38,40,-1,42,-1,-1,-1,-1,-1,-1,-1,-1,-1,-1,-1,-1,-1,-1,-1,-1],"split_conditions":[5E0,1.1E1,1.1729532E3,1.3826749E3,2E1,1.1574882E3,1.2383611E3,3.0081293E2,1.5012062E3,1E0,2.5848007E2,1.07413055E2,-5.970779E-2,1.1574882E3,-4.1960567E-2,3.693831E2,-6.5039776E-2,1.4687771E3,-5.9890773E-2,1.8E1,1.4238759E3,2.9318176E2,-6.677589E-2,1.24657776E2,1.24657776E2,5.5404205E-2,1.2358141E3,-5.3741094E-2,3.9734405E-2,-1.2677729E-2,1.956971E-2,6.7614685E-3,-4.2011226E-3,-7.3812054E-3,-8.437984E-2,-2.647005E-2,7.736667E-2,5.7598468E-2,4.993833E-3,-7.240557E-2,1.9829147E-2,-4.332156E-2,4.594765E-2],"split_indices":[3,2,4,0,2,0,4,4,0,1,0,0,0,0,0,0,0,4,0,2,0,4,0,4,4,0,0,0,0,0,0,0,0,0,0,0,0,0,0,0,0,0,0],"split_type":[0,0,0,0,0,0,0,0,0,0,0,0,0,0,0,0,0,0,0,0,0,0,0,0,0,0,0,0,0,0,0,0,0,0,0,0,0,0,0,0,0,0,0],"sum_hessian":[3.8954954E3,3.6158225E3,2.7967276E2,5.746324E1,3.5583594E3,2.5363005E2,2.6042706E1,4.1853577E1,1.5609667E1,3.4735889E3,8.477054E1,2.479093E2,5.7207456E0,2.4939236E1,1.1034704E0,2.0041933E1,2.1811642E1,9.356645E0,6.253022E0,2.5023162E3,9.7127264E2,6.763108E1,1.713946E1,1.2441895E1,2.354674E2,1.3439825E1,1.149941E1,1.782315E1,2.2187834E0,4.2118893E0,5.1447554E0,1.6441394E3,8.581768E2,9.655572E2,5.7154446E0,6.597563E1,1.6554471E0,9.509624E0,2.9322705E0,4.3837824E0,2.3108363E2,1.3420384E0,1.01573715E1],"tree_param":{"num_deleted":"0","num_feature":"5","num_nodes":"43","size_leaf_vector":"1"}},{"base_weights":[-8.3304156E-4,-3.0114144E-2,3.7857416E-1,-9.143795E-1,-1.587186E-2,3.324182E-1,8.0509263E-1,-1.0775585E0,-4.4317603E-1,-1.0482622E-3,-6.2222755E-1,3.7091443E-1,-5.8484834E-2,9.071463E-1,-4.1128542E-2,-8.1196404E-1,-6.386543E-2,1.0017617E-1,-5.8693267E-2,-1.5689583E-1,5.8269303E-2,-4.356642E-1,-6.541132E-2,6.454977E-1,3.0933008E-1,5.883715E-1,5.2642077E-2,-5.2522536E-2,4.157599E-2,2.8337393E-2,-5.9077204E-3,-5.466763E-3,-3.2711044E-2,9.619344E-3,-3.3748609E-3,-2.532123E-2,7.430479E-2,2.2141585E-2,5.241018E-2,-7.299936E-2,1.7472818E-2,5.2158248E-2,-1.1868872E-2],"categories":[],"categories_nodes":[],"categories_segments":[],"categories_sizes":[],"default_left":[0,0,0,0,0,0,0,0,0,0,0,0,0,0,0,0,0,0,0,0,0,0,0,0,0,0,0,0,0,0,0,0,0,0,0,0,0,0,0,0,0,0,0],"id":14,"left_children":[1,3,5,7,9,11,13,15,17,19,21,23,-1,25,-1,27,-1,29,-1,31,33,35,-1,37,39,41,-1,-1,-1,-1,-1,-1,-1,-1,-1,-1,-1,-1,-1,-1,-1,-1,-1],"loss_changes":[4.325402E1,4.5505875E1,5.2239227E0,3.9263802E0,3.198166E1,1.5087809E1,5.154047E0,1.1828041E0,6.641151E0,3.2127094E1,1.0296974E1,3.991356E0,0E0,5.623455E-1,0E0,8.989371E0,0E0,1.1207795E0,0E0,2.2589836E1,4.2471935E1,1.0034122E1,0E0,3.1663303E0,1.5018923E1,4.0964513E0,0E0,0E0,0E0,0E0,0E0,0E0,0E0,0E0,0E0,0E0,0E0,0E0,0E0,0E0,0E0,0E0,0E0],"parents":[2147483647,0,0,1,1,2,2,3,3,4,4,5,5,6,6,7,7,8,8,9,9,10,10,11,11,13,13,15,15,17,17,19,19,20,20,21,21,23,23,24,24,25,25],"right_children":[2,4,6,8,10,12,14,16,18,20,22,24,-1,26,-1,28,-1,30,-1,32,34,36,-1,38,40,42,-1,-1,-1,-1,-1,-1,-1,-1,-1,-1,-1,-1,-1,-1,-1,-1,-1],"split_conditions":[5E0,1.1E1,1.1729532E3,1.3826749E3,2E1,1.1574882E3,1.2383611E3,3.0081293E2,1.5012062E3,1.5E1,2.5848007E2,1.4463577E2,-5.8484834E-2,1.1911584E3,-4.1128542E-2,2.892645E2,-6.386543E-2,1.3290347E3,-5.8693267E-2,1.2233291E3,1.8E1,2.9318176E2,-6.541132E-2,1.4187909E2,1.2184E2,1.1531069E3,5.2642077E-2,-5.2522536E-2,4.157599E-2,2.8337393E-2,-5.9077204E-3,-5.466763E-3,-3.2711044E-2,9.619344E-3,-3.3748609E-3,-2.532123E-2,7.430479E-2,2.2141585E-2,5.241018E-2,-7.299936E-2,1.7472818E-2,5.2158248E-2,-1.1868872E-2],"split_indices":[3,2,4,0,2,0,4,4,0,2,0,4,0,4,0,4,0,4,0,0,2,4,0,0,0,0,0,0,0,0,0,0,0,0,0,0,0,0,0,0,0,0,0],"split_type":[0,0,0,0,0,0,0,0,0,0,0,0,0,0,0,0,0,0,0,0,0,0,0,0,0,0,0,0,0,0,0,0,0,0,0,0,0,0,0,0,0,0,0],"sum_hessian":[3.891414E3,3.6134624E3,2.779517E2,5.6275337E1,3.5571873E3,2.5241574E2,2.5535944E1,4.0844097E1,1.5431241E1,3.4732776E3,8.390961E1,2.4684273E2,5.573015E0,2.4445871E1,1.0900729E0,1.9706528E1,2.1137568E1,9.34503E0,6.0862117E0,9.5707324E2,2.5162043E3,6.72543E1,1.6655308E1,4.3483467E1,2.0335925E2,9.248639E0,1.5197231E1,1.7524395E1,2.1821332E0,2.4702628E0,6.874767E0,8.746481E2,8.242517E1,1.2174182E3,1.2987861E3,6.5576225E1,1.6780787E0,3.0322828E1,1.3160639E1,3.7250085E0,1.9963425E2,5.794137E0,3.4545023E0],"tree_param":{"num_deleted":"0","num_feature":"5","num_nodes":"43","size_leaf_vector":"1"}},{"base_weights":[-8.402323E-4,-2.8695362E-2,3.6180964E-1,-8.894376E-1,-1.5107363E-2,3.1706342E-1,7.8100485E-1,-1.051534E0,-4.2781943E-1,-1.0052854E-3,-5.97687E-1,3.538708E-1,-5.73334E-2,8.816514E-1,-4.0327426E-2,-7.8502166E-1,-6.277453E-2,9.731559E-2,-5.7565946E-2,5.7281215E-2,-1.5108398E-1,-4.15565E-1,-6.4147994E-2,2.501501E-1,5.143626E-1,6.0274565E-1,5.2496757E-2,-6.224033E-2,7.1421526E-3,-1.27448505E-2,1.901934E-2,-4.3917517E-3,6.1113755E-3,4.3150634E-3,-1.0909406E-2,-6.6497326E-2,-1.2701074E-2,1.5899062E-2,-3.740897E-2,4.7391977E-2,1.4736439E-2,4.339486E-2,5.978362E-3],"categories":[],"categories_nodes":[],"categories_segments":[],"categories_sizes":[],"default_left":[0,0,0,0,0,0,0,0,0,0,0,0,0,0,0,0,0,0,0,0,0,0,0,0,0,0,0,0,0,0,0,0,0,0,0,0,0,0,0,0,0,0,0],"id":15,"left_children":[1,3,5,7,9,11,13,15,17,19,21,23,-1,25,-1,27,-1,29,-1,31,33,35,-1,37,39,41,-1,-1,-1,-1,-1,-1,-1,-1,-1,-1,-1,-1,-1,-1,-1,-1,-1],"loss_changes":[3.9279533E1,4.2220325E1,4.9550323E0,3.7480469E0,2.921343E1,1.3998583E1,4.876277E0,1.2341194E0,6.2921286E0,3.0387966E1,9.95528E0,3.9808598E0,0E0,5.4014397E-1,0E0,8.868699E0,0E0,1.1285894E0,0E0,2.3592758E1,1.5498423E1,9.687924E0,0E0,1.0524647E1,8.8573E0,1.4019103E0,0E0,0E0,0E0,0E0,0E0,0E0,0E0,0E0,0E0,0E0,0E0,0E0,0E0,0E0,0E0,0E0,0E0],"parents":[2147483647,0,0,1,1,2,2,3,3,4,4,5,5,6,6,7,7,8,8,9,9,10,10,11,11,13,13,15,15,17,17,19,19,20,20,21,21,23,23,24,24,25,25],"right_children":[2,4,6,8,10,12,14,16,18,20,22,24,-1,26,-1,28,-1,30,-1,32,34,36,-1,38,40,42,-1,-1,-1,-1,-1,-1,-1,-1,-1,-1,-1,-1,-1,-1,-1,-1,-1],"split_conditions":[5E0,1.1E1,1.1729532E3,1.3826749E3,2E1,1.1574882E3,1.2383611E3,3.0081293E2,1.5012062E3,1E0,2.5848007E2,2.4843274E2,-5.73334E-2,1.1955608E3,-4.0327426E-2,2.8616714E2,-6.277453E-2,1.4687771E3,-5.7565946E-2,1.5E1,1.8092584E2,1.2418794E2,-6.4147994E-2,2.4455476E2,2.529521E2,1.1785895E3,5.2496757E-2,-6.224033E-2,7.1421526E-3,-1.27448505E-2,1.901934E-2,-4.3917517E-3,6.1113755E-3,4.3150634E-3,-1.0909406E-2,-6.6497326E-2,-1.2701074E-2,1.5899062E-2,-3.740897E-2,4.7391977E-2,1.4736439E-2,4.339486E-2,5.978362E-3],"split_indices":[3,2,4,0,2,0,4,4,0,1,0,4,0,4,0,0,0,4,0,2,0,0,0,4,0,4,0,0,0,0,0,0,0,0,0,0,0,0,0,0,0,0,0],"split_type":[0,0,0,0,0,0,0,0,0,0,0,0,0,0,0,0,0,0,0,0,0,0,0,0,0,0,0,0,0,0,0,0,0,0,0,0,0,0,0,0,0,0,0],"sum_hessian":[3.8863962E3,3.6100308E3,2.763655E2,5.510188E1,3.554929E3,2.5129756E2,2.5067942E1,3.9835705E1,1.5266173E1,3.4718892E3,8.303975E1,2.4587302E2,5.424547E0,2.3991589E1,1.076354E0,1.9371586E1,2.0464119E1,9.347213E0,5.9189606E0,2.5011345E3,9.7075464E2,6.68735E1,1.6166256E1,1.5090598E2,9.496704E1,1.0752539E1,1.3239049E1,1.2724588E1,6.646998E0,4.209301E0,5.137912E0,7.7318176E2,1.7279528E3,2.1387428E2,7.568804E2,8.954694E0,5.79188E1,1.4194318E2,8.9627905E0,3.082137E1,6.414567E1,6.42855E0,4.3239894E0],"tree_param":{"num_deleted":"0","num_feature":"5","num_nodes":"43","size_leaf_vector":"1"}},{"base_weights":[-8.802769E-4,-2.7387865E-2,3.458061E-1,-8.6779404E-1,-1.4407313E-2,3.0245987E-1,7.569547E-1,-1.0293347E0,-4.1442806E-1,-9.567053E-4,-5.7578874E-1,3.376526E-1,-5.6245994E-2,8.560354E-1,-3.9555278E-2,-7.636386E-1,-6.175816E-2,9.317205E-2,-5.6501456E-2,5.4431964E-2,-1.4356554E-1,1.2184289E-1,-7.474627E-1,8.801303E-1,3.0582774E-1,1.0348729E0,5.829681E-1,-6.1141253E-2,6.829526E-3,2.7781984E-2,-6.1366227E-3,6.301069E-3,-4.128001E-3,-1.9918537E-2,-4.1918266E-3,-6.0972523E-2,4.2646475E-2,-6.916429E-2,-2.1158144E-2,5.5073608E-2,4.011555E-3,-7.142549E-2,1.7251227E-2,5.65733E-2,2.6473066E-2,-4.314553E-2,4.221839E-2],"categories":[],"categories_nodes":[],"categories_segments":[],"categories_sizes":[],"default_left":[0,0,0,0,0,0,0,0,0,0,0,0,0,0,0,0,0,0,0,0,0,0,0,0,0,0,0,0,0,0,0,0,0,0,0,0,0,0,0,0,0,0,0,0,0,0,0],"id":16,"left_children":[1,3,5,7,9,11,13,15,17,19,21,23,-1,25,-1,27,-1,29,-1,31,33,35,37,39,41,43,45,-1,-1,-1,-1,-1,-1,-1,-1,-1,-1,-1,-1,-1,-1,-1,-1,-1,-1,-1,-1],"loss_changes":[3.5693325E1,3.9348026E1,4.687668E0,3.5915298E0,2.68372E1,1.3000055E1,4.6108084E0,1.2321167E0,5.9488277E0,2.74334E1,1.0051296E1,3.9770794E0,0E0,5.9721375E-1,0E0,8.427449E0,0E0,1.1001607E0,0E0,2.4543095E1,1.4753128E1,1.7988348E1,1.3205341E1,2.2304783E0,1.6390688E1,6.3147545E-2,5.2710767E0,0E0,0E0,0E0,0E0,0E0,0E0,0E0,0E0,0E0,0E0,0E0,0E0,0E0,0E0,0E0,0E0,0E0,0E0,0E0,0E0],"parents":[2147483647,0,0,1,1,2,2,3,3,4,4,5,5,6,6,7,7,8,8,9,9,10,10,11,11,13,13,15,15,17,17,19,19,20,20,21,21,22,22,23,23,24,24,25,25,26,26],"right_children":[2,4,6,8,10,12,14,16,18,20,22,24,-1,26,-1,28,-1,30,-1,32,34,36,38,40,42,44,46,-1,-1,-1,-1,-1,-1,-1,-1,-1,-1,-1,-1,-1,-1,-1,-1,-1,-1,-1,-1],"split_conditions":[5E0,1.1E1,1.1729532E3,1.3826749E3,2E1,1.1574882E3,1.2383611E3,3.0081293E2,1.5012062E3,1E0,1.5080223E2,1.07413055E2,-5.6245994E-2,1.1574882E3,-3.9555278E-2,2.8616714E2,-6.175816E-2,1.3290347E3,-5.6501456E-2,1.8E1,1.5E1,1.2418794E2,2.2078938E2,1.24657776E2,1.24657776E2,1E0,1.2358141E3,-6.1141253E-2,6.829526E-3,2.7781984E-2,-6.1366227E-3,6.301069E-3,-4.128001E-3,-1.9918537E-2,-4.1918266E-3,-6.0972523E-2,4.2646475E-2,-6.916429E-2,-2.1158144E-2,5.5073608E-2,4.011555E-3,-7.142549E-2,1.7251227E-2,5.65733E-2,2.6473066E-2,-4.314553E-2,4.221839E-2],"split_indices":[3,2,4,0,2,0,4,4,0,1,4,0,0,0,0,0,0,4,0,2,2,0,4,4,4,1,0,0,0,0,0,0,0,0,0,0,0,0,0,0,0,0,0,0,0,0,0],"split_type":[0,0,0,0,0,0,0,0,0,0,0,0,0,0,0,0,0,0,0,0,0,0,0,0,0,0,0,0,0,0,0,0,0,0,0,0,0,0,0,0,0,0,0,0,0,0,0],"sum_hessian":[3.881977E3,3.6070999E3,2.7487732E2,5.386459E1,3.5532354E3,2.5023174E2,2.4645575E1,3.877728E1,1.508731E1,3.4710706E3,8.216459E1,2.4495567E2,5.2760544E0,2.3583202E1,1.062372E0,1.8982975E1,1.9794304E1,9.335279E0,5.7520313E0,2.500504E3,9.7056683E2,1.6283518E1,6.588107E1,1.2097063E1,2.3285861E2,1.2564588E1,1.1018616E1,1.2333559E1,6.6494164E0,2.470316E0,6.864963E0,1.6423322E3,8.581717E2,1.8323077E2,7.8733606E2,5.5087857E0,1.0774732E1,2.114962E1,4.473145E1,9.179868E0,2.9171958E0,4.363037E0,2.2849557E2,9.508617E0,3.0559702E0,1.3347276E0,9.6838875E0],"tree_param":{"num_deleted":"0","num_feature":"5","num_nodes":"47","size_leaf_vector":"1"}},{"base_weights":[-9.250842E-4,-2.6136382E-2,3.3058387E-1,-8.465708E-1,-1.3738847E-2,2.8854853E-1,7.3524296E-1,-1.008225E0,-4.0024608E-1,-9.1649574E-4,-5.556952E-1,3.2222512E-1,-5.521607E-2,8.331608E-1,-3.881034E-2,-7.4315614E-1,-6.0808536E-2,9.059291E-2,-5.5493336E-2,-1.4547054E-1,5.4084513E-2,-3.7595913E-1,-6.250744E-2,5.944181E-1,2.6172337E-1,1.0119468E0,5.6241137E-1,-4.925481E-2,3.9692767E-2,-1.279427E-2,1.8501243E-2,1.84728E-2,-9.5685385E-3,8.881579E-3,-3.082192E-3,-2.2297012E-2,7.276221E-2,1.4599644E-2,4.2282574E-2,-7.157012E-2,1.503014E-2,5.5408973E-2,2.5726175E-2,-4.226921E-2,4.093678E-2],"categories":[],"categories_nodes":[],"categories_segments":[],"categories_sizes":[],"default_left":[0,0,0,0,0,0,0,0,0,0,0,0,0,0,0,0,0,0,0,0,0,0,0,0,0,0,0,0,0,0,0,0,0,0,0,0,0,0,0,0,0,0,0,0,0],"id":17,"left_children":[1,3,5,7,9,11,13,15,17,19,21,23,-1,25,-1,27,-1,29,-1,31,33,35,-1,37,39,41,43,-1,-1,-1,-1,-1,-1,-1,-1,-1,-1,-1,-1,-1,-1,-1,-1,-1,-1],"loss_changes":[3.242296E1,3.6657852E1,4.451582E0,3.4673233E0,2.4686495E1,1.208363E1,4.3695745E0,1.2308159E0,5.6467514E0,2.7607748E1,9.778347E0,3.877367E0,0E0,5.9778595E-1,0E0,8.069126E0,0E0,1.0954949E0,0E0,2.2690943E1,3.5975273E1,9.190756E0,0E0,3.0770226E0,1.3737042E1,6.493473E-2,4.964145E0,0E0,0E0,0E0,0E0,0E0,0E0,0E0,0E0,0E0,0E0,0E0,0E0,0E0,0E0,0E0,0E0,0E0,0E0],"parents":[2147483647,0,0,1,1,2,2,3,3,4,4,5,5,6,6,7,7,8,8,9,9,10,10,11,11,13,13,15,15,17,17,19,19,20,20,21,21,23,23,24,24,25,25,26,26],"right_children":[2,4,6,8,10,12,14,16,18,20,22,24,-1,26,-1,28,-1,30,-1,32,34,36,-1,38,40,42,44,-1,-1,-1,-1,-1,-1,-1,-1,-1,-1,-1,-1,-1,-1,-1,-1,-1,-1],"split_conditions":[5E0,1.1E1,1.1729532E3,1.3826749E3,2E1,1.1574882E3,1.2383611E3,3.0081293E2,1.5012062E3,1.5E1,2.5848007E2,1.4463577E2,-5.521607E-2,1.1574882E3,-3.881034E-2,3.693831E2,-6.0808536E-2,1.4687771E3,-5.5493336E-2,2E0,1.8E1,2.9318176E2,-6.250744E-2,1.2896614E2,1.2184E2,1E0,1.2358141E3,-4.925481E-2,3.9692767E-2,-1.279427E-2,1.8501243E-2,1.84728E-2,-9.5685385E-3,8.881579E-3,-3.082192E-3,-2.2297012E-2,7.276221E-2,1.4599644E-2,4.2282574E-2,-7.157012E-2,1.503014E-2,5.5408973E-2,2.5726175E-2,-4.226921E-2,4.093678E-2],"split_indices":[3,2,4,0,2,0,4,4,0,2,0,4,0,0,0,0,0,4,0,3,2,4,0,4,0,1,0,0,0,0,0,0,0,0,0,0,0,0,0,0,0,0,0,0,0],"split_type":[0,0,0,0,0,0,0,0,0,0,0,0,0,0,0,0,0,0,0,0,0,0,0,0,0,0,0,0,0,0,0,0,0,0,0,0,0,0,0,0,0,0,0,0,0],"sum_hessian":[3.8773452E3,3.604169E3,2.7317636E2,5.265004E1,3.551519E3,2.4902147E2,2.4154884E1,3.772683E1,1.4923211E1,3.4704128E3,8.1106125E1,2.4389331E2,5.128155E0,2.3106705E1,1.0481794E0,1.8596119E1,1.913071E1,9.337129E0,5.5860825E0,9.560556E2,2.5143572E3,6.565492E1,1.5451202E1,4.2748055E1,2.0114526E2,1.22680645E1,1.0838641E1,1.6377266E1,2.2188518E0,4.206096E0,5.131033E0,7.767034E1,8.7838525E2,1.2158395E3,1.2985177E3,6.396685E1,1.6880742E0,2.0378916E1,2.2369139E1,3.7112384E0,1.9743402E2,9.250586E0,3.017479E0,1.3154982E0,9.523143E0],"tree_param":{"num_deleted":"0","num_feature":"5","num_nodes":"45","size_leaf_vector":"1"}},{"base_weights":[-9.237527E-4,-2.4901913E-2,3.158677E-1,-8.2493925E-1,-1.3065902E-2,2.7511162E-1,7.1436876E-1,-9.854017E-1,-3.879439E-1,-8.6676714E-4,-5.3388155E-1,3.073256E-1,-5.4237824E-2,8.111792E-1,-3.8090985E-2,-7.189781E-1,-5.9918772E-2,8.672621E-2,-5.453589E-2,-1.3829443E-1,5.1402777E-2,-3.5846093E-1,-6.1445255E-2,8.4416276E-1,2.7634594E-1,9.899828E-1,5.426406E-1,-4.8295066E-2,4.1954633E-2,2.725038E-2,-6.338646E-3,-4.621443E-3,-3.0935934E-2,8.443864E-3,-2.9283825E-3,-6.3133135E-2,-1.0227077E-2,5.3310342E-2,3.1156891E-3,-3.833654E-2,1.694049E-2,5.4301847E-2,2.5000727E-2,-4.142792E-2,3.970278E-2],"categories":[],"categories_nodes":[],"categories_segments":[],"categories_sizes":[],"default_left":[0,0,0,0,0,0,0,0,0,0,0,0,0,0,0,0,0,0,0,0,0,0,0,0,0,0,0,0,0,0,0,0,0,0,0,0,0,0,0,0,0,0,0,0,0],"id":18,"left_children":[1,3,5,7,9,11,13,15,17,19,21,23,-1,25,-1,27,-1,29,-1,31,33,35,-1,37,39,41,43,-1,-1,-1,-1,-1,-1,-1,-1,-1,-1,-1,-1,-1,-1,-1,-1,-1,-1],"loss_changes":[2.9428371E1,3.409287E1,4.230921E0,3.2983208E0,2.2554625E1,1.1238493E1,4.1431456E0,1.2799568E0,5.347436E0,2.4931498E1,9.465355E0,3.8239498E0,0E0,5.97558E-1,0E0,8.22295E0,0E0,1.0793103E0,0E0,2.1015713E1,3.2493202E1,8.967017E0,0E0,2.1597557E0,1.5384253E1,6.756401E-2,4.6773357E0,0E0,0E0,0E0,0E0,0E0,0E0,0E0,0E0,0E0,0E0,0E0,0E0,0E0,0E0,0E0,0E0,0E0,0E0],"parents":[2147483647,0,0,1,1,2,2,3,3,4,4,5,5,6,6,7,7,8,8,9,9,10,10,11,11,13,13,15,15,17,17,19,19,20,20,21,21,23,23,24,24,25,25,26,26],"right_children":[2,4,6,8,10,12,14,16,18,20,22,24,-1,26,-1,28,-1,30,-1,32,34,36,-1,38,40,42,44,-1,-1,-1,-1,-1,-1,-1,-1,-1,-1,-1,-1,-1,-1,-1,-1,-1,-1],"split_conditions":[5E0,1.1E1,1.1729532E3,1.3826749E3,2E1,1.1574882E3,1.2383611E3,3.0081293E2,1.5012062E3,1.5E1,2.5848007E2,1.07413055E2,-5.4237824E-2,1.1574882E3,-3.8090985E-2,2.892645E2,-5.9918772E-2,1.3290347E3,-5.453589E-2,1.2233291E3,1.8E1,1.2418794E2,-6.1445255E-2,1.24657776E2,1.2321806E2,1E0,1.2358141E3,-4.8295066E-2,4.1954633E-2,2.725038E-2,-6.338646E-3,-4.621443E-3,-3.0935934E-2,8.443864E-3,-2.9283825E-3,-6.3133135E-2,-1.0227077E-2,5.3310342E-2,3.1156891E-3,-3.833654E-2,1.694049E-2,5.4301847E-2,2.5000727E-2,-4.142792E-2,3.970278E-2],"split_indices":[3,2,4,0,2,0,4,4,0,2,0,0,0,0,0,4,0,4,0,0,2,0,0,4,0,1,0,0,0,0,0,0,0,0,0,0,0,0,0,0,0,0,0,0,0],"split_type":[0,0,0,0,0,0,0,0,0,0,0,0,0,0,0,0,0,0,0,0,0,0,0,0,0,0,0,0,0,0,0,0,0,0,0,0,0,0,0,0,0,0,0,0,0],"sum_hessian":[3.8721187E3,3.6005146E3,2.71604E2,5.14891E1,3.5490256E3,2.4793701E2,2.3667006E1,3.67425E1,1.4746602E1,3.4687776E3,8.024798E1,2.4295563E2,4.981381E0,2.2633183E1,1.0338244E0,1.826698E1,1.847552E1,9.324923E0,5.421679E0,9.553404E2,2.5134373E3,6.528589E1,1.49620905E1,1.1823342E1,2.3113228E2,1.1973919E1,1.0659263E1,1.6096128E1,2.1708505E0,2.4700842E0,6.854839E0,8.73172E2,8.216838E1,1.2149968E3,1.2984404E3,8.448959E0,5.6836933E1,8.924966E0,2.898377E0,1.2422104E1,2.1871017E2,8.994146E0,2.9797723E0,1.2959058E0,9.363358E0],"tree_param":{"num_deleted":"0","num_feature":"5","num_nodes":"45","size_leaf_vector":"1"}},{"base_weights":[-9.514176E-4,-2.3768011E-2,3.0210543E-1,-8.0349267E-1,-1.247352E-2,2.6260144E-1,6.942557E-1,-9.633403E-1,-3.7478983E-1,3.6980413E-2,-1.4002442E-1,2.934486E-1,-5.3306162E-2,7.900067E-1,-3.739574E-2,-6.9546425E-1,-5.9082866E-2,8.440469E-2,-5.3624082E-2,1.17224544E-1,-1.0658967E-1,1.1763198E-1,-2.1426338E-1,5.6191856E-1,2.3420395E-1,5.154E-1,4.8156034E-2,-5.859833E-2,8.347332E-3,-1.2827654E-2,1.8012822E-2,-3.8028508E-3,1.4461117E-2,-2.357307E-2,4.453829E-3,-1.146662E-2,3.1143561E-2,-9.160149E-2,-8.430812E-3,1.3012977E-2,4.062145E-2,-6.820321E-2,1.3541584E-2,3.8875032E-2,2.4702114E-3],"categories":[],"categories_nodes":[],"categories_segments":[],"categories_sizes":[],"default_left":[0,0,0,0,0,0,0,0,0,0,0,0,0,0,0,0,0,0,0,0,0,0,0,0,0,0,0,0,0,0,0,0,0,0,0,0,0,0,0,0,0,0,0,0,0],"id":19,"left_children":[1,3,5,7,9,11,13,15,17,19,21,23,-1,25,-1,27,-1,29,-1,31,33,35,37,39,41,43,-1,-1,-1,-1,-1,-1,-1,-1,-1,-1,-1,-1,-1,-1,-1,-1,-1,-1,-1],"loss_changes":[2.6753311E1,3.167697E1,4.014292E0,3.1584587E0,2.2383944E1,1.0465996E1,3.9303417E0,1.3287888E0,5.083832E0,2.947446E1,1.8989285E1,3.7314663E0,0E0,6.0479355E-1,0E0,7.9801073E0,0E0,1.0636678E0,0E0,5.457267E1,6.553792E1,3.913113E1,5.6553867E1,3.0526056E0,1.2117692E1,1.3182628E0,0E0,0E0,0E0,0E0,0E0,0E0,0E0,0E0,0E0,0E0,0E0,0E0,0E0,0E0,0E0,0E0,0E0,0E0,0E0],"parents":[2147483647,0,0,1,1,2,2,3,3,4,4,5,5,6,6,7,7,8,8,9,9,10,10,11,11,13,13,15,15,17,17,19,19,20,20,21,21,22,22,23,23,24,24,25,25],"right_children":[2,4,6,8,10,12,14,16,18,20,22,24,-1,26,-1,28,-1,30,-1,32,34,36,38,40,42,44,-1,-1,-1,-1,-1,-1,-1,-1,-1,-1,-1,-1,-1,-1,-1,-1,-1,-1,-1],"split_conditions":[5E0,1.1E1,1.1729532E3,1.3826749E3,1E0,1.1574882E3,1.2383611E3,3.0081293E2,1.5012062E3,1.8E1,1.8092584E2,1.4463577E2,-5.3306162E-2,1.1955608E3,-3.739574E-2,2.8616714E2,-5.9082866E-2,1.4687771E3,-5.3624082E-2,1.5E1,1.9E1,1.5177994E2,1.6669217E2,1.2896614E2,1.2184E2,1.1785895E3,4.8156034E-2,-5.859833E-2,8.347332E-3,-1.2827654E-2,1.8012822E-2,-3.8028508E-3,1.4461117E-2,-2.357307E-2,4.453829E-3,-1.146662E-2,3.1143561E-2,-9.160149E-2,-8.430812E-3,1.3012977E-2,4.062145E-2,-6.820321E-2,1.3541584E-2,3.8875032E-2,2.4702114E-3],"split_indices":[3,2,4,0,1,0,4,4,0,2,0,4,0,4,0,0,0,4,0,2,2,4,4,4,0,4,0,0,0,0,0,0,0,0,0,0,0,0,0,0,0,0,0,0,0],"split_type":[0,0,0,0,0,0,0,0,0,0,0,0,0,0,0,0,0,0,0,0,0,0,0,0,0,0,0,0,0,0,0,0,0,0,0,0,0,0,0,0,0,0,0,0,0],"sum_hessian":[3.8669966E3,3.597099E3,2.6989743E2,5.0359344E1,3.54674E3,2.467139E2,2.3183525E1,3.577358E1,1.4585766E1,2.556317E3,9.904231E2,2.4187772E2,4.836189E0,2.2164175E1,1.0193511E0,1.7943005E1,1.7830574E1,9.326462E0,5.2593045E0,1.639918E3,9.163988E2,2.2140889E2,7.6901416E2,4.219308E1,1.9968463E2,1.0107737E1,1.2056438E1,1.1326117E1,6.6168876E0,4.202301E0,5.124161E0,7.72445E2,8.67473E2,3.1939407E2,5.970047E2,1.315887E2,8.982019E1,2.0029242E1,7.489849E2,2.0067347E1,2.2125732E1,3.661735E0,1.960229E2,6.0413113E0,4.066425E0],"tree_param":{"num_deleted":"0","num_feature":"5","num_nodes":"45","size_leaf_vector":"1"}},{"base_weights":[-9.7492355E-4,-2.2676667E-2,2.8860393E-1,-7.850787E-1,-1.18810255E-2,1.788654E-1,4.2069235E-1,-9.4482774E-1,-3.634475E-1,-5.945804E-3,-1.0379105E0,2.3351607E-1,-9.889997E-1,9.6690226E-1,2.881112E-1,-6.772919E-1,-5.8295455E-2,8.079235E-2,-5.275345E-2,4.319111E-2,-1.3187218E-1,1.5350987E-1,-6.5125726E-2,1.3373372E-1,7.386395E-1,2.2640724E-2,-8.710253E-2,8.476795E-3,1.0451225E0,-1.279558E0,3.994228E-1,-5.771755E-2,7.980994E-3,2.6740849E-2,-6.5161325E-3,5.5737644E-3,-4.0692403E-3,5.7649976E-3,-1.0151419E-2,-5.3171307E-2,6.1737377E-2,2.123545E-2,-1.3551128E-2,-1.3255494E-2,4.509389E-2,-6.425927E-2,5.4882534E-2,5.668061E-2,1.1783525E-2,-1.208685E-3,-1.00210585E-1,4.5064297E-2,1.303599E-2],"categories":[],"categories_nodes":[],"categories_segments":[],"categories_sizes":[],"default_left":[0,0,0,0,0,0,0,0,0,0,0,0,0,0,0,0,0,0,0,0,0,0,0,0,0,0,0,0,0,0,0,0,0,0,0,0,0,0,0,0,0,0,0,0,0,0,0,0,0,0,0,0,0],"id":20,"left_children":[1,3,5,7,9,11,13,15,17,19,21,23,25,27,29,31,-1,33,-1,35,37,39,-1,41,43,45,-1,-1,47,49,51,-1,-1,-1,-1,-1,-1,-1,-1,-1,-1,-1,-1,-1,-1,-1,-1,-1,-1,-1,-1,-1,-1],"loss_changes":[2.4286097E1,2.9580235E1,3.8301334E0,3.0364914E0,2.158721E1,9.734615E0,8.5217705E0,1.3258324E0,4.820941E0,2.182633E1,6.6273346E0,7.111553E0,5.255969E0,1.2767487E0,1.7823486E1,7.5981426E0,0E0,1.0583127E0,0E0,2.159385E1,1.7436508E1,7.365304E0,0E0,1.4327929E1,4.0693674E0,6.906748E0,0E0,0E0,1.2395554E0,6.151595E0,6.266325E0,0E0,0E0,0E0,0E0,0E0,0E0,0E0,0E0,0E0,0E0,0E0,0E0,0E0,0E0,0E0,0E0,0E0,0E0,0E0,0E0,0E0,0E0],"parents":[2147483647,0,0,1,1,2,2,3,3,4,4,5,5,6,6,7,7,8,8,9,9,10,10,11,11,12,12,13,13,14,14,15,15,17,17,19,19,20,20,21,21,23,23,24,24,25,25,28,28,29,29,30,30],"right_children":[2,4,6,8,10,12,14,16,18,20,22,24,26,28,30,32,-1,34,-1,36,38,40,-1,42,44,46,-1,-1,48,50,52,-1,-1,-1,-1,-1,-1,-1,-1,-1,-1,-1,-1,-1,-1,-1,-1,-1,-1,-1,-1,-1,-1],"split_conditions":[5E0,1.1E1,2.4843274E2,1.3826749E3,2.2E1,2.4519234E2,2.5366216E2,3.0081293E2,1.5012062E3,1E0,1.4463577E2,2.5848007E2,2.288258E2,2.2974896E2,2.5972458E2,2.8616714E2,-5.8295455E-2,1.3290347E3,-5.275345E-2,1.8E1,1.8092584E2,1.4275641E2,-6.5125726E-2,1.8667508E2,2.2358466E2,2.2733282E2,-8.710253E-2,8.476795E-3,2.8196216E2,2.529521E2,2.7623053E2,-5.771755E-2,7.980994E-3,2.6740849E-2,-6.5161325E-3,5.5737644E-3,-4.0692403E-3,5.7649976E-3,-1.0151419E-2,-5.3171307E-2,6.1737377E-2,2.123545E-2,-1.3551128E-2,-1.3255494E-2,4.509389E-2,-6.425927E-2,5.4882534E-2,5.668061E-2,1.1783525E-2,-1.208685E-3,-1.00210585E-1,4.5064297E-2,1.303599E-2],"split_indices":[3,2,4,0,2,4,4,4,0,1,4,0,0,0,4,0,0,4,0,2,0,4,0,0,4,0,0,0,0,0,4,0,0,0,0,0,0,0,0,0,0,0,0,0,0,0,0,0,0,0,0,0,0],"split_type":[0,0,0,0,0,0,0,0,0,0,0,0,0,0,0,0,0,0,0,0,0,0,0,0,0,0,0,0,0,0,0,0,0,0,0,0,0,0,0,0,0,0,0,0,0,0,0,0,0,0,0,0,0],"sum_hessian":[3.8624849E3,3.594059E3,2.6842584E2,4.918004E1,3.544879E3,1.4790286E2,1.2052297E2,3.4766647E1,1.4413391E1,3.525491E3,1.9387936E1,1.4205537E2,5.847484E0,2.2311361E1,9.821161E1,1.7569237E1,1.719741E1,9.314025E0,5.0993667E0,2.5364258E3,9.8906525E2,3.5996768E0,1.5788259E1,1.1967873E2,2.2376646E1,2.909213E0,2.938271E0,2.2761378E0,2.0035223E1,5.81534E0,9.239627E1,1.0948844E1,6.620392E0,2.4695992E0,6.8444257E0,1.6384451E3,8.979808E2,2.2094792E2,7.681173E2,1.7013152E0,1.8983617E0,6.959691E1,5.008182E1,3.0427518E0,1.9333895E1,1.2242795E0,1.6849334E0,1.7699802E1,2.3354197E0,2.5064852E0,3.308855E0,1.8816256E1,7.358001E1],"tree_param":{"num_deleted":"0","num_feature":"5","num_nodes":"53","size_leaf_vector":"1"}},{"base_weights":[-9.90421E-4,-2.1626132E-2,2.752225E-1,-7.6676005E-1,-1.1312304E-2,2.3665035E-1,6.643512E-1,-9.2701757E-1,-3.5120532E-1,-5.6507625E-3,-1.0132729E0,2.663071E-1,-5.2631836E-2,7.5958604E-1,-3.695656E-2,-6.597503E-1,-5.755179E-2,7.8706816E-2,-5.1920034E-2,-1.299777E-1,4.0550362E-2,1.476893E-1,-6.389274E-2,7.97053E-1,2.3634225E-1,9.4602334E-1,4.8804384E-1,-4.5416903E-2,4.0483847E-2,-1.2846569E-2,1.7551748E-2,1.8200403E-2,-8.704333E-3,7.515007E-3,-2.87457E-3,-5.1977064E-2,5.9365626E-2,5.1172357E-2,1.4982325E-3,-7.035218E-2,1.3707292E-2,5.226767E-2,2.288474E-2,-4.1261807E-2,3.7005287E-2],"categories":[],"categories_nodes":[],"categories_segments":[],"categories_sizes":[],"default_left":[0,0,0,0,0,0,0,0,0,0,0,0,0,0,0,0,0,0,0,0,0,0,0,0,0,0,0,0,0,0,0,0,0,0,0,0,0,0,0,0,0,0,0,0,0],"id":21,"left_children":[1,3,5,7,9,11,13,15,17,19,21,23,-1,25,-1,27,-1,29,-1,31,33,35,-1,37,39,41,43,-1,-1,-1,-1,-1,-1,-1,-1,-1,-1,-1,-1,-1,-1,-1,-1,-1,-1],"loss_changes":[2.2008682E1,2.7602726E1,3.871647E0,2.940033E0,2.01025E1,9.677453E0,3.7230577E0,1.3229008E0,4.589301E0,2.0257977E1,6.304922E0,3.6450272E0,0E0,6.846762E-1,0E0,7.3841176E0,0E0,1.033046E0,0E0,2.0882912E1,2.7676666E1,6.902011E0,0E0,2.13315E0,1.46484995E1,1.2109852E-1,4.346018E0,0E0,0E0,0E0,0E0,0E0,0E0,0E0,0E0,0E0,0E0,0E0,0E0,0E0,0E0,0E0,0E0,0E0,0E0],"parents":[2147483647,0,0,1,1,2,2,3,3,4,4,5,5,6,6,7,7,8,8,9,9,10,10,11,11,13,13,15,15,17,17,19,19,20,20,21,21,23,23,24,24,25,25,26,26],"right_children":[2,4,6,8,10,12,14,16,18,20,22,24,-1,26,-1,28,-1,30,-1,32,34,36,-1,38,40,42,44,-1,-1,-1,-1,-1,-1,-1,-1,-1,-1,-1,-1,-1,-1,-1,-1,-1,-1],"split_conditions":[5E0,1.1E1,1.1729532E3,1.3826749E3,2.2E1,1.1574882E3,1.2383611E3,3.0081293E2,1.5012062E3,1.5E1,1.4463577E2,1.07413055E2,-5.2631836E-2,1.1574882E3,-3.695656E-2,2.892645E2,-5.755179E-2,1.4687771E3,-5.1920034E-2,2E0,1.8E1,1.4275641E2,-6.389274E-2,1.24657776E2,1.24657776E2,1E0,1.2358141E3,-4.5416903E-2,4.0483847E-2,-1.2846569E-2,1.7551748E-2,1.8200403E-2,-8.704333E-3,7.515007E-3,-2.87457E-3,-5.1977064E-2,5.9365626E-2,5.1172357E-2,1.4982325E-3,-7.035218E-2,1.3707292E-2,5.226767E-2,2.288474E-2,-4.1261807E-2,3.7005287E-2],"split_indices":[3,2,4,0,2,0,4,4,0,2,4,0,0,0,0,4,0,4,0,3,2,4,0,4,4,1,0,0,0,0,0,0,0,0,0,0,0,0,0,0,0,0,0,0,0],"split_type":[0,0,0,0,0,0,0,0,0,0,0,0,0,0,0,0,0,0,0,0,0,0,0,0,0,0,0,0,0,0,0,0,0,0,0,0,0,0,0,0,0,0,0,0,0],"sum_hessian":[3.8592297E3,3.5918093E3,2.6742035E2,4.803623E1,3.5437732E3,2.4476619E2,2.265415E1,3.3778748E1,1.4257479E1,3.5248618E3,1.8911463E1,2.4003818E2,4.728016E0,2.164424E1,1.0099088E0,1.7201452E1,1.6577297E1,9.315273E0,4.9422054E0,9.5449866E2,2.570363E3,3.5919771E0,1.5319486E1,1.1459772E1,2.285784E2,1.136043E1,1.0283811E1,1.50390835E1,2.1623688E0,4.1979423E0,5.1173306E0,7.76481E1,8.768505E2,1.2125165E3,1.3578466E3,1.6769781E0,1.914999E0,8.590286E0,2.8694859E0,4.3254175E0,2.2425298E2,8.492342E0,2.8680882E0,1.2898029E0,8.994007E0],"tree_param":{"num_deleted":"0","num_feature":"5","num_nodes":"45","size_leaf_vector":"1"}},{"base_weights":[-9.953488E-4,-2.061821E-2,2.6300138E-1,-7.4772084E-1,-1.0769739E-2,2.2565082E-1,6.457392E-1,-9.070093E-1,-3.4071967E-1,3.0914537E-4,-4.9422368E-1,2.540598E-1,-5.177126E-2,9.2641944E-1,3.1234142E-1,-6.3822484E-1,-5.6847632E-2,7.532821E-2,-5.112029E-2,4.83699E-2,-1.23450145E-1,5.7224697E-1,-5.991196E-1,8.692937E-1,2.2922155E-1,1.0259397E0,4.447707E-1,-4.6924226E-2,6.5548545E-1,-4.483793E-2,4.102858E-2,2.6251798E-2,-6.6712135E-3,-3.5859414E-3,5.1096245E-3,-5.660312E-3,-7.9500504E-2,-4.1841783E-2,5.5680748E-2,-2.1881951E-2,-5.9579022E-2,5.7124615E-2,7.5839194E-3,-7.42405E-2,1.2999057E-2,1.5043548E-2,5.5509876E-2,3.605689E-2,1.8135466E-3,-5.402766E-3,4.5517124E-2],"categories":[],"categories_nodes":[],"categories_segments":[],"categories_sizes":[],"default_left":[0,0,0,0,0,0,0,0,0,0,0,0,0,0,0,0,0,0,0,0,0,0,0,0,0,0,0,0,0,0,0,0,0,0,0,0,0,0,0,0,0,0,0,0,0,0,0,0,0,0,0],"id":22,"left_children":[1,3,5,7,9,11,13,15,17,19,21,23,-1,25,27,29,-1,31,-1,33,35,37,39,41,43,45,47,-1,49,-1,-1,-1,-1,-1,-1,-1,-1,-1,-1,-1,-1,-1,-1,-1,-1,-1,-1,-1,-1,-1,-1],"loss_changes":[1.9977585E1,2.5696098E1,3.66852E0,2.7999344E0,1.8974695E1,9.027091E0,1.8803072E0,1.3673706E0,4.356964E0,2.0611027E1,9.221188E0,3.4688997E0,0E0,1.22704506E-1,5.811315E0,7.484271E0,0E0,1.0372397E0,0E0,1.6139814E1,1.4381756E1,6.743575E0,6.43816E0,1.5827031E0,1.26222105E1,2.3081112E-1,4.0666378E-1,0E0,2.0615864E0,0E0,0E0,0E0,0E0,0E0,0E0,0E0,0E0,0E0,0E0,0E0,0E0,0E0,0E0,0E0,0E0,0E0,0E0,0E0,0E0,0E0,0E0],"parents":[2147483647,0,0,1,1,2,2,3,3,4,4,5,5,6,6,7,7,8,8,9,9,10,10,11,11,13,13,14,14,15,15,17,17,19,19,20,20,21,21,22,22,23,23,24,24,25,25,26,26,28,28],"right_children":[2,4,6,8,10,12,14,16,18,20,22,24,-1,26,28,30,-1,32,-1,34,36,38,40,42,44,46,48,-1,50,-1,-1,-1,-1,-1,-1,-1,-1,-1,-1,-1,-1,-1,-1,-1,-1,-1,-1,-1,-1,-1,-1],"split_conditions":[5E0,1.1E1,1.1729532E3,1.3826749E3,2E1,1.1574882E3,1.1574882E3,3.0081293E2,1.5012062E3,1E0,1.3381538E2,1.0549903E2,-5.177126E-2,1E0,1.2358141E3,3.693831E2,-5.6847632E-2,1.3290347E3,-5.112029E-2,1.5E1,1.4238759E3,1.2321806E2,2.5848007E2,1.197751E2,1.2057495E2,1.114239E3,1.1756353E3,-4.6924226E-2,1.1885028E3,-4.483793E-2,4.102858E-2,2.6251798E-2,-6.6712135E-3,-3.5859414E-3,5.1096245E-3,-5.660312E-3,-7.9500504E-2,-4.1841783E-2,5.5680748E-2,-2.1881951E-2,-5.9579022E-2,5.7124615E-2,7.5839194E-3,-7.42405E-2,1.2999057E-2,1.5043548E-2,5.5509876E-2,3.605689E-2,1.8135466E-3,-5.402766E-3,4.5517124E-2],"split_indices":[3,2,4,0,2,0,0,4,0,1,4,0,0,1,0,0,0,4,0,2,0,0,0,4,4,0,4,0,4,0,0,0,0,0,0,0,0,0,0,0,0,0,0,0,0,0,0,0,0,0,0],"split_type":[0,0,0,0,0,0,0,0,0,0,0,0,0,0,0,0,0,0,0,0,0,0,0,0,0,0,0,0,0,0,0,0,0,0,0,0,0,0,0,0,0,0,0,0,0,0,0,0,0,0,0],"sum_hessian":[3.8543533E3,3.5885393E3,2.65814E2,4.695529E1,3.541584E3,2.436284E2,2.218561E1,3.2864544E1,1.4090747E1,3.4632197E3,7.836417E1,2.390419E2,4.5864973E0,1.10793915E1,1.1106219E1,1.6893284E1,1.597126E1,9.30264E0,4.788107E0,2.494942E3,9.6827795E2,6.6185346E0,7.174563E1,7.9568005E0,2.310851E2,8.245594E0,2.8337975E0,2.0174108E0,9.088808E0,1.4677377E1,2.2159076E0,2.4688895E0,6.83375E0,7.720391E2,1.7229027E3,9.626312E2,5.6467776E0,1.6855565E0,4.932978E0,5.7745304E1,1.4000327E1,5.334044E0,2.6227562E0,3.2405176E0,2.2784457E2,1.3342991E0,6.911295E0,1.2337688E0,1.6000285E0,2.4186502E0,6.670158E0],"tree_param":{"num_deleted":"0","num_feature":"5","num_nodes":"51","size_leaf_vector":"1"}},{"base_weights":[-1.0045014E-3,1.2844214E-1,-3.830928E-2,-6.968103E-2,3.4914023E-1,-6.6043544E-1,-1.7013175E-2,5.126034E-1,-1.3245475E-1,7.7175446E-2,4.7717088E-1,-4.0049073E-1,-1.4271449E0,4.7448564E-1,-2.980622E-2,1.6643837E-1,8.0750227E-1,-3.0724296E-1,1.795697E-1,3.2586718E-1,-8.749673E-1,2.2854747E-1,5.900379E-1,-1.4452055E-1,-1.1351168E0,-9.361648E-2,-1.3769051E-1,-1.2176974E-1,9.704382E-1,-7.3725176E-1,-1.6619565E-2,2.4262788E-2,-7.574508E-2,-5.7818573E-2,5.0722625E-2,-4.1808E-2,-4.092958E-3,2.274683E-2,-1.5150663E-2,3.5335224E-2,-1.0271979E-2,-8.877159E-2,-4.7783116E-3,1.3047944E-2,-5.0816115E-2,3.7108995E-2,1.6375808E-2,-1.7539423E-2,4.7724508E-2,4.5734357E-2,-6.820359E-2,6.0653895E-2,-7.305353E-2,-5.7062566E-2,1.8587304E-2,3.3692744E-2,7.8897014E-2,-1.936784E-2,-8.675696E-2,-3.414774E-4,-3.1055791E-2],"categories":[],"categories_nodes":[],"categories_segments":[],"categories_sizes":[],"default_left":[0,0,0,0,0,0,0,0,0,0,0,0,0,0,0,0,0,0,0,0,0,0,0,0,0,0,0,0,0,0,0,0,0,0,0,0,0,0,0,0,0,0,0,0,0,0,0,0,0,0,0,0,0,0,0,0,0,0,0,0,0],"id":23,"left_children":[1,3,5,7,9,11,13,15,17,19,21,23,25,27,29,31,33,35,37,39,41,43,45,47,49,-1,51,53,55,57,59,-1,-1,-1,-1,-1,-1,-1,-1,-1,-1,-1,-1,-1,-1,-1,-1,-1,-1,-1,-1,-1,-1,-1,-1,-1,-1,-1,-1,-1,-1],"loss_changes":[1.860104E1,3.770439E1,3.9605515E1,1.669656E1,1.416317E1,1.9148132E1,1.8199974E1,4.4059477E0,2.2495068E1,3.1476526E1,7.640606E0,1.3992091E1,1.3899338E1,2.183272E1,2.6293451E1,1.2377687E1,1.0828564E1,3.1413685E1,1.9853245E1,2.14263E1,1.9166746E1,3.8217473E0,7.343277E0,1.3250467E1,1.030867E1,0E0,1.5016118E1,1.76475E1,6.179493E0,1.7336E1,1.6384253E1,0E0,0E0,0E0,0E0,0E0,0E0,0E0,0E0,0E0,0E0,0E0,0E0,0E0,0E0,0E0,0E0,0E0,0E0,0E0,0E0,0E0,0E0,0E0,0E0,0E0,0E0,0E0,0E0,0E0,0E0],"parents":[2147483647,0,0,1,1,2,2,3,3,4,4,5,5,6,6,7,7,8,8,9,9,10,10,11,11,12,12,13,13,14,14,15,15,16,16,17,17,18,18,19,19,20,20,21,21,22,22,23,23,24,24,26,26,27,27,28,28,29,29,30,30],"right_children":[2,4,6,8,10,12,14,16,18,20,22,24,26,28,30,32,34,36,38,40,42,44,46,48,50,-1,52,54,56,58,60,-1,-1,-1,-1,-1,-1,-1,-1,-1,-1,-1,-1,-1,-1,-1,-1,-1,-1,-1,-1,-1,-1,-1,-1,-1,-1,-1,-1,-1,-1],"split_conditions":[1.8373895E2,1.47991E2,1.8954515E2,1.1E1,1.2521982E2,1E0,1.91792E2,1.2321806E2,1.9E1,1.7871542E2,1.5E1,1.8E1,2.387313E2,2.1090865E2,1.6669217E2,1.3381538E2,1.24657776E2,1.1810184E2,1.2782321E2,1.8E1,2.00641E2,2.5016814E2,1.8072748E2,1.6E1,1.2552357E2,-9.361648E-2,2.4108119E2,1.905551E2,1E0,1E0,2E1,2.4262788E-2,-7.574508E-2,-5.7818573E-2,5.0722625E-2,-4.1808E-2,-4.092958E-3,2.274683E-2,-1.5150663E-2,3.5335224E-2,-1.0271979E-2,-8.877159E-2,-4.7783116E-3,1.3047944E-2,-5.0816115E-2,3.7108995E-2,1.6375808E-2,-1.7539423E-2,4.7724508E-2,4.5734357E-2,-6.820359E-2,6.0653895E-2,-7.305353E-2,-5.7062566E-2,1.8587304E-2,3.3692744E-2,7.8897014E-2,-1.936784E-2,-8.675696E-2,-3.414774E-4,-3.1055791E-2],"split_indices":[0,4,0,2,0,1,0,0,2,4,2,2,4,4,4,4,4,0,4,2,4,4,4,2,4,0,4,0,1,1,2,0,0,0,0,0,0,0,0,0,0,0,0,0,0,0,0,0,0,0,0,0,0,0,0,0,0,0,0,0,0],"split_type":[0,0,0,0,0,0,0,0,0,0,0,0,0,0,0,0,0,0,0,0,0,0,0,0,0,0,0,0,0,0,0,0,0,0,0,0,0,0,0,0,0,0,0,0,0,0,0,0,0,0,0,0,0,0,0,0,0,0,0,0,0],"sum_hessian":[3.849943E3,8.607431E2,2.9892E3,4.539296E2,4.0681348E2,9.794372E1,2.8912563E3,4.3476734E1,4.1045288E2,1.30726E2,2.7608746E2,7.4281654E1,2.3662062E1,7.2430824E1,2.8188254E3,2.0719582E1,2.2757154E1,2.630912E2,1.473617E2,1.0417429E2,2.6551704E1,8.7146385E1,1.8894109E2,5.597476E1,1.8306894E1,1.7253315E1,6.408746E0,3.3232166E1,3.919866E1,5.0576168E1,2.7682493E3,1.8014956E1,2.7046263E0,1.7321424E0,2.1025011E1,7.7801476E1,1.852897E2,9.3860954E1,5.3500748E1,6.0487278E1,4.368702E1,1.1726173E1,1.482553E1,8.570534E1,1.4410503E0,1.1846102E2,7.048007E1,4.7702522E1,8.272237E0,1.538435E0,1.676846E1,3.2128015E0,3.1959443E0,1.0411693E1,2.2820473E1,2.7756918E1,1.1441743E1,3.8473988E1,1.2102179E1,2.7251262E3,4.3123024E1],"tree_param":{"num_deleted":"0","num_feature":"5","num_nodes":"61","size_leaf_vector":"1"}},{"base_weights":[-1.0387838E-3,3.7038915E-3,-9.6296924E-1,-1.4379269E-2,2.4724129E-1,1.657958E-1,-6.174112E-2,-1.4786777E-1,3.7612446E-2,1.374835E-1,3.805983E-1,-5.0696153E-2,5.852675E-2,-9.4743244E-2,-5.998865E-1,1.3976204E-1,-5.3626508E-2,1.9060747E-1,-9.7543806E-1,9.147784E-1,2.5094047E-1,-6.7212447E-3,3.724551E-2,-1.9736394E-2,-6.7833655E-2,1.2791268E-2,-7.47372E-3,-1.3206539E-2,3.454705E-3,4.630503E-3,3.443709E-2,-5.522284E-5,-8.433443E-2,7.323336E-3,4.9582995E-2,-6.2309094E-2,1.802655E-2],"categories":[],"categories_nodes":[],"categories_segments":[],"categories_sizes":[],"default_left":[0,0,0,0,0,0,0,0,0,0,0,0,0,0,0,0,0,0,0,0,0,0,0,0,0,0,0,0,0,0,0,0,0,0,0,0,0],"id":24,"left_children":[1,3,5,7,9,11,-1,13,15,17,19,-1,-1,21,23,25,27,29,31,33,35,-1,-1,-1,-1,-1,-1,-1,-1,-1,-1,-1,-1,-1,-1,-1,-1],"loss_changes":[1.75639E1,1.6876179E1,6.00082E0,2.4764353E1,3.8245926E0,6.5773745E0,0E0,2.396065E1,2.3943386E1,8.868515E0,8.013475E0,0E0,0E0,2.9959713E1,1.5766624E1,4.0722775E1,3.508118E1,6.819388E0,4.748016E0,1.2055054E0,1.6388271E1,0E0,0E0,0E0,0E0,0E0,0E0,0E0,0E0,0E0,0E0,0E0,0E0,0E0,0E0,0E0,0E0],"parents":[2147483647,0,0,1,1,2,2,3,3,4,4,5,5,7,7,8,8,9,9,10,10,13,13,14,14,15,15,16,16,17,17,18,18,19,19,20,20],"right_children":[2,4,6,8,10,12,-1,14,16,18,20,-1,-1,22,24,26,28,30,32,34,36,-1,-1,-1,-1,-1,-1,-1,-1,-1,-1,-1,-1,-1,-1,-1,-1],"split_conditions":[2.2E1,5E0,1.4463577E2,1.5E1,2.4843274E2,1.4275641E2,-6.174112E-2,1.2233291E3,1.8E1,2.4519234E2,2.5366216E2,-5.0696153E-2,5.852675E-2,1.2323066E3,1.4E1,1E0,1.9E1,2.5848007E2,2.288258E2,2.2974896E2,2.5972458E2,-6.7212447E-3,3.724551E-2,-1.9736394E-2,-6.7833655E-2,1.2791268E-2,-7.47372E-3,-1.3206539E-2,3.454705E-3,4.630503E-3,3.443709E-2,-5.522284E-5,-8.433443E-2,7.323336E-3,4.9582995E-2,-6.2309094E-2,1.802655E-2],"split_indices":[2,3,4,2,4,4,0,0,2,4,4,0,0,4,2,1,2,0,0,0,4,0,0,0,0,0,0,0,0,0,0,0,0,0,0,0,0],"split_type":[0,0,0,0,0,0,0,0,0,0,0,0,0,0,0,0,0,0,0,0,0,0,0,0,0,0,0,0,0,0,0,0,0,0,0,0,0],"sum_hessian":[3.8481575E3,3.830269E3,1.7888502E1,3.5663975E3,2.6387152E2,3.5477917E0,1.4340711E1,9.9917535E2,2.5672222E3,1.4585686E2,1.18014656E2,1.6275989E0,1.9201928E0,8.951772E2,1.0399813E2,1.210941E3,1.3562811E3,1.4000273E2,5.854128E0,2.186739E1,9.614726E1,8.5558264E2,3.9594563E1,8.301503E1,2.09831E1,8.642535E2,3.466876E2,4.990691E2,8.57212E2,1.17978806E2,2.2023926E1,2.8928292E0,2.961299E0,2.2533832E0,1.9614008E1,5.8505993E0,9.029666E1],"tree_param":{"num_deleted":"0","num_feature":"5","num_nodes":"37","size_leaf_vector":"1"}},{"base_weights":[-1.0273446E-3,1.2290119E-1,-3.6737204E-2,-6.623016E-2,3.3352154E-1,-6.317295E-1,-1.6433738E-2,4.867863E-1,-1.252223E-1,7.4908555E-2,4.5523378E-1,-3.8328668E-1,-1.3664248E0,-2.1701203E-1,1.3405837E-2,1.5226637E-1,7.7491707E-1,-2.891302E-1,1.6709468E-1,3.1162992E-1,-8.3470476E-1,2.2161795E-1,5.61371E-1,-1.3965316E-1,-1.0881602E0,-8.9390956E-2,-1.364879E-1,3.3331066E-2,-5.8124924E-1,2.2828624E-1,-4.836171E-2,2.3047203E-2,-7.313334E-2,-5.634628E-2,4.8905548E-2,-3.9602082E-2,-3.751099E-3,2.1459442E-2,-1.4628728E-2,3.366053E-2,-9.640627E-3,-8.509458E-2,-4.4389144E-3,1.2646264E-2,-4.951194E-2,3.452612E-2,1.28746545E-2,-1.6738476E-2,4.5349717E-2,4.4700112E-2,-6.546574E-2,5.897921E-2,-7.0629865E-2,-8.88637E-3,1.4800236E-2,-5.0516542E-2,2.0307332E-2,-3.2430284E-3,1.5606388E-2,-2.028404E-2,-6.094385E-4],"categories":[],"categories_nodes":[],"categories_segments":[],"categories_sizes":[],"default_left":[0,0,0,0,0,0,0,0,0,0,0,0,0,0,0,0,0,0,0,0,0,0,0,0,0,0,0,0,0,0,0,0,0,0,0,0,0,0,0,0,0,0,0,0,0,0,0,0,0,0,0,0,0,0,0,0,0,0,0,0,0],"id":25,"left_children":[1,3,5,7,9,11,13,15,17,19,21,23,25,27,29,31,33,35,37,39,41,43,45,47,49,-1,51,53,55,57,59,-1,-1,-1,-1,-1,-1,-1,-1,-1,-1,-1,-1,-1,-1,-1,-1,-1,-1,-1,-1,-1,-1,-1,-1,-1,-1,-1,-1,-1,-1],"loss_changes":[1.7022644E1,3.4297546E1,3.606242E1,1.4877952E1,1.2784897E1,1.7456715E1,1.7291386E1,4.121373E0,1.9749992E1,2.8581411E1,6.7371864E0,1.2728485E1,1.2455723E1,3.413427E1,3.3397305E1,1.1440597E1,1.0139468E1,2.8349365E1,1.7999998E1,1.9298853E1,1.7594017E1,3.593019E0,7.2643967E0,1.1920681E1,9.551273E0,0E0,1.3985898E1,1.2397793E1,6.500058E1,1.3828001E1,2.5259129E1,0E0,0E0,0E0,0E0,0E0,0E0,0E0,0E0,0E0,0E0,0E0,0E0,0E0,0E0,0E0,0E0,0E0,0E0,0E0,0E0,0E0,0E0,0E0,0E0,0E0,0E0,0E0,0E0,0E0,0E0],"parents":[2147483647,0,0,1,1,2,2,3,3,4,4,5,5,6,6,7,7,8,8,9,9,10,10,11,11,12,12,13,13,14,14,15,15,16,16,17,17,18,18,19,19,20,20,21,21,22,22,23,23,24,24,26,26,27,27,28,28,29,29,30,30],"right_children":[2,4,6,8,10,12,14,16,18,20,22,24,26,28,30,32,34,36,38,40,42,44,46,48,50,-1,52,54,56,58,60,-1,-1,-1,-1,-1,-1,-1,-1,-1,-1,-1,-1,-1,-1,-1,-1,-1,-1,-1,-1,-1,-1,-1,-1,-1,-1,-1,-1,-1,-1],"split_conditions":[1.8373895E2,1.47991E2,1.8954515E2,1.1E1,1.2521982E2,1E0,2.1982889E2,1.2321806E2,1.9E1,1.7871542E2,1.5E1,1.8E1,2.387313E2,2.147069E2,2.5016814E2,1.3381538E2,1.24657776E2,1.1810184E2,1.2782321E2,1.8E1,2.00641E2,2.5016814E2,1.9E1,1.6E1,1.2552357E2,-8.9390956E-2,2.4108119E2,1.9967723E2,2.6644492E2,2.300569E2,2.5855594E2,2.3047203E-2,-7.313334E-2,-5.634628E-2,4.8905548E-2,-3.9602082E-2,-3.751099E-3,2.1459442E-2,-1.4628728E-2,3.366053E-2,-9.640627E-3,-8.509458E-2,-4.4389144E-3,1.2646264E-2,-4.951194E-2,3.452612E-2,1.28746545E-2,-1.6738476E-2,4.5349717E-2,4.4700112E-2,-6.546574E-2,5.897921E-2,-7.0629865E-2,-8.88637E-3,1.4800236E-2,-5.0516542E-2,2.0307332E-2,-3.2430284E-3,1.5606388E-2,-2.028404E-2,-6.094385E-4],"split_indices":[0,4,0,2,0,1,4,0,2,4,2,2,4,0,4,4,4,0,4,2,4,4,2,2,4,0,4,0,0,4,4,0,0,0,0,0,0,0,0,0,0,0,0,0,0,0,0,0,0,0,0,0,0,0,0,0,0,0,0,0,0],"split_type":[0,0,0,0,0,0,0,0,0,0,0,0,0,0,0,0,0,0,0,0,0,0,0,0,0,0,0,0,0,0,0,0,0,0,0,0,0,0,0,0,0,0,0,0,0,0,0,0,0,0,0,0,0,0,0,0,0,0,0,0,0],"sum_hessian":[3.8444966E3,8.594376E2,2.9850588E3,4.531799E2,4.062577E2,9.750695E1,2.887552E3,4.298347E1,4.1019644E2,1.305282E2,2.757295E2,7.400372E1,2.3503227E1,3.7313144E2,2.5144204E3,2.0597837E1,2.2385635E1,2.6283215E2,1.4736429E2,1.040954E2,2.6432793E1,8.7101265E1,1.8862825E2,5.5885498E1,1.8118223E1,1.7167727E1,6.335501E0,2.2167853E2,1.5145291E2,5.60796E2,1.9536245E3,1.7892456E1,2.705383E0,1.7220091E0,2.0663626E1,7.767791E1,1.8515424E2,9.389408E1,5.3470207E1,6.0438763E1,4.3656635E1,1.1630278E1,1.4802516E1,8.56791E1,1.4221594E0,1.314768E2,5.7151436E1,4.7677578E1,8.20792E0,1.5132097E0,1.6605013E1,3.1561515E0,3.1793497E0,1.23095E2,9.858353E1,1.05558365E2,4.5894543E1,1.24770386E2,4.3602563E2,1.7865378E2,1.7749707E3],"tree_param":{"num_deleted":"0","num_feature":"5","num_nodes":"61","size_leaf_vector":"1"}},{"base_weights":[-1.0489424E-3,3.4302634E-3,-9.365133E-1,1.2106084E-1,-3.0307462E-2,1.6486262E-1,-6.052485E-2,-6.539106E-2,3.2848912E-1,-1.0446557E0,-1.9416558E-2,-4.9740624E-2,5.6906488E-2,4.661877E-1,-1.22006826E-1,8.574899E-2,4.4197696E-1,-2.3801307E-1,-8.912038E-2,-2.3640238E-1,1.4565615E-2,7.1543935E-3,3.736948E-2,-1.374911E-2,7.869507E-3,1.5100765E-2,-3.897472E-2,1.0504555E-2,2.7417755E-2,2.5924522E-2,-4.6183765E-2,-1.619168E-2,2.2326928E-2,1.0843125E-2,-2.3195406E-3],"categories":[],"categories_nodes":[],"categories_segments":[],"categories_sizes":[],"default_left":[0,0,0,0,0,0,0,0,0,0,0,0,0,0,0,0,0,0,0,0,0,0,0,0,0,0,0,0,0,0,0,0,0,0,0],"id":26,"left_children":[1,3,5,7,9,11,-1,13,15,17,19,-1,-1,21,23,25,27,29,-1,31,33,-1,-1,-1,-1,-1,-1,-1,-1,-1,-1,-1,-1,-1,-1],"loss_changes":[1.6108019E1,1.5188216E1,5.7276344E0,3.3011562E1,3.2836037E1,6.2445884E0,0E0,1.3601377E1,1.1090195E1,1.8366245E1,2.1708586E1,0E0,0E0,3.8476696E0,1.7461079E1,2.4548794E1,6.6688614E0,8.901397E0,0E0,2.3947279E1,3.1405212E1,0E0,0E0,0E0,0E0,0E0,0E0,0E0,0E0,0E0,0E0,0E0,0E0,0E0,0E0],"parents":[2147483647,0,0,1,1,2,2,3,3,4,4,5,5,7,7,8,8,9,9,10,10,13,13,14,14,15,15,16,16,17,17,19,19,20,20],"right_children":[2,4,6,8,10,12,-1,14,16,18,20,-1,-1,22,24,26,28,30,-1,32,34,-1,-1,-1,-1,-1,-1,-1,-1,-1,-1,-1,-1,-1,-1],"split_conditions":[2.2E1,1.8373895E2,1.4463577E2,1.47991E2,1.8593001E2,1.4275641E2,-6.052485E-2,1.1E1,1.2521982E2,1.5E1,2.1871715E2,-4.9740624E-2,5.6906488E-2,1.2321806E2,1.9E1,1.7871542E2,1.5E1,1.7499709E2,-8.912038E-2,2.6644492E2,2.5016814E2,7.1543935E-3,3.736948E-2,-1.374911E-2,7.869507E-3,1.5100765E-2,-3.897472E-2,1.0504555E-2,2.7417755E-2,2.5924522E-2,-4.6183765E-2,-1.619168E-2,2.2326928E-2,1.0843125E-2,-2.3195406E-3],"split_indices":[2,0,4,4,0,4,0,2,0,2,4,0,0,0,2,4,2,4,0,0,4,0,0,0,0,0,0,0,0,0,0,0,0,0,0],"split_type":[0,0,0,0,0,0,0,0,0,0,0,0,0,0,0,0,0,0,0,0,0,0,0,0,0,0,0,0,0,0,0,0,0,0,0],"sum_hessian":[3.842503E3,3.8251836E3,1.7319473E1,8.519992E2,2.9731843E3,3.529532E0,1.3789942E1,4.4904712E2,4.0295206E2,3.0575216E1,2.9426091E3,1.6004333E0,1.9290986E0,4.2526024E1,4.0652112E2,1.2893259E2,2.7401947E2,1.5237487E1,1.53377285E1,3.9763568E2,2.5449734E3,2.04909E1,2.2035122E1,2.6270224E2,1.4381886E2,1.0367109E2,2.526149E1,8.710993E1,1.8690955E2,7.360417E0,7.8770704E0,3.529733E2,4.4662388E1,5.886976E2,1.9562759E3],"tree_param":{"num_deleted":"0","num_feature":"5","num_nodes":"35","size_leaf_vector":"1"}},{"base_weights":[-1.0250027E-3,7.987068E-3,-4.4392627E-1,-8.309727E-3,2.2518036E-1,-2.828815E-1,-5.7653733E-2,-1.3906695E-1,4.378944E-2,1.0795555E-1,3.671699E-1,-5.9820022E-2,-1.3468038E-1,-8.8532E-2,-5.707353E-1,1.3243976E-1,-3.891413E-2,1.7133953E-1,-7.778053E-1,8.136348E-1,2.1127139E-1,8.4887666E-1,-3.8338375E-1,-6.3204565E-3,3.547452E-2,-1.8679997E-2,-6.5183334E-2,1.2125721E-2,-7.073539E-3,-1.2420924E-2,4.6046013E-3,2.9850726E-3,3.752708E-2,-9.512553E-3,-8.613572E-2,8.264025E-3,4.6000805E-2,-8.179129E-2,1.3235814E-2,2.918607E-2,7.599231E-2,-6.420169E-2,3.9768997E-3],"categories":[],"categories_nodes":[],"categories_segments":[],"categories_sizes":[],"default_left":[0,0,0,0,0,0,0,0,0,0,0,0,0,0,0,0,0,0,0,0,0,0,0,0,0,0,0,0,0,0,0,0,0,0,0,0,0,0,0,0,0,0,0],"id":27,"left_children":[1,3,5,7,9,11,-1,13,15,17,19,-1,21,23,25,27,29,31,33,35,37,39,41,-1,-1,-1,-1,-1,-1,-1,-1,-1,-1,-1,-1,-1,-1,-1,-1,-1,-1,-1,-1],"loss_changes":[1.5338714E1,1.3333114E1,8.425877E0,2.3879583E1,4.3364954E0,8.4733305E0,0E0,2.1735918E1,1.8383713E1,8.298313E0,8.074809E0,0E0,1.4024258E1,2.7149887E1,1.4609272E1,3.651935E1,3.5638187E1,8.784027E0,5.164445E0,1.938755E0,9.235508E0,1.1790552E0,1.902576E1,0E0,0E0,0E0,0E0,0E0,0E0,0E0,0E0,0E0,0E0,0E0,0E0,0E0,0E0,0E0,0E0,0E0,0E0,0E0,0E0],"parents":[2147483647,0,0,1,1,2,2,3,3,4,4,5,5,7,7,8,8,9,9,10,10,12,12,13,13,14,14,15,15,16,16,17,17,18,18,19,19,20,20,21,21,22,22],"right_children":[2,4,6,8,10,12,-1,14,16,18,20,-1,22,24,26,28,30,32,34,36,38,40,42,-1,-1,-1,-1,-1,-1,-1,-1,-1,-1,-1,-1,-1,-1,-1,-1,-1,-1,-1,-1],"split_conditions":[2E1,5E0,2.5848007E2,1.5E1,2.4843274E2,1.2418794E2,-5.7653733E-2,1.2233291E3,1.8E1,2.4455476E2,2.529521E2,-5.9820022E-2,1.5080223E2,1.2323066E3,1.4E1,1E0,1.9E1,2.5848007E2,2.529521E2,2.2100305E2,2.557168E2,2.0948505E2,2.2078938E2,-6.3204565E-3,3.547452E-2,-1.8679997E-2,-6.5183334E-2,1.2125721E-2,-7.073539E-3,-1.2420924E-2,4.6046013E-3,2.9850726E-3,3.752708E-2,-9.512553E-3,-8.613572E-2,8.264025E-3,4.6000805E-2,-8.179129E-2,1.3235814E-2,2.918607E-2,7.599231E-2,-6.420169E-2,3.9768997E-3],"split_indices":[2,3,0,2,4,0,0,0,2,4,0,0,4,4,2,1,2,0,0,0,0,0,4,0,0,0,0,0,0,0,0,0,0,0,0,0,0,0,0,0,0,0,0],"split_type":[0,0,0,0,0,0,0,0,0,0,0,0,0,0,0,0,0,0,0,0,0,0,0,0,0,0,0,0,0,0,0,0,0,0,0,0,0,0,0,0,0,0,0],"sum_hessian":[3.840997E3,3.765362E3,7.56349E1,3.5034475E3,2.6191455E2,6.2777325E1,1.2857579E1,9.9772144E2,2.505726E3,1.4443286E2,1.1748168E2,7.775563E0,5.5001762E1,8.942389E2,1.034825E2,1.2090929E3,1.2966333E3,1.3554033E2,8.892539E0,2.9313667E1,8.8168015E1,1.0613789E1,4.4387974E1,8.545217E2,3.97172E1,8.2738266E1,2.0744232E1,8.625715E2,3.4652142E2,4.9851483E2,7.9811847E2,1.14562164E2,2.0978163E1,6.223836E0,2.6687028E0,4.491753E0,2.4821915E1,1.6467662E0,8.652125E1,8.94776E0,1.6660285E0,1.4467186E1,2.9920788E1],"tree_param":{"num_deleted":"0","num_feature":"5","num_nodes":"43","size_leaf_vector":"1"}},{"base_weights":[-1.033137E-3,1.123596E-1,-3.3657175E-2,-5.975643E-2,3.0410284E-1,-5.864314E-1,-1.49265E-2,4.444298E-1,-1.1266032E-1,4.335519E-1,1.0051192E-1,-3.5027704E-1,-1.2901708E0,3.5791674E-1,-3.12872E-2,1.3370453E-1,7.177622E-1,-2.5859192E-1,1.4750746E-1,4.698195E-1,-7.873284E-2,-2.32815E-1,8.317283E-1,-1.24351025E-1,-1.0158534E0,-8.423629E-2,-1.3405544E-1,-3.9023116E-2,7.040555E-1,-1.1159577E0,-2.2191562E-2,2.1649633E-2,-7.092657E-2,-5.59129E-2,4.6045434E-2,-3.6900636E-2,-2.752267E-3,1.9833175E-2,-1.4513902E-2,2.6729673E-2,-2.0012308E-2,-1.5218284E-3,-4.1024104E-2,-4.8575472E-2,4.470043E-2,-1.5385374E-2,4.3262143E-2,-7.7942744E-2,-6.2480303E-3,5.7195783E-2,-6.8034224E-2,2.5835931E-2,-4.1898537E-2,4.780214E-2,2.1806387E-2,4.1597866E-2,-7.661693E-2,-3.484466E-2,-6.657663E-4],"categories":[],"categories_nodes":[],"categories_segments":[],"categories_sizes":[],"default_left":[0,0,0,0,0,0,0,0,0,0,0,0,0,0,0,0,0,0,0,0,0,0,0,0,0,0,0,0,0,0,0,0,0,0,0,0,0,0,0,0,0,0,0,0,0,0,0,0,0,0,0,0,0,0,0,0,0,0,0],"id":28,"left_children":[1,3,5,7,9,11,13,15,17,19,21,23,25,27,29,31,33,35,37,39,-1,41,43,45,47,-1,49,51,53,55,57,-1,-1,-1,-1,-1,-1,-1,-1,-1,-1,-1,-1,-1,-1,-1,-1,-1,-1,-1,-1,-1,-1,-1,-1,-1,-1,-1,-1],"loss_changes":[1.4200364E1,2.8322575E1,3.0855564E1,1.2127655E1,1.0652725E1,1.5780407E1,1.7605253E1,3.5732126E0,1.562701E1,1.8788143E1,3.8960815E1,1.1076983E1,1.07985E1,1.6697083E1,2.7243805E1,1.0577688E1,9.516959E0,2.5664095E1,1.627851E1,1.3975319E1,0E0,1.3061445E1,6.4862785E0,1.0565778E1,8.87154E0,0E0,1.289939E1,2.5946949E1,3.9621735E0,1.990074E1,1.6411999E1,0E0,0E0,0E0,0E0,0E0,0E0,0E0,0E0,0E0,0E0,0E0,0E0,0E0,0E0,0E0,0E0,0E0,0E0,0E0,0E0,0E0,0E0,0E0,0E0,0E0,0E0,0E0,0E0],"parents":[2147483647,0,0,1,1,2,2,3,3,4,4,5,5,6,6,7,7,8,8,9,9,10,10,11,11,12,12,13,13,14,14,15,15,16,16,17,17,18,18,19,19,21,21,22,22,23,23,24,24,26,26,27,27,28,28,29,29,30,30],"right_children":[2,4,6,8,10,12,14,16,18,20,22,24,26,28,30,32,34,36,38,40,-1,42,44,46,48,-1,50,52,54,56,58,-1,-1,-1,-1,-1,-1,-1,-1,-1,-1,-1,-1,-1,-1,-1,-1,-1,-1,-1,-1,-1,-1,-1,-1,-1,-1,-1,-1],"split_conditions":[1.8373895E2,1.47991E2,1.8954515E2,1.1E1,1.8E1,1E0,1.9403815E2,1.2321806E2,1.9E1,2.5016814E2,1.7478395E2,1.8E1,2.387313E2,2.0911298E2,1.9535518E2,1.3381538E2,1.24657776E2,1.1810184E2,1.2782321E2,1.818459E2,-7.873284E-2,1.8072748E2,1.5335822E2,1.6E1,1.8741702E2,-8.423629E-2,2.4108119E2,1.9347758E2,1.9129086E2,1.1E1,1.6365471E2,2.1649633E-2,-7.092657E-2,-5.59129E-2,4.6045434E-2,-3.6900636E-2,-2.752267E-3,1.9833175E-2,-1.4513902E-2,2.6729673E-2,-2.0012308E-2,-1.5218284E-3,-4.1024104E-2,-4.8575472E-2,4.470043E-2,-1.5385374E-2,4.3262143E-2,-7.7942744E-2,-6.2480303E-3,5.7195783E-2,-6.8034224E-2,2.5835931E-2,-4.1898537E-2,4.780214E-2,2.1806387E-2,4.1597866E-2,-7.661693E-2,-3.484466E-2,-6.657663E-4],"split_indices":[0,4,0,2,2,1,0,0,2,4,0,2,4,4,0,4,4,0,4,0,0,4,4,2,0,0,4,4,0,2,4,0,0,0,0,0,0,0,0,0,0,0,0,0,0,0,0,0,0,0,0,0,0,0,0,0,0,0,0],"split_type":[0,0,0,0,0,0,0,0,0,0,0,0,0,0,0,0,0,0,0,0,0,0,0,0,0,0,0,0,0,0,0,0,0,0,0,0,0,0,0,0,0,0,0,0,0,0,0,0,0,0,0,0,0,0,0,0,0,0,0],"sum_hessian":[3.8366104E3,8.566549E2,2.9799556E3,4.5179495E2,4.0485995E2,9.667262E1,2.8832827E3,4.2201756E1,4.0959317E2,2.4680475E2,1.5805522E2,7.3504425E1,2.3168198E1,1.2032501E2,2.7629578E3,2.0446856E1,2.17549E1,2.6240997E2,1.4718321E2,2.4317906E2,3.625683E0,1.0903358E2,4.902164E1,5.5762875E1,1.7741549E1,1.6932354E1,6.235843E0,5.6462757E1,6.3862255E1,2.196448E1,2.7409934E3,1.7746239E1,2.7006173E0,1.7185062E0,2.0036394E1,7.742417E1,1.849858E2,9.385922E1,5.332399E1,2.2668832E2,1.6490747E1,8.188585E1,2.714773E1,1.1491998E0,4.787244E1,4.7627323E1,8.135551E0,1.0557164E1,7.184385E0,3.0870316E0,3.1488118E0,3.350806E1,2.2954695E1,3.1586617E1,3.227564E1,3.6924355E0,1.8272043E1,3.4585217E1,2.7064082E3],"tree_param":{"num_deleted":"0","num_feature":"5","num_nodes":"59","size_leaf_vector":"1"}},{"base_weights":[-1.0834015E-3,2.959458E-3,-8.939969E-1,7.926887E-2,-4.1276623E-2,1.6643901E-1,-5.8640547E-2,5.3228375E-2,6.769112E-1,-4.159427E-1,-7.4955113E-3,-4.8560593E-2,5.4802127E-2,6.548889E-2,-8.631183E-2,-8.041053E-2,9.2741585E-1,-5.5342305E-1,6.7800206E-1,2.5787282E-1,-5.4983042E-2,-3.4194903E-3,6.9639846E-3,3.3071402E-3,5.110336E-2,-4.4388857E-2,-1.0347633E-2,4.6048418E-2,-6.2055774E-2,9.5568895E-3,3.83455E-2,-2.1127801E-2,-7.251241E-4],"categories":[],"categories_nodes":[],"categories_segments":[],"categories_sizes":[],"default_left":[0,0,0,0,0,0,0,0,0,0,0,0,0,0,0,0,0,0,0,0,0,0,0,0,0,0,0,0,0,0,0,0,0],"id":29,"left_children":[1,3,5,7,9,11,-1,13,15,17,19,-1,-1,21,-1,-1,23,25,27,29,31,-1,-1,-1,-1,-1,-1,-1,-1,-1,-1,-1,-1],"loss_changes":[1.3849061E1,1.2896021E1,5.307762E0,2.1781878E1,3.0606245E1,5.797765E0,0E0,2.944553E1,3.494944E1,3.0454681E1,2.7982887E1,0E0,0E0,1.3210189E1,0E0,0E0,4.2781525E0,2.0462376E1,1.1764105E1,1.1303505E1,2.8017784E1,0E0,0E0,0E0,0E0,0E0,0E0,0E0,0E0,0E0,0E0,0E0,0E0],"parents":[2147483647,0,0,1,1,2,2,3,3,4,4,5,5,7,7,8,8,9,9,10,10,13,13,16,16,17,17,18,18,19,19,20,20],"right_children":[2,4,6,8,10,12,-1,14,16,18,20,-1,-1,22,-1,-1,24,26,28,30,32,-1,-1,-1,-1,-1,-1,-1,-1,-1,-1,-1,-1],"split_conditions":[2.2E1,2.2025705E2,1.4463577E2,2.1883298E2,2.300569E2,1.4275641E2,-5.8640547E-2,2.1768283E2,2.1422105E2,3.237121E2,2.5016814E2,-4.8560593E-2,5.4802127E-2,1.47991E2,-8.631183E-2,-8.041053E-2,1.1E1,1.6E1,3.567152E2,3.055749E2,2.5972458E2,-3.4194903E-3,6.9639846E-3,3.3071402E-3,5.110336E-2,-4.4388857E-2,-1.0347633E-2,4.6048418E-2,-6.2055774E-2,9.5568895E-3,3.83455E-2,-2.1127801E-2,-7.251241E-4],"split_indices":[2,0,4,0,4,4,0,0,4,0,4,0,0,4,0,0,2,2,0,0,4,0,0,0,0,0,0,0,0,0,0,0,0],"split_type":[0,0,0,0,0,0,0,0,0,0,0,0,0,0,0,0,0,0,0,0,0,0,0,0,0,0,0,0,0,0,0,0,0],"sum_hessian":[3.834653E3,3.8183613E3,1.6291773E1,1.4009176E3,2.4174436E3,3.4756386E0,1.2816134E1,1.343469E3,5.7448624E1,1.990019E2,2.218442E3,1.5427986E0,1.9328399E0,1.3352324E3,8.236552E0,5.140127E0,5.23085E1,1.7722363E2,2.1778284E1,3.3605872E2,1.882383E3,4.7447162E2,8.607608E2,5.347562E0,4.6960934E1,8.939372E1,8.78299E1,1.979259E1,1.9856952E0,2.983238E2,3.773491E1,1.8580367E2,1.6965795E3],"tree_param":{"num_deleted":"0","num_feature":"5","num_nodes":"33","size_leaf_vector":"1"}},{"base_weights":[-1.0870289E-3,7.26119E-3,-4.198506E-1,1.1264402E-1,-2.2748752E-2,-2.6385856E-1,-5.656913E-2,-5.6470934E-2,3.0276042E-1,-5.641073E-1,-5.255926E-3,-3.348986E-1,7.2378635E-2,4.285651E-1,-1.08160734E-1,4.238324E-1,2.0093746E-2,-3.2557195E-1,-1.3323069E0,3.7834644E-1,-2.1953516E-2,-5.834719E-2,-1.9780344E-1,6.428336E-3,3.4755934E-2,-1.2131859E-2,7.443228E-3,2.5725892E-2,-3.446841E-4,-3.5758715E-2,1.4325603E-2,-6.186091E-3,-5.2006125E-2,-8.123217E-2,-4.390838E-3,9.021419E-3,5.0380595E-2,-5.315094E-2,-6.706062E-4,4.138803E-2,-2.3477279E-2],"categories":[],"categories_nodes":[],"categories_segments":[],"categories_sizes":[],"default_left":[0,0,0,0,0,0,0,0,0,0,0,0,0,0,0,0,0,0,0,0,0,0,0,0,0,0,0,0,0,0,0,0,0,0,0,0,0,0,0,0,0],"id":30,"left_children":[1,3,5,7,9,11,-1,13,15,17,19,21,-1,23,25,27,29,31,33,35,37,-1,39,-1,-1,-1,-1,-1,-1,-1,-1,-1,-1,-1,-1,-1,-1,-1,-1,-1,-1],"loss_changes":[1.3408424E1,1.1895583E1,8.022253E0,2.6822105E1,2.7723848E1,8.11889E0,0E0,1.112961E1,1.3428852E1,1.6358175E1,1.8181583E1,6.738846E0,0E0,3.3311734E0,1.3871759E1,1.073925E1,2.347531E1,1.0147633E1,7.6389313E0,1.4564629E1,2.4171041E1,0E0,1.53434305E1,0E0,0E0,0E0,0E0,0E0,0E0,0E0,0E0,0E0,0E0,0E0,0E0,0E0,0E0,0E0,0E0,0E0,0E0],"parents":[2147483647,0,0,1,1,2,2,3,3,4,4,5,5,7,7,8,8,9,9,10,10,11,11,13,13,14,14,15,15,16,16,17,17,18,18,19,19,20,20,22,22],"right_children":[2,4,6,8,10,12,-1,14,16,18,20,22,-1,24,26,28,30,32,34,36,38,-1,40,-1,-1,-1,-1,-1,-1,-1,-1,-1,-1,-1,-1,-1,-1,-1,-1,-1,-1],"split_conditions":[2E1,1.8373895E2,2.5848007E2,1.47991E2,1.8954515E2,2.9318176E2,-5.656913E-2,1.1E1,1.8072748E2,1.8E1,1.9403815E2,1.2418794E2,7.2378635E-2,1.2321806E2,1.9E1,1.9E1,1.9520311E2,1E0,1.8895984E2,1.9E1,1.9535518E2,-5.834719E-2,1.5080223E2,6.428336E-3,3.4755934E-2,-1.2131859E-2,7.443228E-3,2.5725892E-2,-3.446841E-4,-3.5758715E-2,1.4325603E-2,-6.186091E-3,-5.2006125E-2,-8.123217E-2,-4.390838E-3,9.021419E-3,5.0380595E-2,-5.315094E-2,-6.706062E-4,4.138803E-2,-2.3477279E-2],"split_indices":[2,0,0,4,0,4,0,2,4,2,0,0,0,0,2,2,4,1,0,2,0,0,4,0,0,0,0,0,0,0,0,0,0,0,0,0,0,0,0,0,0],"split_type":[0,0,0,0,0,0,0,0,0,0,0,0,0,0,0,0,0,0,0,0,0,0,0,0,0,0,0,0,0,0,0,0,0,0,0,0,0,0,0,0,0],"sum_hessian":[3.8335667E3,3.7596E3,7.396648E1,8.3270874E2,2.9268914E3,6.1790684E1,1.217579E1,4.4106738E2,3.9164136E2,9.0637665E1,2.8362537E3,6.0100292E1,1.6903946E0,4.1775166E1,3.9929224E2,2.7384744E2,1.17793915E2,7.024847E1,2.0389198E1,1.17404335E2,2.7188494E3,7.4391804E0,5.266111E1,2.0351952E1,2.1423212E1,2.6217657E2,1.3711565E2,2.2605838E2,4.778906E1,3.088162E1,8.691229E1,5.5689995E1,1.4558467E1,1.6263384E1,4.1258144E0,9.029216E1,2.7112179E1,2.1120558E1,2.6977288E3,1.0602142E1,4.2058968E1],"tree_param":{"num_deleted":"0","num_feature":"5","num_nodes":"41","size_leaf_vector":"1"}},{"base_weights":[-1.0713342E-3,2.6759794E-3,-8.682601E-1,-1.2410433E-2,2.0807825E-1,1.5199724E-1,-5.73587E-2,-7.1090937E-1,-3.1806068E-3,8.715975E-2,3.542134E-1,-4.7717597E-2,5.199948E-2,-8.8051707E-1,-2.907641E-1,3.5831243E-2,-1.0318169E-1,1.3742495E-1,-9.3832666E-1,7.904611E-1,2.0306285E-1,-3.0378351E-2,-5.5963453E-2,5.639977E-3,-4.970592E-2,4.7340184E-3,-3.5707436E-3,-4.6845484E-3,-7.537981E-2,2.2572104E-3,3.0652476E-2,-9.402005E-4,-7.990422E-2,7.8109154E-3,4.4776402E-2,-7.811069E-2,1.2744702E-2],"categories":[],"categories_nodes":[],"categories_segments":[],"categories_sizes":[],"default_left":[0,0,0,0,0,0,0,0,0,0,0,0,0,0,0,0,0,0,0,0,0,0,0,0,0,0,0,0,0,0,0,0,0,0,0,0,0],"id":31,"left_children":[1,3,5,7,9,11,-1,13,15,17,19,-1,-1,21,23,25,27,29,31,33,35,-1,-1,-1,-1,-1,-1,-1,-1,-1,-1,-1,-1,-1,-1,-1,-1],"loss_changes":[1.24562025E1,1.1830354E1,4.867528E0,2.29278E1,4.584984E0,5.338496E0,0E0,3.0490074E0,1.3702112E1,7.565469E0,7.6170225E0,0E0,0E0,1.4410706E0,4.32203E0,1.5953351E1,1.2996435E1,6.046836E0,4.1369915E0,1.8596077E0,8.536327E0,0E0,0E0,0E0,0E0,0E0,0E0,0E0,0E0,0E0,0E0,0E0,0E0,0E0,0E0,0E0,0E0],"parents":[2147483647,0,0,1,1,2,2,3,3,4,4,5,5,7,7,8,8,9,9,10,10,13,13,14,14,15,15,16,16,17,17,18,18,19,19,20,20],"right_children":[2,4,6,8,10,12,-1,14,16,18,20,-1,-1,22,24,26,28,30,32,34,36,-1,-1,-1,-1,-1,-1,-1,-1,-1,-1,-1,-1,-1,-1,-1,-1],"split_conditions":[2.2E1,5E0,1.4463577E2,1.1E1,2.4843274E2,1.4275641E2,-5.73587E-2,1.3826749E3,1E0,2.4519234E2,2.529521E2,-4.7717597E-2,5.199948E-2,3.0081293E2,1.5012062E3,1.8E1,1.4238759E3,2.5848007E2,2.288258E2,2.2100305E2,2.557168E2,-3.0378351E-2,-5.5963453E-2,5.639977E-3,-4.970592E-2,4.7340184E-3,-3.5707436E-3,-4.6845484E-3,-7.537981E-2,2.2572104E-3,3.0652476E-2,-9.402005E-4,-7.990422E-2,7.8109154E-3,4.4776402E-2,-7.811069E-2,1.2744702E-2],"split_indices":[2,3,4,2,4,4,0,0,1,4,0,0,0,4,0,2,0,0,0,0,0,0,0,0,0,0,0,0,0,0,0,0,0,0,0,0,0],"split_type":[0,0,0,0,0,0,0,0,0,0,0,0,0,0,0,0,0,0,0,0,0,0,0,0,0,0,0,0,0,0,0,0,0,0,0,0,0],"sum_hessian":[3.831401E3,3.8159084E3,1.5492466E1,3.5556892E3,2.6021915E2,3.4237063E0,1.206876E1,4.537998E1,3.5103093E3,1.4326881E2,1.1695034E2,1.4911516E0,1.9325548E0,3.154848E1,1.3831497E1,2.5256565E3,9.846529E2,1.3740001E2,5.8688016E0,2.9005526E1,8.794481E1,1.6373943E1,1.5174537E1,9.322279E0,4.5092177E0,1.6308679E3,8.947885E2,9.79103E2,5.5498533E0,1.1599044E2,2.1409565E1,2.8814065E0,2.987395E0,4.4755344E0,2.4529991E1,1.6773366E0,8.626748E1],"tree_param":{"num_deleted":"0","num_feature":"5","num_nodes":"37","size_leaf_vector":"1"}},{"base_weights":[-1.1089134E-3,6.6076545E-3,-3.9615434E-1,1.0759889E-1,-2.2144416E-2,-2.4465139E-1,-5.5595722E-2,-5.2945077E-2,2.880996E-1,-5.4076695E-1,-5.428258E-3,-5.7138648E-2,-1.06489696E-1,4.089999E-1,-1.0183585E-1,4.0291077E-1,2.035991E-2,-3.132568E-1,-1.28169E0,3.5921395E-1,-2.1304315E-2,7.919932E-1,-3.3927873E-1,1.1302795E-2,4.2055015E-2,-1.1562057E-2,7.266863E-3,7.882089E-3,2.7935503E-2,-3.394882E-2,1.3699916E-2,-3.5991397E-2,1.5877914E-3,-7.838691E-2,-4.058873E-3,-8.335136E-4,3.403901E-2,-3.7802525E-2,-4.730932E-4,2.6417194E-2,7.3327035E-2,-6.185433E-2,4.6862694E-3],"categories":[],"categories_nodes":[],"categories_segments":[],"categories_sizes":[],"default_left":[0,0,0,0,0,0,0,0,0,0,0,0,0,0,0,0,0,0,0,0,0,0,0,0,0,0,0,0,0,0,0,0,0,0,0,0,0,0,0,0,0,0,0],"id":32,"left_children":[1,3,5,7,9,11,-1,13,15,17,19,-1,21,23,25,27,29,31,33,35,37,39,41,-1,-1,-1,-1,-1,-1,-1,-1,-1,-1,-1,-1,-1,-1,-1,-1,-1,-1,-1,-1],"loss_changes":[1.1676354E1,1.0911856E1,7.685896E0,2.4147457E1,2.5357733E1,7.5527754E0,0E0,1.0014985E1,1.2047031E1,1.4994446E1,1.6419592E1,0E0,1.171062E1,3.1665864E0,1.2831999E1,1.0398315E1,2.1250185E1,1.001034E1,7.1299896E0,1.4315018E1,2.3639599E1,1.2804856E0,1.7278687E1,0E0,0E0,0E0,0E0,0E0,0E0,0E0,0E0,0E0,0E0,0E0,0E0,0E0,0E0,0E0,0E0,0E0,0E0,0E0,0E0],"parents":[2147483647,0,0,1,1,2,2,3,3,4,4,5,5,7,7,8,8,9,9,10,10,12,12,13,13,14,14,15,15,16,16,17,17,18,18,19,19,20,20,21,21,22,22],"right_children":[2,4,6,8,10,12,-1,14,16,18,20,-1,22,24,26,28,30,32,34,36,38,40,42,-1,-1,-1,-1,-1,-1,-1,-1,-1,-1,-1,-1,-1,-1,-1,-1,-1,-1,-1,-1],"split_conditions":[2E1,1.8373895E2,2.5848007E2,1.47991E2,1.8954515E2,1.2418794E2,-5.5595722E-2,1.1E1,1.8072748E2,1.8E1,1.9403815E2,-5.7138648E-2,1.5080223E2,1.4187909E2,1.9E1,1.5679755E2,1.9520311E2,2.0704965E2,1.8895984E2,2.0911298E2,1.6669217E2,2.0948505E2,2.2078938E2,1.1302795E-2,4.2055015E-2,-1.1562057E-2,7.266863E-3,7.882089E-3,2.7935503E-2,-3.394882E-2,1.3699916E-2,-3.5991397E-2,1.5877914E-3,-7.838691E-2,-4.058873E-3,-8.335136E-4,3.403901E-2,-3.7802525E-2,-4.730932E-4,2.6417194E-2,7.3327035E-2,-6.185433E-2,4.6862694E-3],"split_indices":[2,0,0,4,0,0,0,2,4,2,0,0,4,0,2,4,4,4,0,4,4,0,4,0,0,0,0,0,0,0,0,0,0,0,0,0,0,0,0,0,0,0,0],"split_type":[0,0,0,0,0,0,0,0,0,0,0,0,0,0,0,0,0,0,0,0,0,0,0,0,0,0,0,0,0,0,0,0,0,0,0,0,0,0,0,0,0,0,0],"sum_hessian":[3.82847E3,3.7560842E3,7.2385704E1,8.317681E2,2.9243162E3,6.0847984E1,1.1537719E1,4.4059415E2,3.91174E2,9.033399E1,2.8339822E3,7.1430755E0,5.3704906E1,4.146319E1,3.9913095E2,2.734215E2,1.1775251E2,